//Numpy array shape [64]
//Min -0.079503230751
//Max 0.128299370408
//Number of zeros 0

#ifndef B8_H_
#define B8_H_

#ifndef __SYNTHESIS__
conv1d_2_bias_t b8[64];
#else
conv1d_2_bias_t b8[64] = {-0.0574021712, -0.0508628413, -0.0725604370, -0.0485084094, -0.0143707981, -0.0180309173, -0.0149662839, 0.0767125264, 0.0614803322, -0.0725107044, 0.0693343058, 0.0747077242, -0.0115047600, -0.0483213291, -0.0614314750, -0.0795032308, -0.0456047170, -0.0348431692, -0.0492242798, -0.0543107837, 0.1029991806, -0.0176425949, -0.0454575382, -0.0756467953, 0.1088971123, -0.0211172663, 0.0927186385, -0.0409093611, 0.0828649625, 0.0923779458, 0.0820158496, -0.0133539084, 0.0746838078, 0.0664809272, -0.0515970886, 0.0011853721, -0.0479589850, 0.0733234361, -0.0158407874, -0.0563954189, -0.0454986542, -0.0514313616, -0.0147793703, 0.0830567852, -0.0586162470, -0.0658225939, -0.0389125422, -0.0390149839, 0.0640095770, -0.0523306094, -0.0135783255, -0.0477695800, -0.0477084555, 0.0765261352, -0.0589348674, -0.0462998673, 0.0751932263, 0.1282993704, -0.0382906124, 0.0634021983, -0.0524080321, -0.0612553768, -0.0482192561, -0.0794243142};
#endif

#endif
