//Numpy array shape [5, 16, 32]
//Min -0.385364502668
//Max 0.423227608204
//Number of zeros 0

#ifndef W5_H_
#define W5_H_

#ifndef __SYNTHESIS__
conv1d_1_weight_t w5[2560];
#else
conv1d_1_weight_t w5[2560] = {0.1222290769, -0.1256748289, -0.1361592710, -0.1019176617, -0.1589840502, 0.0956526250, 0.0945921317, 0.0493200719, 0.0095511358, 0.0533745140, -0.1382061690, 0.0515586697, 0.0278052911, -0.2125311792, -0.1263782829, -0.0450315401, 0.0121710636, 0.1762007773, -0.0677012429, -0.0065065352, 0.0357564911, -0.0460588261, 0.1268400997, 0.0618984476, 0.1016659439, -0.0517052598, 0.1236564144, 0.0222628787, 0.1750673950, 0.0526989959, 0.0032637662, -0.0303764734, 0.1122819856, 0.1341345608, -0.1825110018, 0.1049629822, -0.1558238864, 0.1256727129, -0.0746404529, -0.1813853681, 0.0854931027, -0.1127229035, -0.0169356950, -0.0523151457, 0.1329335272, -0.1118823290, -0.1471310854, 0.1587705165, 0.1203597412, 0.1571254879, -0.1437714994, -0.0819639191, -0.1355221421, 0.0543105751, 0.1231625527, 0.0725279376, -0.1087375209, 0.0123363454, -0.0479827896, 0.1513361782, 0.0005850345, -0.0590001158, -0.0185794067, -0.0226462279, 0.0011599038, 0.0488474257, -0.0056469343, 0.1133662015, -0.1152280867, -0.1425271481, 0.0565144531, -0.0239830557, -0.0786450952, -0.0623339079, -0.0275135022, 0.1675441414, -0.1081357598, -0.1556326747, -0.0780891478, -0.1235415787, -0.1652853340, 0.0179822315, 0.1653672159, -0.0831776559, 0.1580350846, -0.1178121865, 0.1755725294, 0.0481094941, -0.1796510220, -0.0776317418, -0.1374621093, 0.0604836792, 0.0247342326, -0.0428097993, 0.1168700010, -0.2035078555, -0.0149681875, -0.0468903631, -0.0690585375, -0.0070240260, -0.0319729969, -0.0159609132, -0.1312243491, -0.0609849393, -0.1855613589, -0.1012349129, -0.1523889899, -0.1715456992, -0.0724707469, 0.1499343961, 0.1321655810, 0.0188143756, -0.1704090387, -0.0005878292, 0.0245745238, 0.0682802722, -0.0066153985, 0.0640449002, 0.0698033199, 0.0027577509, -0.2301016897, -0.0047700005, -0.0177585185, -0.0072541893, -0.0624259152, -0.0330312401, 0.1515425593, -0.0415949337, -0.2030200958, 0.0062121628, -0.1075830609, 0.1922417879, 0.0195694659, 0.0766952783, 0.2286923826, -0.1387484521, -0.1342047751, 0.1106325239, -0.0933134481, 0.0070020645, -0.0010640798, 0.0007295875, -0.0012974922, -0.2149284035, 0.1689545363, -0.1485484689, 0.0343535878, 0.0647746250, 0.0860332102, 0.1103104949, 0.0500635020, 0.1429661214, 0.2115003914, 0.1635038555, -0.3153766394, -0.1897779852, 0.0652274936, 0.2404027879, -0.0409678183, -0.1294910014, -0.1067391187, 0.1436037123, -0.0167914368, 0.1119432151, -0.0627512485, -0.2270019799, -0.2421101928, -0.2256433964, 0.0895452946, 0.0888042152, 0.1217047498, 0.0310202595, -0.1276492029, -0.0172373168, -0.1548405737, -0.1081347540, 0.1300565451, 0.1039648429, 0.0396001935, 0.0056023593, -0.1134158075, -0.1224581972, -0.1942048371, -0.0261209942, -0.0059097661, 0.1273424327, -0.0566068254, 0.0468677022, -0.0514410324, -0.1134248823, -0.1397122741, 0.0437123626, -0.1067473367, -0.1166348979, -0.1017537713, 0.0185741615, 0.1393472701, -0.1685788333, 0.1093871221, 0.1047236696, -0.0927944109, 0.0758489370, 0.0743542686, -0.0791558996, -0.1577410996, 0.1391285807, -0.1065952554, 0.1115554720, 0.0551540889, 0.0001696360, -0.0816474333, -0.0140476674, 0.0571442209, 0.0359627232, 0.0598881915, 0.0409594104, 0.0645647198, -0.1292220354, 0.0075747757, 0.1097505540, -0.2077340931, -0.0243683103, -0.2230125368, 0.0675017089, 0.0498856902, 0.0070822062, -0.0638604164, 0.1538357288, 0.0607152209, -0.1035466343, 0.0323501006, -0.0728506669, 0.1277484149, -0.1782871932, 0.0452268496, 0.0977816805, 0.0137125906, 0.0872446597, -0.0658757463, 0.0289339032, 0.0821755230, -0.1342800707, -0.0134106912, -0.1204147935, 0.0125397509, 0.0405676067, 0.0351679549, 0.0703356266, 0.0095179444, 0.0557370298, -0.0230567120, -0.0612439476, 0.0369928814, -0.1915591806, -0.0789877772, -0.1827177554, -0.2442421764, -0.0066734748, -0.0241233557, 0.0312718302, 0.3935277462, 0.2267833352, 0.2099016607, -0.0452957600, -0.2441723943, -0.0194356274, 0.0642415211, -0.0421605855, 0.1423456371, 0.0100651812, 0.3343759775, -0.1555917710, -0.1045407578, -0.0862880871, 0.0312537886, -0.3162272274, 0.1860613376, 0.2311031967, -0.1037156805, 0.1556772739, 0.1537072659, 0.1765293479, -0.2177059054, -0.0178451296, 0.0232511368, 0.0682652146, 0.1306423992, 0.0800513923, 0.1334664226, -0.2145608962, 0.1410146505, -0.1142885834, -0.0667507499, -0.3334134221, -0.2324280888, 0.0297775175, 0.0694616362, 0.0016598766, 0.0383280776, -0.1348902732, -0.3279248774, 0.0792708322, -0.1432375610, -0.1563079208, -0.0958866999, 0.0157311354, 0.0741084367, -0.1374542862, -0.0319964178, -0.1586926132, -0.1797718406, -0.0350174271, -0.1701852530, 0.0803382248, 0.0544345118, -0.0108668758, 0.0886252299, 0.0047655478, -0.0128775537, -0.2121085227, 0.0272237826, 0.0191556066, 0.0141364699, 0.0693785995, 0.0755035728, -0.0514903218, 0.1375893354, 0.2072920352, 0.0768181533, 0.0949395001, 0.0938767046, -0.1626863629, 0.2321524620, 0.2082633972, 0.0801581070, -0.0680277944, -0.1216656119, 0.1448344439, 0.0755826607, -0.0731950551, 0.1768544465, -0.1816089451, -0.2925685346, -0.0657716021, 0.1011493504, 0.1875022650, -0.1594620794, 0.0691149384, -0.2525447905, -0.0481614321, -0.1390152574, -0.0903022140, 0.0445384234, 0.1054451838, -0.0580538027, 0.1022182927, -0.0893239751, -0.0817893744, -0.0272352230, -0.1538272947, -0.0725487545, 0.0475190021, 0.0172504578, 0.0588990077, -0.0623861365, -0.0218894202, -0.0894493610, 0.0832709670, -0.1130282059, 0.0720457360, 0.0954901427, 0.0323982500, -0.0032564842, -0.1186338887, 0.0251366980, -0.0574305132, -0.1964200884, -0.0778256059, -0.0868096948, 0.0231086109, 0.1305081993, 0.1276221573, -0.0446677171, -0.1659695655, 0.0582746118, -0.0309696496, -0.0465378650, 0.0408498421, -0.1461440027, 0.0029132024, -0.1497572064, -0.1066177338, -0.1904467940, -0.1406037956, 0.0754688382, -0.1786545515, -0.0034267802, -0.0781134740, 0.1686701924, 0.0806000829, -0.2284290344, -0.0008264568, 0.0888050124, -0.0036680454, 0.0766280293, -0.0138097955, -0.0235097930, 0.0098642139, -0.0066711134, 0.0573313087, -0.1118161976, 0.0045916899, -0.0189825557, -0.1049913466, 0.1808222234, -0.0798067003, 0.0092229005, -0.0111417519, -0.0475910604, 0.0077108871, 0.0251189247, 0.1174004897, 0.0507691018, -0.0722051337, -0.1938507110, -0.0709207430, 0.0432730131, 0.0448504686, 0.2530443370, 0.1247270256, 0.2434357703, -0.2176672816, -0.0546563454, -0.2452895641, 0.0146482931, -0.0742990226, 0.0995119885, 0.0179427695, 0.1665730327, 0.1563237607, -0.1545612663, 0.2049919367, 0.0082315002, 0.0516993143, 0.1184931099, 0.0330857933, 0.2327296436, -0.1198642254, -0.1492386460, -0.1177469343, 0.1790574044, -0.1410341263, 0.2071976215, -0.1382075846, -0.0410587899, 0.1990166456, -0.1468364149, 0.0140154148, -0.1626825631, -0.1953290999, -0.0546463989, 0.2037332207, -0.1753326207, -0.0138811264, -0.0490023419, -0.0975493863, -0.1057838872, -0.2043986022, 0.1238777936, -0.0609300882, -0.0889647678, -0.1018273458, 0.0570549145, 0.0699004605, -0.1762467772, -0.2235209346, 0.0296169352, 0.0459779762, -0.0230570678, -0.1665042639, 0.0101017104, -0.0143342949, 0.1220938191, 0.0519264340, 0.0391108245, 0.1274420768, 0.1260602623, 0.1367691904, -0.0651309490, 0.0207931455, -0.0431514420, -0.0548518375, -0.1827833056, 0.1694017053, 0.0953854844, -0.0626050308, -0.1313725859, -0.0061659766, -0.0023153499, 0.1135446578, -0.0993197635, 0.0270949621, 0.1293694228, -0.1373876184, -0.2101145685, -0.0801277682, -0.1043149382, -0.0843752101, 0.2011596262, -0.1154045388, 0.1287994087, -0.0409091488, -0.1533104479, 0.0344441719, -0.0721064061, -0.0386709347, 0.1622205973, 0.0408583619, -0.0546714030, 0.1798531711, -0.2254824340, -0.0299288463, -0.1918601841, -0.0399414152, 0.2710494995, -0.0506391861, 0.1699161828, -0.0075633093, -0.0669236258, -0.0027851122, -0.0535393022, -0.0004828215, 0.1140928045, 0.1395159364, 0.1546666771, 0.1540107131, -0.1468900144, 0.1107340381, -0.1173201203, 0.0451580361, 0.2166842073, 0.2009183019, 0.0727494359, -0.1037538648, -0.0444145165, -0.2095649242, 0.0453011766, -0.1244444698, 0.0393156633, 0.0902795643, -0.0942702219, -0.0343754515, -0.0232901461, 0.1618384719, -0.0001274785, -0.0476544648, -0.1908483505, 0.1593268961, -0.0352475457, 0.1327878684, -0.0298689175, 0.1450506002, -0.0735892132, 0.0992539153, 0.2184426636, 0.1176968962, 0.2306947410, -0.1285709292, -0.1143955886, -0.1169567034, -0.0839712694, -0.0918698534, 0.0576469339, 0.0987740457, 0.1617403179, -0.0638955608, 0.1720186174, -0.0192450266, -0.0189655665, -0.0133995516, 0.1388355345, 0.0762903914, -0.1405144930, 0.1518018693, 0.1418616325, 0.0988964736, -0.1494073272, -0.2971335948, 0.0668730214, 0.1234579682, 0.0612807162, 0.0784963220, 0.0015180863, -0.1463519186, -0.1029548645, 0.0746565163, 0.1261673123, -0.1812426895, -0.0111431926, 0.2355334908, -0.1218838766, 0.0355765335, 0.0677133724, -0.2546194494, -0.0751247704, -0.0520642772, -0.0513380766, 0.0613062121, -0.0495416000, -0.0122281658, -0.0441743582, -0.2826270759, 0.0408269987, -0.0731445849, -0.0932310298, 0.0793630406, -0.2004173249, 0.1855329126, -0.0660332665, -0.1874567419, 0.0047044381, -0.0344038904, 0.0045108409, -0.0032359413, -0.0244743302, -0.1174833775, -0.0441559739, 0.0206204131, -0.0984678492, -0.0595239960, -0.1206572950, 0.0232461430, -0.1120779887, -0.1008335501, 0.0500665642, -0.0379871577, 0.0353403166, 0.1376671791, 0.1864006221, 0.0026618193, 0.0201509744, 0.0935208276, 0.0505657122, -0.0747559890, -0.0647422746, -0.1083759815, 0.0927214921, -0.0200061202, -0.1326261461, -0.1402434260, 0.0363111161, -0.1109611243, 0.1101417765, -0.0552398376, 0.0282118283, 0.0721883625, 0.0765302181, 0.0428669900, 0.0184808392, 0.2037114799, 0.0061845668, 0.1476340890, 0.1722911000, -0.0613713302, 0.1009642333, 0.1737532467, -0.1507954299, -0.0030531276, 0.0606893338, 0.1634812355, 0.1524391919, -0.1822470427, 0.0440503210, -0.1158020571, -0.0151771838, -0.1205287427, 0.2573075294, 0.1305629313, 0.0021185887, 0.0818230808, -0.0103708422, 0.0394838043, -0.0699986368, -0.1204373538, 0.1671542376, 0.2175200433, 0.0087068649, -0.0330529958, 0.0830752403, -0.1194863692, 0.1433364302, -0.2482525259, 0.1661084890, -0.0436160080, -0.0421759598, 0.2284926921, 0.0735160485, 0.2106094062, -0.0482655726, -0.2823306918, -0.0961019844, 0.1322726309, -0.1037156582, 0.0399756432, 0.0009965944, -0.1014251634, 0.0617496260, -0.1889775246, 0.0659813136, -0.0806531310, -0.1546563804, -0.0435247608, 0.0675472841, -0.0538803972, -0.0662873983, -0.1257070303, -0.0560162179, 0.0577746741, 0.2325330526, 0.0690992400, 0.1158170179, 0.0804785192, -0.0425712317, 0.0143810259, -0.1147837713, -0.2220574319, -0.1313739121, 0.0936670080, -0.0252171922, 0.0592746921, 0.0211919677, 0.1276519597, 0.0760049671, 0.0786268115, -0.0706589222, -0.0610070527, -0.0089455266, 0.0033551196, -0.1866280735, 0.0351508409, 0.0828554779, -0.0671584606, 0.1237683594, -0.1427769512, 0.1409919858, -0.0531144738, -0.1105215251, 0.0737163126, -0.1214963496, -0.1250507087, -0.0431327447, -0.1224341691, 0.1024594530, 0.0043583163, -0.0611711033, 0.0833281353, 0.0449161530, -0.0302063543, -0.0733567849, 0.0846654102, 0.1378875226, 0.0611306280, -0.0287583936, -0.0460064262, -0.0700443462, -0.0639397949, -0.0441305041, 0.0020324907, 0.0330411941, 0.0181944761, 0.1368289143, 0.0075165518, 0.0336557329, -0.1028592959, -0.0828842893, 0.0081677288, 0.1661625057, 0.0475400798, 0.1391619295, 0.0523485169, 0.0235366933, -0.0264508445, -0.0350690037, 0.1292678416, 0.1261046380, 0.0708884671, 0.0279169772, 0.0261546075, 0.0645271018, -0.1215558648, -0.1353559792, -0.0943949819, 0.0703672841, 0.1750599444, 0.0188953392, -0.0532536916, 0.0539283045, 0.0210563485, -0.3014910221, -0.0528007150, -0.1049582884, -0.0661018267, 0.0436081961, 0.0248623006, 0.2207215130, -0.0752089396, -0.0411560871, -0.0188693069, -0.0750230551, 0.0585318059, -0.1830806583, -0.1399861127, -0.0011896326, 0.0370758139, 0.1453920901, -0.2618329823, -0.0431319326, -0.1955231726, -0.3323469460, 0.0616986267, -0.3853645027, 0.2145707309, -0.0349326283, -0.1554884464, -0.1998596340, -0.0921344534, 0.0065339040, -0.0803890452, -0.0347785242, -0.0862158239, -0.0724971592, -0.0944311321, -0.2727189958, -0.0218189228, 0.0383997187, 0.2059496045, 0.4232276082, 0.1174519882, 0.1536127776, 0.1619925499, -0.2513713837, 0.2284773290, -0.0060343603, -0.0939415991, 0.1530740261, 0.0423081741, 0.0477916971, -0.3315565586, -0.0485547483, -0.1484148800, 0.1148108616, -0.1462462693, 0.2802869380, -0.0041752965, 0.1413706094, -0.0026774409, -0.0291154273, 0.0764171109, -0.2272572070, -0.2014196962, 0.2043723315, 0.0854489431, -0.0034732590, 0.0337981470, 0.0255179331, 0.0101027936, 0.0201377776, -0.2444464415, -0.1043725610, -0.2393520474, -0.0232594125, 0.1572502702, -0.0614969321, 0.0494484566, 0.0721655637, -0.2032306194, 0.0116700055, 0.1524666399, 0.0973391905, -0.1482361257, -0.1792414337, 0.0171238575, 0.1322115511, -0.1566508412, 0.0251851995, -0.0566998348, -0.1056314483, 0.1008333042, -0.2316049486, 0.1397778392, -0.0125419423, 0.0275361948, 0.0726003572, -0.0754761994, 0.1444051862, -0.1672130078, -0.1658567786, -0.2240771502, 0.0420548618, -0.0449893661, 0.0654825643, 0.1480972022, 0.0300022177, -0.0905621126, -0.1469282657, 0.0717735216, 0.0692588612, 0.0239535384, 0.1203439236, -0.1258490086, 0.1212981343, -0.1414397657, -0.2119190842, -0.1614360660, -0.0747487918, 0.1669669002, 0.1526264995, 0.1606701910, 0.0403153785, -0.1512333304, -0.1742047071, 0.1036421955, -0.0179375242, -0.1425886005, 0.2478033453, 0.2076667845, 0.1759917736, -0.0584749691, -0.0927542374, -0.0526457876, 0.1399982274, -0.0559870191, 0.0719773695, 0.2470145822, 0.0972954333, 0.1104108244, 0.0843570009, 0.1151697561, -0.0237368662, -0.2703694403, 0.0084923413, 0.1591437459, 0.2375296652, -0.1864059716, 0.1438134015, -0.2701815665, 0.1571555287, -0.0365621075, 0.1552302539, -0.2543058693, -0.2082669586, 0.1485956907, -0.0825703591, 0.0994469896, -0.1614561230, -0.3164031804, -0.1394076049, 0.2122748196, 0.0187902804, 0.0755774677, -0.0103259161, 0.0149721326, 0.0498882905, -0.0280952659, 0.2582682967, 0.1976539046, -0.0179791953, 0.0203583483, 0.1601736099, -0.0604103245, 0.1126514375, -0.1477873772, 0.1692839712, 0.2183352858, -0.0589121878, 0.0578309298, 0.0895109251, 0.1374278516, -0.0098770652, -0.1308121532, -0.0801558718, -0.0147197898, -0.1526941955, 0.0190807395, 0.1593212634, 0.2372793853, 0.0679106116, -0.0926408023, -0.0333919339, 0.2033376545, -0.1755545884, -0.1502710432, -0.0838470981, 0.1412730813, 0.1579214483, 0.1058572382, 0.0369749516, -0.0302971657, -0.1623030156, 0.0845906883, 0.0183051564, 0.0632650182, 0.0486548692, -0.0465509146, 0.0736032650, 0.0431498960, -0.1208586693, -0.1800537109, 0.0653509200, -0.0195175949, 0.0435824171, -0.0258340649, -0.1086889058, -0.0118975621, -0.1169729605, 0.0675399676, 0.0022527920, -0.0342855155, 0.0187144503, -0.0963517800, -0.1635849923, -0.1131709814, -0.0794583857, 0.0379443802, -0.0020454952, 0.1036951467, -0.0985563099, -0.0127927065, -0.0790774003, -0.0205147695, 0.0378035754, 0.1562076360, 0.0374037027, -0.0039135204, 0.0346227251, 0.0602785088, -0.1813032627, 0.1398654282, -0.0185663048, 0.1075713485, 0.0327369533, -0.1252382100, 0.0405850150, 0.1451636553, 0.1030282602, 0.1328666508, 0.2044317573, 0.1581261605, 0.1047271192, 0.0581513382, 0.0019166495, 0.0129245771, 0.4006419778, 0.0748843551, 0.0515395924, -0.0065667299, -0.0505077504, -0.0345871039, 0.0932733864, -0.2833085060, 0.0793032870, -0.1943709701, 0.0891624019, 0.0078303395, -0.0997185558, 0.2399009019, 0.0959930643, -0.0437226258, 0.0159540679, -0.0491184480, 0.0990651622, -0.0151262470, 0.1739563495, -0.0596620739, 0.1969189495, -0.1365670115, 0.0295891147, -0.0971105248, 0.0128254034, 0.0146944104, -0.0742795616, -0.0245125741, 0.0083909491, -0.1385642737, -0.0163688865, 0.1829139143, -0.0057336828, 0.0135867735, -0.0642468706, -0.0929388106, 0.0010604424, -0.2552675307, 0.1375006437, 0.0436195359, -0.1715481579, -0.0813575387, -0.1287865639, -0.1105395779, -0.1911764145, -0.0112213688, -0.0071114530, -0.0519831665, 0.0678419992, 0.0549026541, -0.1088138148, -0.1571500748, 0.0869210511, -0.1102844551, -0.0052399477, 0.0586218797, -0.1429590732, -0.0762367025, -0.0575290173, -0.1140960827, -0.1751407236, 0.0145775080, -0.0430693999, 0.0063944175, 0.2609164119, -0.1924991310, -0.1243662909, 0.0778599456, -0.0403499156, -0.0369268581, 0.1578305066, -0.1642670333, 0.0425714105, 0.0711470321, 0.0933447033, 0.1146855727, 0.0844681263, 0.1007926837, -0.1387356669, -0.1224407926, 0.0145637747, -0.2063060552, 0.0000819735, -0.0140934596, 0.0835373476, 0.1359211951, 0.0313711353, 0.2360032201, 0.0784886628, -0.0584577583, 0.1795235872, 0.2144547850, 0.0093111163, -0.0638252795, 0.2429381460, 0.1552734077, 0.0908748284, -0.0031577786, 0.0600668900, -0.0200970545, 0.0819629952, -0.0686438903, 0.0071242112, -0.0565483868, -0.1155251116, 0.0130385347, 0.0139782075, -0.1284224391, -0.0930051580, 0.0782687739, -0.0265293624, -0.0344714150, -0.2311991304, -0.0543186441, 0.0649507120, 0.0571964532, 0.1458553225, -0.0631822571, 0.0588585213, -0.0727767199, -0.1395848095, -0.1047409996, -0.1414773315, -0.0047539710, -0.0645742193, -0.2083235085, -0.1061365753, 0.1692977548, -0.1229864284, 0.0876354128, -0.1234443858, 0.1268054396, -0.0253098179, 0.1477434188, -0.1628538668, 0.1532384753, 0.2004915923, -0.1313904375, -0.0178432018, -0.1349574775, -0.1569120288, 0.1012571827, 0.1111103594, -0.1075276136, 0.1477822512, -0.0013691076, -0.0698707402, -0.0529665425, 0.1347064525, 0.2329404056, 0.2274949551, 0.1223099083, 0.2032733113, 0.0364501663, 0.0206126627, 0.0179769825, -0.0035654164, -0.0104295257, 0.1979801357, 0.1887963265, 0.1307433397, -0.0876298174, 0.1293468028, -0.1279260516, 0.2140453458, -0.3285500407, 0.0816736221, -0.0389854573, -0.1029518619, 0.2182745337, -0.1297934949, 0.0118294097, -0.1259994805, -0.2795913815, 0.0567533970, 0.1250751168, -0.0622702241, 0.1505430192, 0.1083311513, -0.0662306473, 0.0506449789, -0.1821963489, 0.0335749313, -0.0006332844, 0.0379084013, 0.1341184229, -0.1471058577, -0.0575130917, 0.0732673705, -0.0670572892, -0.0909373015, 0.0069971019, 0.1049824357, -0.2346955538, -0.0680208728, 0.0446504317, -0.0769102573, -0.0156511813, -0.0138451736, -0.0857626423, -0.1793304831, -0.0090570431, -0.2360001653, 0.1063025892, -0.0386010259, -0.0702796355, -0.0333366655, -0.0128624765, 0.1750659943, -0.1607982963, -0.0947157219, -0.1352452189, 0.0211617053, 0.1136438698, -0.0421140939, -0.0565129928, -0.0013150378, -0.0098011754, 0.0035053275, 0.0362030342, -0.0960334390, 0.0162180718, -0.0128409918, -0.1119410694, 0.0322134942, -0.1710546315, 0.0822561383, -0.0461654551, -0.1080768928, -0.0877993107, 0.0939129218, 0.0414009020, 0.1042900532, -0.1061267778, 0.0246113259, 0.0766197667, 0.1392869949, 0.0982360318, -0.0148734404, 0.0129076485, -0.0522534251, -0.0659919679, -0.1211281866, -0.0494209975, -0.1120002046, -0.0111704329, -0.2223540545, -0.0562489517, 0.0421601981, -0.0150489202, 0.1290783882, -0.0704844445, -0.0889874771, 0.0772445574, -0.0498352572, -0.0159647018, 0.0715131834, -0.0083142333, 0.1200459599, 0.0938218832, -0.1372398734, 0.0444034822, -0.1471763998, -0.0750067234, -0.1601538956, 0.0915034190, -0.0847759619, -0.1971118152, 0.0291143097, 0.1041866913, 0.0642330348, -0.1431163996, -0.1912487149, 0.1769127846, 0.1446067691, -0.0611875914, -0.0564551875, 0.0302872099, -0.1613341719, -0.0662841722, -0.1501459628, -0.0777790695, -0.0814156160, 0.1368335634, 0.1471166313, 0.1282826662, -0.0791691244, 0.0784922317, -0.2464107871, 0.1582373679, 0.0690686032, -0.1033975780, -0.1644205749, -0.0123374155, 0.0978062376, 0.1060677767, -0.1763914675, -0.0222814456, -0.0781355873, -0.0056772190, 0.0503890924, 0.0798175037, -0.0069505856, 0.0735530779, -0.0248412769, 0.0735203549, -0.0839222893, 0.0018893689, 0.0474924780, 0.0203979332, -0.0198254809, 0.0370014496, 0.0526159666, -0.1483456641, -0.2796832919, -0.1954360306, -0.1598033011, -0.0743865222, 0.0005302078, -0.0161641687, -0.0412064753, -0.1664627939, -0.0687404275, -0.0819722190, 0.0719529465, 0.3036080897, 0.1050984338, 0.2401458621, 0.1921727806, 0.0485971905, -0.1111029014, -0.0937117562, 0.0058656088, -0.0549415387, 0.1980102658, 0.1734003276, 0.1941606253, 0.0526686236, 0.1266322732, -0.1268160641, -0.0482154414, -0.1883542538, 0.2325319052, -0.0069720158, -0.0375845991, 0.0293398444, 0.1128241494, 0.1309767962, -0.2687798738, -0.1841202229, 0.0891401395, 0.1797475219, -0.1793414205, 0.0724313930, -0.0068183658, -0.2459756881, -0.1235943288, -0.2904815674, -0.0667678565, -0.2466358393, -0.3270804584, 0.1666127443, 0.1006857455, -0.0505912267, -0.1870931238, -0.2066286057, -0.2037362158, 0.0229002740, -0.0168400817, -0.1716951430, 0.0646546856, -0.0729068890, 0.0122290663, -0.0756447092, -0.0290213693, -0.1436025947, 0.0157684833, 0.1245479435, -0.1441643834, 0.1326680779, -0.0111740483, -0.0320343524, -0.0666390508, -0.0779364929, 0.0607928000, -0.1261413246, 0.0328546464, -0.1075086892, -0.0688853040, -0.1197896525, -0.0766769648, 0.0835194066, -0.0214172769, -0.1010112986, -0.0603068694, -0.0090560503, 0.0276606344, -0.0622616820, -0.1691181064, 0.0071784621, -0.0298576355, -0.1103470176, -0.0850288197, 0.1043893769, -0.1588722467, 0.0042625796, -0.0260564163, 0.0833417401, 0.0447555445, -0.2100002021, -0.2271107882, -0.1386359483, 0.0141496705, -0.1580075622, -0.0221144874, -0.1765362322, 0.3276603222, -0.0368260629, -0.1113684401, -0.0622530654, 0.0980985388, 0.2214928269, 0.2278829515, 0.2302813232, 0.2214381099, -0.0566445962, -0.2360459268, 0.0671289414, -0.1027773470, 0.0789244249, 0.2506091595, -0.0544329472, 0.2207596004, -0.0813684464, -0.0661241859, -0.0216401070, 0.1899447292, 0.2039423138, 0.1050428227, 0.0580884889, 0.1622095555, -0.0912187770, -0.0827527642, 0.0428519249, -0.0615906417, -0.0210267007, 0.0717369691, 0.1662417054, 0.1353762299, 0.0976436883, 0.0198970288, -0.0280699916, 0.0887174383, 0.1809776425, -0.0772923455, 0.0127543127, 0.0921382234, -0.0512529463, 0.0844380409, 0.0186135527, -0.0877088681, 0.0035560289, 0.1806776673, -0.1204263717, 0.0689293221, 0.0888730064, -0.2049149424, -0.1006332114, 0.0261741262, 0.0912510008, 0.1251813620, 0.0972781852, 0.0594660081, -0.0640837848, -0.1195345744, -0.0436068512, 0.1181878895, -0.0370988324, 0.0320546255, 0.0789031535, -0.0102890944, -0.1160604879, -0.2151638120, -0.0741466135, -0.1804781705, 0.0333258994, 0.1992802620, 0.1927065998, -0.0849345401, -0.0972595215, -0.0021641671, -0.0820213556, 0.0172390360, -0.1463918537, 0.0691709593, -0.0034623074, 0.1375603974, -0.1415072381, 0.0828431770, 0.0640552640, 0.1088346243, 0.1744948477, 0.1781677157, -0.0010903727, 0.1859191358, 0.1199671254, -0.1824564487, 0.1380215883, -0.0637393147, -0.0448163562, 0.1460211128, 0.0794916078, 0.2618075907, 0.0353673287, -0.0211408455, -0.2090391219, 0.1554489285, -0.2490218133, 0.1472813934, 0.0447727740, -0.0228764452, 0.1367689967, 0.0564730614, 0.1456122100, -0.0408548675, -0.0013684445, 0.1630061269, -0.0429288298, -0.0503793731, -0.0967821032, 0.0588473082, -0.0965587050, 0.0940062106, 0.0405861698, -0.0203419384, -0.0253392067, 0.0880297944, -0.0157812051, -0.0765362009, 0.0827141851, -0.1180237904, -0.2304414809, 0.0008432434, 0.1584151685, 0.0057063117, -0.1100905314, 0.0479827002, 0.1398398727, -0.2219266444, 0.0087022157, -0.1900809258, -0.0174569972, -0.1722230762, -0.0724295750, 0.2186231613, 0.1078235880, 0.2150259018, -0.0537663884, -0.2549597621, -0.0993418023, -0.0205568951, 0.2032472193, 0.1033995971, 0.1478960067, -0.2139452249, 0.1075932086, -0.2145247608, 0.1323756278, 0.0945140496, -0.0774415880, -0.0362328701, -0.2420294285, -0.0252917223, -0.0860001594, 0.0114795994, -0.1325933188, 0.0398806669, -0.1132195964, -0.0875467211, -0.0346561112, -0.0582545921, -0.1949758828, -0.0912693888, -0.0808526874, -0.1716025621, -0.0817899108, 0.0161791481, -0.1462883353, 0.2479685843, 0.1190544739, -0.0192731954, -0.0262666233, -0.2151802778, 0.1128421798, -0.0463202335, -0.1191852391, 0.0238645766, 0.0975298584, -0.2540751398, -0.0690381378, 0.0478128083, -0.2145686001, 0.0635227859, -0.0373202823, -0.0036856593, 0.0519560091, -0.0748675391, 0.0166581031, -0.2405090779, 0.0562137477, -0.2436086535, -0.1310451776, -0.0234466214, 0.0407726057, -0.0684687942, -0.1514739841, -0.0516639799, -0.0660215095, 0.0050958102, -0.0052925488, 0.1387467086, 0.1360682547, 0.0366907008, 0.0879157186, 0.0448836088, -0.0100028999, 0.1263150275, -0.0944995359, -0.0824256316, -0.0014945911, -0.1493363380, -0.1175677031, -0.1123804972, 0.1131759882, -0.0128518995, -0.1156992167, 0.0235037953, -0.0258498844, 0.0024057478, -0.1180752218, -0.0209558699, 0.0704458654, -0.1418412179, -0.1470926255, -0.1306311488, -0.0632184595, 0.0116568245, 0.1052754223, -0.0635749921, 0.1422223300, -0.1372395903, 0.0936351940, -0.0738657489, 0.1235789433, -0.0971213803, 0.0054579368, 0.0175050497, -0.0634102002, -0.0368634127, 0.1099730730, -0.0719726831, -0.0432382263, -0.1296718121, -0.0551298112, 0.1353666335, -0.0263101980, 0.0776950866, -0.0840590447, -0.1508443207, 0.0379081331, -0.1013737395, -0.1453843862, -0.1298890859, -0.1257980764, 0.1504381895, 0.0499007590, -0.0573120564, -0.1150402352, -0.1027199998, 0.0275821351, -0.1540286690, -0.0421963818, -0.1105454192, 0.0580033101, -0.1433612406, -0.1025652364, 0.0832456499, 0.0646065995, 0.1065256819, -0.0080471933, -0.1248611286, 0.1292031407, -0.1433377117, -0.0590589792, 0.0779311582, -0.0316256285, 0.0640574619, -0.0563968942, -0.0275782812, -0.0189507399, -0.0779459625, 0.1027462110, -0.0513079278, -0.0734162033, -0.0383171588, 0.0637803227, -0.0876005441, -0.0331161767, 0.0041641640, -0.0345679298, -0.0211123805, -0.1706206352, 0.1319866627, -0.1042763591, 0.0246840138, -0.0283047482, 0.1204926670, -0.0141960522, 0.1053534299, -0.0873001888, -0.0898745432, 0.0890212059, 0.0975166187, 0.0297767520, 0.0593649596, 0.0009622283, -0.0824714303, 0.0057589579, 0.0706383660, -0.1821122319, 0.0029983118, -0.1119133458, 0.0933247209, -0.1160865873, 0.0105852047, -0.0681531653, -0.2297118008, -0.0662764683, -0.0085994340, 0.1478106081, -0.0031083918, -0.0241140835, -0.0898686722, -0.0913894176, 0.0007808187, -0.1373920590, 0.1314152181, -0.1469745636, -0.0929570720, 0.1322460473, -0.0361652821, -0.1431269497, 0.0590920225, -0.1092442200, 0.1332777292, -0.1385691315, -0.0425866283, 0.1399967819, -0.2001708001, 0.0565387271, -0.0084764650, -0.1459146589, 0.1861598194, -0.1069625095, -0.0178748183, -0.0242590643, 0.0656966045, 0.0506127402, -0.0309575256, -0.0105032194, 0.1042279005, 0.1186449751, -0.2215258032, 0.1833803207, -0.1306978017, 0.0538153313, 0.1370408386, -0.1501224786, 0.1585050970, 0.0263528433, 0.1419939697, -0.0219753608, -0.0850509778, -0.2205768526, -0.0257045962, 0.1286637336, 0.0385278016, 0.0622052290, 0.0489554219, -0.0722196773, 0.0461165234, -0.1638802737, 0.0187081099, -0.0276103094, -0.0065533333, -0.1555518061, 0.0667805374, -0.1266307235, -0.1050483063, -0.1129905060, 0.0056427931, 0.0106267631, -0.1419142932, -0.0575707592, -0.0947436541, -0.1468743682, -0.0605564788, -0.0220940728, -0.0665335432, 0.1075034142, 0.0562506579, 0.0247084294, 0.0006925713, -0.0312301330, -0.1122154966, -0.0479944386, 0.0167685822, 0.0555141419, -0.0282977056, -0.1637097597, -0.0806366056, -0.0622498952, 0.0925015137, -0.0944686010, -0.0732513219, -0.0746652633, 0.0987014920, -0.0445149392, -0.1542239934, 0.0639017150, 0.0043971837, -0.0088576023, 0.0386166982, -0.0015774735, 0.0737756267, -0.1144984737, 0.0007340815, 0.0383758023, -0.0193226151, -0.1146433428, 0.0176070090, -0.0747791529, -0.1037539691, -0.1107996777, -0.0225038826, -0.0993650779, -0.1242672354, -0.0225545708, 0.1189486459, 0.1421972215, 0.0933877230, 0.0680357814, 0.0125588048, 0.0097344797, -0.1386587471, 0.0614297390, -0.0736575574, -0.0889948681, -0.0898255110, 0.0650863945, -0.0173445512, -0.0207743943, -0.1109081358, -0.0171851218, 0.0549677312, 0.1317941099, -0.2135154307, -0.1298408210, -0.1104680523, 0.0664956868, 0.1077263057, -0.0331039205, -0.1653484851, -0.1684978753, -0.1326680332, -0.1001732424, -0.0026201322, -0.0624409132, -0.1104635745, 0.0543108173, -0.0700476021, -0.1095740944, -0.2176427245, 0.0638208240, 0.0811468884, 0.1115659624, -0.1665502936, 0.1008014977, 0.1823878288, 0.0812770426, -0.1766409278, 0.1049389616, 0.1034627259, 0.1099570468, 0.1574489623, -0.0458037555, 0.1793008745, -0.2928432226, -0.1490496546, 0.1171163246, -0.1207704321, 0.0953249410, 0.1367936432, 0.0325511061, 0.1197808385, -0.1090185568, 0.0419326350, 0.1673367321, -0.2671191096, -0.0956026316, 0.2525481582, 0.1079466194, -0.0051304922, 0.0208068602, -0.0532186180, 0.0434691086, -0.1072304770, -0.0146151893, 0.0650587231, 0.1581380665, -0.0398404896, 0.1985099763, 0.0864940658, 0.1078309417, -0.1862104088, -0.1565056592, -0.0276960935, 0.1727048755, 0.0593437366, 0.0779796988, -0.1681379676, -0.1894997507, 0.0845930725, -0.0946190655, 0.0358045623, -0.1442917734, 0.0262711309, 0.1001198515, 0.1177641973, 0.0453919694, -0.1466598511, -0.1542363316, -0.0455375463, 0.0096659474, -0.0481200963, -0.0166310500, -0.1874931008, -0.0177232325, 0.0812035948, 0.0872287899, 0.1892159581, 0.0724566504, -0.0323819034, 0.0716583580, -0.0001922907, 0.1280182153, -0.1107406244, -0.1324741542, 0.1340809315, -0.0164006483, 0.1886971891, -0.0015751163, 0.0585894883, 0.0072385180, -0.0788952485, 0.0383836143, 0.0399553366, 0.0458720475, -0.0097210594, 0.1779440790, 0.1378607005, 0.0915917084, 0.1461553276, -0.0494685285, 0.0560370982, 0.0402783565, 0.0734478757, 0.1392599791, 0.1480179429, 0.0575581156, -0.0834362358, -0.0136583736, 0.0399253964, 0.0734193623, 0.0454274938, 0.1299349517, -0.0479172766, -0.0595026053, 0.0238748901, -0.0613949299, -0.0227809176, 0.1866435707, -0.0168559998, -0.0128697678, -0.1394151449, -0.0373194143, 0.0354741886, -0.1848651767, 0.2051959932, 0.0720304847, 0.0735843182, 0.1323663890, 0.0205419846, 0.0228951126, -0.0051087886, -0.2330446690, 0.1385832280, 0.0333516635, 0.0209460370, 0.0778862610, -0.0208196808, -0.2244432718, -0.1102041155, -0.1267734319, 0.0345791243, 0.1246744171, 0.0795006454, 0.1320396066, -0.0005345466, -0.1121556610, -0.2388564944, -0.1455102563, 0.1290383041, 0.1384541243, -0.0887270644, 0.0129561489, -0.0304425284, -0.0232155621, -0.0415645652, 0.1540426910, -0.0446830280, 0.2275367975, 0.2427150160, -0.0894298255, -0.0536409654, 0.0089546554, -0.0165605918, -0.0551618710, 0.0673656017, 0.1102896407, 0.1527861059, -0.1464599222, 0.0043448671, -0.2321333587, 0.0838098526, -0.2380979210, 0.0446831137, 0.1747912318, -0.1303658038, 0.1978338957, 0.0225016233, 0.1745624393, -0.2591220737, -0.0894493535, 0.1419281512, 0.0815463141, 0.1533592641, -0.1641085446, -0.1082223654, -0.0848559961, -0.0293001123, -0.1507486403, 0.0234321784, -0.0551190935, -0.1256636977, 0.1531952620, 0.0569844209, 0.0414231792, -0.0421947539, -0.0884694159, 0.0159751698, 0.0629937127, -0.0897691473, -0.1458876580, 0.1050893664, -0.0948782936, -0.0476646982, 0.0137785096, 0.2077024132, -0.1330477148, -0.0678432435, 0.0694781244, -0.1466342807, 0.0803054497, -0.1992500871, -0.1233464032, -0.0633347631, -0.0284443516, 0.1421542168, -0.0814637244, -0.0992544293, -0.0164134763, 0.2132569999, -0.1973082274, -0.1215608865, -0.0892954618, -0.0520395264, 0.0057839812, -0.2643895447, -0.0077765854, -0.0175842959, -0.1348460764, 0.0185895730, -0.0786278471, 0.0345066823, -0.0721250400, 0.0117490990, -0.1904136837, 0.0516539589, -0.0215205662, -0.1285683513, 0.1171281859, 0.0009565189, -0.1275632679, -0.0379611775, 0.1099053696, -0.2400550097, -0.1063694209, -0.0086231688, 0.0220552739, 0.0275446214, -0.2592773438, -0.1362715214, -0.1548960507, 0.1290399581, 0.2130202502, 0.1406408846, 0.1081208587, 0.1602737904, 0.1065959930, 0.0295930654, 0.0975370929, -0.0643191040, -0.1906938404, 0.2603312135, -0.0449493937, 0.3303975761, -0.1837314814, -0.0822820738, -0.0597966202, -0.0789353997, -0.0054836194, 0.0607677437, 0.1547947973, -0.0942223594, 0.0315166898, -0.0559408776, 0.2069059759, -0.3714630008, -0.2455612421, 0.1968744099, 0.1986807883, 0.0538926795, -0.1943715811, 0.0205860361, 0.0078695361, 0.1255088449, -0.2813637853, 0.0924517512, -0.0009878833, -0.1138411835, 0.1877642572, -0.0697929636, -0.0498017259, -0.0044370401, -0.2583656013, -0.1821263283, 0.0217346214, 0.0335032381, -0.1023140550, 0.0207052790, -0.2520184219, 0.0100227874, -0.0296143033, 0.1477283835, -0.0611167178, -0.1003882587, -0.0478278548, -0.0888774320, -0.0391241163, -0.0438621007, -0.0785826370, -0.1996875703, 0.0583473593, -0.0071309730, -0.1483016759, -0.0425633229, -0.0654979050, 0.0466720350, 0.0452061743, 0.0248263236, -0.1652040035, -0.0863563716, 0.2348740697, 0.1060292199, 0.1920525134, -0.1082656980, 0.0097845010, -0.1808911413, -0.0672359765, 0.1309500784, 0.0698855072, -0.0719096214, 0.0915807411, 0.1319397688, -0.0933298618, -0.0351722948, -0.0245132372, -0.1597588658, 0.0517130680, -0.0719509423, 0.0305128787, -0.0029625027, 0.1080892459, -0.0659654438, -0.1125806868, -0.1736540049, -0.0603585467, 0.1332060546, 0.1020055488, -0.1602003276, -0.0422134101, -0.3066951036, 0.0601945072, 0.0883912072, -0.2412306964, 0.0141129550, -0.2368997037, -0.1116907895, -0.0343973152, -0.1615102142, -0.1853447407, -0.0597954094, -0.0189786311, 0.0361793302, 0.0832827911, -0.1381888837, -0.0836567953, -0.0230299123, 0.0793546587, -0.0918596312, -0.2168778479, 0.1054413840, -0.0671619996, 0.1394567192, 0.0252455790, 0.0256851967, -0.0655753538, 0.0333785452, 0.1298131049, 0.0145707997, -0.0529438816, -0.1980909407, -0.0864528343, -0.1575988382, 0.1704764515, 0.1166658401, -0.0333722793, -0.0201830380, 0.0429616235, 0.1932231337, -0.1532007754, 0.0085480418, 0.0879926160, 0.1598994136, -0.0053737094, -0.1315318495, -0.0008883901, -0.0306811295, -0.0129086180, -0.1423197836, -0.1584981382, 0.1280716807, -0.1338315606, -0.0341851451, 0.0066424287, -0.1613725871, 0.0152139869, -0.1291347444, -0.1114660874, -0.0893839523, 0.0946456119, -0.0016112936, -0.1611135602, 0.1096302345, 0.0305208787, -0.0915165842, -0.0265411101, 0.0143157048, -0.0353878848, -0.0993011519, -0.1406894773, 0.1499077529, -0.0188771021, -0.0555932485, 0.0132562956, -0.0166692045, -0.0790019482, -0.1170335039, 0.0491042472, -0.1584776938, -0.1221426949, -0.0750778392, 0.1111473590, -0.0025922463, -0.0183092654, -0.0384622924, -0.1410310715, 0.0516754240, 0.0927230641, -0.0752234459, -0.1484481841, -0.1175847650, -0.0690867677, -0.0196482930, -0.0265202485, -0.1220965832, -0.1195792779, -0.0647258386, -0.1266445220, -0.0591231547, 0.0827603042, -0.1094006151, 0.0754189044, 0.0975641161, 0.0773401558, 0.1489510536, -0.1540469080, 0.1202386618, -0.1216039881, -0.0971600935, -0.1217074171, -0.0827751979, -0.0185881350, -0.1245040968, -0.0204859246, 0.0319235437, -0.0512875579, 0.0837668329, -0.1011093929, -0.0660343915, -0.0545332916, -0.0365243293, 0.1112086102, -0.1054717004, 0.1042784005, -0.1114715189, -0.0152527364, 0.0212705676, -0.0883827955, 0.1537962258, 0.1966515183, 0.1219378114, 0.2134578675, 0.0463540889, 0.0791732073, -0.1377136409, -0.0723473132, 0.1503082812, 0.0866196975, 0.1560828239, 0.0968265012, 0.0572265275, -0.1477331072, 0.1929320395, -0.0766367614, 0.0595802404, -0.1523566842, -0.0555834807, -0.0350959748, 0.1696459055, 0.1559057534, -0.0211922415, 0.0559264086, -0.1140220240, 0.2187112570, -0.0378857255, 0.0627730638, -0.0116258729, 0.0864670128, -0.0461724736, 0.0231534634, 0.0251882281, 0.1234986484, 0.1386321187, 0.0898736417, -0.0582511090, 0.1318793297, -0.1800153702, -0.1062252969, -0.0523638166, -0.0793039054, -0.1446403414, 0.0629732758, 0.0095267398, -0.1006479263, -0.0974806398, -0.1560769826, -0.0541067794, 0.0169255510, -0.0603904910, -0.0239897016, 0.0629628971, -0.1230210587, -0.0912882239, -0.1118745729, -0.0668716133, -0.0324427150, 0.0373737477, 0.0400042906, -0.1004440635, 0.0280366875, 0.0739842281, 0.0238951966, 0.0197569877, 0.1845770031, -0.0286019631, 0.1716212928, -0.2128655910, -0.0473682284, -0.1301722229, -0.0269460287, 0.0778812692, -0.0970768183, 0.2156985849, -0.0429976881, -0.2144008875, -0.1753130406, 0.1269463450, -0.0901576728, 0.0791398436, 0.0194574576, -0.0971057117, 0.0793137029, -0.0403281786, 0.1127503291, -0.1040475070, 0.0519309677, 0.1534027457, -0.1333098710, 0.0035723154, -0.0335849896, -0.1277683228, -0.2242655903, 0.0740123838, -0.0839694664, -0.0609910600, 0.0185615700, -0.1083465293, 0.1434481144, -0.1927145720, 0.0158075131, 0.0098124491, -0.1650828123, 0.1513924003, -0.0774999782, -0.1619378775, -0.2291956991, -0.2454750240, -0.0642228201, -0.0130604673, 0.1417984664, -0.0304023027, -0.0010738028, 0.1395478696, -0.0928333998, -0.2608445287, 0.0019128546, 0.0360017344, -0.0856686160, 0.2107824832, -0.1001564413, 0.1312849373, -0.1641148180, 0.0691667348, 0.0325513594, 0.0016011554, -0.0042343549, 0.2248813212, 0.1400505006, 0.1252541840, 0.0921148360, -0.0440332815, 0.0601188280, -0.1786661297, -0.1445956379, 0.1310320944, 0.1088297218, 0.0589778610, 0.0387665890, 0.0581845082, -0.2159706354, 0.2553165257, -0.2080921531, 0.0827659816, -0.0104372278, 0.0559092350, 0.1012047604, -0.0229980592, 0.1758888811, -0.1003803164, -0.2510979176, 0.1318814009, 0.0723467544, 0.0442323908, 0.0905566216};
#endif

#endif
