//Numpy array shape [9, 32, 64]
//Min -0.336816340685
//Max 0.380938202143
//Number of zeros 0

#ifndef W8_H_
#define W8_H_

#ifndef __SYNTHESIS__
conv1d_2_weight_t w8[18432];
#else
conv1d_2_weight_t w8[18432] = {0.0639438555, 0.0206763986, -0.0739633888, 0.2845098078, 0.1294469535, 0.1739582717, -0.0266295616, 0.1226813793, 0.0916564763, -0.0513264462, 0.1991978735, -0.0798728392, 0.0412244275, 0.1129998714, 0.0939825326, 0.0895636603, -0.0467144921, 0.1578033715, 0.0031003468, -0.0504907370, 0.0486619882, -0.0089497929, -0.0446884371, -0.0814282522, 0.0085776960, -0.0585563965, 0.1818607152, 0.2797608376, 0.0825961456, 0.0570242964, 0.0774708018, 0.0362615250, 0.0043747015, -0.0405656584, 0.0357861556, -0.0809886530, 0.0981556177, 0.0204231273, -0.0632392988, 0.0151327634, -0.1893114150, -0.0628488660, -0.1287998259, -0.0166216958, -0.0619155727, 0.0602123439, -0.0627535880, -0.0511133410, 0.0060667270, -0.2312235683, -0.0477123000, -0.0400787629, 0.0532470979, 0.0380275063, -0.0472136550, 0.0383603089, -0.0667423010, -0.1264602989, -0.0260122716, -0.0781194568, -0.0393777192, -0.0495355278, -0.0858656168, 0.0006331503, 0.0473265946, 0.0250614434, 0.0621758178, -0.0454912558, 0.0319695398, -0.0705146343, -0.0169498846, -0.0391090065, -0.1001001969, 0.0212273002, 0.0170348510, -0.0514883995, -0.0412347130, -0.0819257200, -0.0611621700, -0.0585838668, 0.0235524643, -0.0267970916, -0.0088049760, -0.0578395985, 0.0142986430, 0.0114936382, 0.0276774000, -0.0540320314, -0.0217347611, -0.0985845849, -0.0926782861, 0.0177193340, 0.0855543315, -0.0475206412, -0.0769867823, -0.0682181492, 0.0392160192, 0.1781692058, -0.0138089200, 0.0784726962, -0.0956100971, 0.1063324586, 0.0755575970, 0.2012610883, 0.0108955111, 0.0137678795, 0.1015696600, 0.0805487260, 0.0106863994, 0.1836076975, -0.0143759772, 0.0570901819, -0.0032205493, 0.1078162119, 0.0366402157, 0.0547909997, 0.1876393408, -0.0652657598, 0.0230651945, 0.0151521275, 0.0902913362, -0.0264226533, 0.0477649681, 0.1087133139, 0.0112660890, -0.0138335004, 0.1037213504, 0.2329349667, -0.0344749764, -0.0559216216, -0.0034390311, 0.1122365221, 0.0730607212, -0.0371668711, 0.0128611047, 0.1069278270, -0.0086629456, -0.0555125624, -0.0428685360, -0.1424705982, 0.0701163486, 0.0882586092, 0.0481429175, 0.1050801948, -0.0628667697, 0.1111890450, 0.0126352487, -0.0002675409, -0.1046226099, -0.0542204976, 0.0049384618, -0.0328674391, -0.0221947636, 0.0345145389, 0.1061643139, 0.1501194686, 0.0093340343, 0.0176911727, 0.0359438993, -0.0273449495, 0.0501560345, -0.0049851201, -0.0757945627, -0.0644299239, -0.0143426862, -0.0671205223, -0.0699502230, -0.0189088136, -0.1291370392, 0.0265790746, -0.0098534739, -0.0762425363, -0.1132154092, 0.0774305314, -0.1262134463, -0.0150529752, -0.0393730290, -0.0785674825, -0.0405576788, -0.0961898640, 0.0550312847, -0.0714482889, -0.0392705724, -0.0777850524, -0.0282861274, -0.0561772659, -0.0774801597, 0.0385071561, 0.1122742444, 0.0036808006, -0.2123762220, -0.0104808658, -0.0452872738, -0.0661197528, 0.0362843722, -0.1036237106, -0.0301816985, -0.0365439169, 0.0318461359, -0.0419973321, -0.1228741929, 0.0438365377, -0.0574195385, -0.0003676698, -0.0137750059, -0.1148400158, -0.0623315312, -0.0499477573, -0.0585703366, -0.0463485457, 0.0473002270, -0.1229246855, -0.0739027783, -0.0736010820, -0.0019248354, 0.0574330315, -0.1093344465, -0.0787441060, -0.0956385955, 0.0196402539, -0.0139658563, -0.0059884787, 0.0550803803, -0.0143340398, -0.0163546316, 0.0520092659, 0.0245853774, 0.1102653369, -0.0068886862, 0.0807370096, 0.0704759210, -0.0684212148, -0.0541899726, 0.0054466468, 0.0948908105, 0.0458982140, -0.1507324278, -0.0904577225, -0.0106391525, 0.0522785522, 0.0217688773, 0.0715838596, 0.0489445105, 0.0995534509, -0.1213534623, 0.0660817251, 0.0508184806, 0.0388124362, 0.0926058292, -0.0045939484, 0.0161532983, 0.0446729623, -0.0489444770, -0.0482547767, -0.1193511263, 0.1832883060, 0.0647270977, 0.1554593146, -0.0325950384, 0.1939445436, -0.0333361998, 0.0916128606, 0.0970566049, 0.2393206507, 0.0001547484, 0.0102038225, 0.1121766493, 0.1529946029, 0.0538230017, 0.1273662895, 0.0809386522, 0.0223384388, -0.0373810492, 0.0975904539, 0.0256393645, 0.0958882123, 0.1307548732, -0.0276409816, 0.0008660663, 0.0171364341, 0.0473490991, 0.1106266081, 0.1397724152, 0.2083107233, -0.0816539973, 0.0060839858, 0.0053001666, 0.1992008537, 0.0147172734, 0.1386908591, -0.0794017538, 0.1786378026, 0.0456032902, 0.1448475569, -0.0159570742, 0.1780114919, 0.0756695941, 0.0115620196, 0.1106191799, 0.0072340942, -0.0201245435, 0.0906122923, 0.0361986235, -0.0843417197, -0.0699186027, 0.1520215273, 0.0437992960, 0.0871819109, -0.0221579093, -0.0531995557, 0.0242146347, 0.0487218350, 0.0932319537, 0.0541697033, 0.1704003662, 0.1799689978, 0.0111497836, -0.0035343512, -0.0688615814, 0.1015124246, -0.0286152922, 0.0355339460, 0.0072490624, 0.0074721812, 0.0114870444, 0.0109184682, -0.0165595505, 0.1800040603, -0.0360505208, -0.0292722490, 0.0040602996, -0.1275798529, -0.0339389294, 0.0190113727, -0.0093693566, -0.0374511704, 0.0632618293, -0.0184832197, -0.0099796057, -0.0008656628, -0.0418291613, -0.0090253754, -0.0356849246, 0.0245969165, -0.0838278830, -0.0139963301, 0.1164978668, 0.1025659591, 0.0533199795, -0.0828830153, 0.0376844928, -0.0239566099, -0.0078878114, -0.0131340381, 0.0290638879, -0.0463983901, 0.0965536460, -0.0816708580, -0.0350863934, 0.0222922321, -0.0830025226, -0.0621009469, 0.0718866885, -0.0340049565, -0.0129088089, 0.0405431688, -0.0471227616, -0.0073227799, 0.0063909413, 0.0030230947, 0.0033515356, -0.0520146042, -0.0818738490, -0.0420862511, -0.0593991168, 0.0795818865, 0.0269499645, 0.0017564270, 0.0053528980, -0.0873958766, -0.0116979955, -0.0415778831, 0.0069301128, 0.0971713513, -0.0394721441, 0.0478387773, -0.0288432986, 0.1332406104, 0.0003076402, 0.0669755265, 0.0318498388, 0.1591188759, 0.0328887925, 0.0106111346, 0.1965267956, 0.0282931030, -0.0115404259, 0.0797682777, 0.0057886252, 0.0177823585, 0.0066113328, -0.0170607381, 0.0522314683, 0.0266062524, 0.1227369085, -0.0069035538, -0.0581524819, 0.0128820827, 0.1415407211, 0.0405986011, 0.1447869092, 0.1689147502, -0.0325703062, 0.0201587360, 0.0136081679, 0.0899265930, -0.0143702058, 0.0821163207, 0.1236712709, -0.0025388028, -0.0166206099, 0.0099907964, 0.0622457899, 0.0869067684, 0.0592166930, -0.0239682235, 0.0670248866, 0.0217752345, -0.0279648863, 0.1007639691, 0.0381260626, -0.0696623549, -0.0271290690, -0.0725253299, 0.0271821637, 0.0661815032, 0.0155371688, 0.0756807923, -0.0237073079, 0.0226470996, -0.0567180961, -0.0307458043, 0.0937309787, -0.0182201155, 0.0391351171, 0.0114481887, 0.0471531972, 0.0677966848, -0.0201340783, 0.0818360448, -0.0212350879, 0.1465396285, -0.0375211649, 0.1899736524, 0.1316371560, 0.1525332779, 0.0684657544, 0.0019980634, 0.2180047184, 0.0200508684, 0.0041235276, 0.2073399872, 0.0429067686, 0.0660700798, -0.0120256422, 0.0763908029, 0.0370075144, 0.0217732228, 0.1856128573, -0.0214250293, -0.0174068846, 0.0320168547, 0.0424142145, 0.0401204564, 0.1749175191, 0.0832419246, -0.1006201953, 0.0346114673, -0.0147992652, 0.2271611989, 0.0400655195, -0.0391488634, -0.0760508925, -0.0620634481, 0.0267455243, -0.0419345573, 0.0443821587, 0.2309214026, -0.0725579113, -0.0799196586, -0.0606104247, 0.0565023273, -0.0227850471, 0.1314315498, -0.0456520431, 0.0992318243, 0.0691423640, -0.0408895053, -0.0080813328, -0.0813113451, -0.0231598057, 0.0702411830, -0.0251311120, -0.0125879217, -0.0318321735, 0.0484267324, 0.0599272884, 0.0311308820, -0.1500380188, -0.0276547261, 0.1359717995, -0.0857536495, 0.0034339977, 0.0883172154, -0.0007155066, -0.0583270863, 0.0339857936, 0.0100269150, -0.0924213454, 0.0596628301, 0.0376511067, 0.0042315144, -0.0073294053, -0.0917349309, 0.0683696568, -0.0407606848, -0.1267995536, -0.0106209796, -0.0237130374, -0.1296737939, -0.1842372119, -0.0945610255, -0.0897565037, -0.0557726510, 0.0287515074, -0.0191463362, -0.0948578194, -0.0377949253, 0.0458648764, -0.0772858709, 0.0133085586, -0.0160077307, -0.1521349847, -0.0366741978, 0.0101124179, 0.1883004457, 0.0614973456, 0.1301318258, -0.0444398448, 0.1280495077, -0.0017823522, 0.1127021015, 0.1099323183, 0.0378180705, 0.1165177524, 0.1228262857, 0.0208785869, 0.0387283303, 0.0239208490, -0.0577145033, -0.0215679053, 0.0838712230, 0.0131306825, -0.0509966686, -0.0404921509, 0.0642708614, 0.0739751831, -0.0341086686, 0.1331871003, 0.0095601613, 0.0361246467, 0.1412942708, -0.0241238251, -0.0315381438, 0.0378142819, 0.2689743042, 0.0484959558, 0.0964331776, 0.0827287585, -0.2016611397, -0.0830095261, -0.0726950243, 0.0088175852, -0.2306076735, -0.0276221130, 0.0567314364, -0.1743537933, -0.0155796446, 0.0560385399, -0.0535003319, 0.0697490200, -0.1645318717, 0.0464292727, -0.1843055338, 0.1223257929, -0.0391771719, -0.0483761840, -0.0040867967, 0.0858587176, 0.0090931403, 0.1182950139, 0.0781471282, -0.2529137731, -0.0667663664, 0.0521029644, 0.0202695616, -0.0896759629, 0.0120171783, 0.0371566564, -0.0298525058, 0.0060137012, -0.0289439969, -0.0158522557, 0.0035010809, 0.0331157669, -0.2340048850, -0.0732508451, -0.0261272453, -0.1076358557, 0.0291780774, -0.1117335260, -0.2063004076, 0.0776530802, -0.1200788692, 0.1185415685, -0.0961616263, 0.0639285892, -0.0012539325, 0.0236719325, 0.0431641676, 0.2078164369, -0.0182715356, 0.0218673311, -0.0863060579, -0.1267992705, -0.1211701557, -0.0719462782, -0.0141342785, -0.2321611196, -0.0573523380, 0.0262781437, -0.1027879789, 0.0647095293, -0.0640760064, -0.1312458217, 0.0496583730, -0.0655328929, -0.0856500864, -0.0634036139, -0.0013486778, 0.0386195779, 0.0217132512, 0.0219246149, -0.0057056155, 0.0463782102, 0.0015947097, 0.0795180425, -0.0273717325, -0.1085857600, -0.0220572297, -0.0099275792, -0.0322892256, -0.0373565853, -0.0702528581, -0.0305807590, 0.0155867245, -0.0342813209, -0.0768578649, -0.0140112219, -0.0595512465, -0.0056768758, -0.0426006541, 0.0569963865, 0.0165711641, 0.1084938273, -0.2458580434, 0.0079303281, -0.0624201261, -0.0335202888, -0.2245251983, -0.1437343508, 0.0274711773, -0.1837140322, -0.1554050595, -0.0089385640, -0.0018283000, 0.0679171085, 0.0230503716, 0.1453353614, -0.2776893973, 0.0903576985, -0.2117900550, 0.0795042738, -0.0185137149, 0.0210498292, 0.0670031831, -0.0130783906, -0.0466837324, -0.1409709007, -0.1124133691, -0.0377489589, 0.0617558770, 0.0606021620, -0.0144046992, 0.1676985621, -0.2386888117, 0.0471324250, -0.2768273950, -0.0917206928, -0.1145476773, -0.0762251616, -0.2151882648, -0.0305614900, 0.1799376160, -0.1343058199, -0.0584976636, -0.0799630210, -0.0120565491, 0.0993829668, -0.1508289576, 0.0321956873, -0.2105603218, 0.0523589216, -0.0709611177, 0.1710092276, 0.0121299671, 0.0199192632, -0.0312630758, 0.0766888633, -0.1111723259, -0.1276056021, -0.1906323880, -0.0995499045, 0.0340735130, -0.0299612172, -0.1977174729, 0.0008210192, 0.0007281709, 0.0890108123, -0.0786909685, -0.1602415144, 0.0203424301, -0.0300982837, -0.1167163327, 0.0716463327, 0.0499851145, -0.2076330781, -0.1446036547, 0.1410192400, -0.1422072947, -0.0439391173, 0.0044739014, 0.0638519228, -0.0771981552, -0.1578535438, -0.0528593808, -0.0402897783, -0.0609732643, 0.1486632675, 0.0508191213, -0.0710768476, -0.0525295883, -0.2289948612, -0.1200905368, -0.0539052039, 0.0220874902, -0.0118987001, -0.1478460133, 0.1137871146, -0.0438908115, 0.0496917777, -0.2551105320, 0.0077020749, -0.1422289610, -0.0696124211, -0.2195197195, 0.0160854384, 0.0633646250, -0.1353710443, -0.1324265450, 0.1121434569, -0.1629837453, 0.1174848303, -0.1799426228, 0.1509230584, -0.2329811752, -0.0499644391, -0.0770449042, 0.1462289095, -0.0178580247, 0.0976965874, -0.0303744003, 0.0182487387, -0.0774714947, -0.1127623543, -0.0708355904, -0.0281101689, 0.0348554403, -0.0449861810, -0.2030693740, 0.0053883041, 0.0923425108, 0.1249923483, -0.1329755634, -0.0826825276, -0.0523915403, 0.0291753057, -0.0575432144, -0.0027493844, 0.0138975456, -0.1785488576, -0.1145734712, 0.0547962226, -0.0392608233, 0.1188769639, 0.0544622801, 0.1345040500, -0.1106725261, 0.1261947900, 0.0297369808, -0.0415839478, -0.0676406622, 0.0955542102, 0.0325651765, -0.0194668137, -0.0341501273, -0.2497645169, -0.2084947973, 0.1337695271, -0.0659693852, 0.0321717486, -0.0210355688, 0.1264183819, -0.1025302857, 0.0135792987, 0.0204707813, 0.0520540364, -0.0150823640, 0.0468314998, -0.0912346467, 0.0251563955, 0.0904457271, -0.0845814645, 0.0249511376, -0.0181884505, -0.1621664166, 0.0300240964, 0.1356578469, 0.1345871836, -0.0122680860, -0.0174446050, -0.0163480006, 0.0501039512, 0.0589824207, 0.1585092098, 0.0418501832, -0.0261081513, 0.0660403445, -0.0778463855, -0.0313539132, 0.0483157486, 0.0262717865, 0.0798810571, -0.0643476918, -0.0636684150, 0.0762295797, 0.0038102090, 0.1566851735, -0.0734632090, 0.1381748468, -0.0494589508, 0.0616127849, -0.0132456990, -0.0650957897, 0.1380621940, 0.0933577195, 0.0059913527, 0.0560086332, 0.0439948589, -0.0586107224, 0.0301773790, 0.0612165742, -0.0958662108, -0.0600020587, 0.0355542786, -0.0049170139, -0.0718494803, -0.0070059937, 0.0125820935, -0.0992501453, 0.0384225585, 0.0988120884, -0.0974861234, 0.0585241020, -0.1009153575, 0.2121557146, -0.0160855427, 0.0330228135, 0.0220622364, 0.0213598702, -0.0100847371, -0.0624034144, -0.0895735770, 0.1428318918, -0.0594054833, 0.0107292123, -0.0032521938, -0.1067510620, -0.0392563567, 0.0724879578, -0.1277298331, 0.0005246084, 0.0363929272, 0.0477449819, 0.0385741107, 0.0108133517, -0.0620156042, -0.0432428457, 0.0079974197, -0.0428000428, 0.0362769552, -0.0218076855, 0.0609538853, 0.1084073558, -0.0520573519, -0.0090607954, 0.0184607096, 0.0476916321, 0.0099840984, -0.1021467596, 0.0583541133, -0.1447795630, 0.0600479990, -0.0530878417, -0.1125923172, 0.0161293913, -0.1515767425, -0.0626200438, -0.0183675885, -0.0258161295, -0.0903190821, -0.0212110598, -0.1134407893, -0.0637347549, -0.0865479037, -0.1277196556, -0.0788920522, -0.1471515894, 0.0087198708, 0.0074120327, -0.0656268299, -0.0308397878, -0.0942645818, -0.0241525695, 0.0314841457, -0.0566570051, 0.0591393337, 0.0177446622, -0.0775938407, -0.0794656128, 0.0333483033, -0.0592641793, -0.0165418778, -0.0139762834, 0.0378223360, -0.0192322508, -0.0214483738, -0.1774228960, -0.1468259394, -0.0229320321, 0.0383116677, -0.0549589209, -0.1016040146, -0.0007880944, -0.0347091630, -0.1267186105, -0.0083201062, -0.0634679198, 0.0041850791, -0.0352576077, 0.2065721899, 0.0131052975, -0.0495835915, 0.0606187657, -0.0902345255, -0.1234782636, -0.0624631643, -0.0532008335, -0.0371962972, -0.0683719739, -0.1531006545, -0.0134272762, 0.0247062445, -0.0143145779, -0.0195770487, -0.0312264040, -0.1915910244, -0.1150458455, 0.0038121734, -0.0519812480, -0.1937098056, -0.1236955225, 0.1153549924, 0.0742590278, -0.0931276083, -0.0569674000, 0.0448183008, -0.1020139083, -0.0062244222, 0.0117055336, 0.1063355282, -0.0919931158, -0.0709918812, 0.0100711267, 0.0313363113, -0.0529770739, -0.0646363199, -0.0137891583, 0.0298895147, -0.0230219755, 0.0040955399, -0.0172167849, -0.2192383707, 0.1331379414, 0.0363289379, 0.0198731665, 0.0298522338, 0.0424866229, -0.1874875873, -0.0283317044, 0.0301845167, 0.0421196558, 0.0255536456, -0.0556993894, 0.0475445390, 0.0673267990, -0.0699269399, -0.0118377646, 0.0845738202, 0.0511005409, 0.0200284906, 0.0783034638, 0.0796005875, 0.0130861253, 0.0022138550, -0.0136680966, 0.1092137173, -0.0601651408, 0.0544477403, -0.1020602062, 0.1959901750, 0.1211732849, 0.0456096753, -0.0463111997, -0.1259841621, 0.1414269954, -0.0258101691, 0.1015279517, -0.0016387581, 0.2403691411, 0.0352487303, 0.1771422178, 0.0770015344, 0.1103125438, 0.1235616878, 0.0046205390, 0.1529472470, 0.0773443058, 0.0242629051, 0.1358012706, 0.0525997765, 0.0937963352, 0.0182790682, 0.0829037726, 0.0693754107, 0.0062203007, 0.0792618170, 0.0803289860, 0.0277318060, -0.0648757890, 0.1176081896, 0.0012428720, 0.1551939845, 0.2066140175, -0.0402361415, -0.0470059849, 0.0428885408, 0.1615850776, -0.0314593166, 0.0894663110, 0.1081383899, -0.0117464671, 0.1766139567, 0.0601350404, 0.0572413355, 0.2936021090, 0.1124496236, 0.0060183448, 0.0185420848, 0.0943457782, 0.0343223326, 0.0971081927, 0.0320505351, 0.1596851498, -0.0044127200, 0.0773164332, -0.0383376293, 0.0681451634, 0.0020634839, 0.0369424224, -0.0310396031, 0.0618668124, 0.0836168304, 0.0565788783, 0.1106058732, 0.1426997185, -0.0473664515, -0.0106325522, 0.1161444932, 0.1499535888, 0.0002157267, 0.2587300539, -0.0807732120, 0.2294454873, 0.0902518034, 0.0986722186, 0.0508337282, 0.0659339502, 0.1717725694, 0.0054433919, 0.1944612414, 0.1614030898, 0.0761441663, 0.0630963147, 0.0352625400, -0.0528385863, -0.0410627015, 0.0544647798, -0.1206166297, 0.2037256956, -0.1502650380, -0.0214956533, -0.0444983020, 0.0557325520, 0.0517835356, 0.0783025026, 0.0272652190, 0.1329586208, -0.0512326732, 0.0096659521, 0.0637828335, 0.2203176916, 0.1039704308, -0.0215228554, 0.0201639291, -0.1398092210, -0.0683621615, -0.0312676765, -0.0980440304, -0.2115236968, 0.1451004595, 0.1182878539, -0.1163295805, -0.1177959293, 0.0959581137, -0.1592405587, 0.0783962905, 0.0571622737, 0.0181927886, -0.0325819030, -0.0208627619, -0.0584337562, -0.0971931294, -0.0536997356, 0.1178708076, 0.0149703315, 0.0292740688, 0.0032298069, -0.0966151655, -0.1455376744, -0.0370240174, 0.0068245097, -0.0448436812, -0.0357734300, -0.0295526311, -0.1129121035, 0.0628615841, -0.0875850394, -0.1337696612, -0.0546724536, -0.0475537293, -0.1601029038, -0.0309157595, 0.0479562283, -0.1364730448, -0.0964947417, 0.0096288677, -0.0416374430, 0.0867653489, -0.0212081596, -0.0322492346, -0.1610237956, 0.0006983760, -0.0119254030, -0.0149885882, 0.0034427468, 0.1408910900, -0.0686776042, 0.0422194563, -0.0464261733, -0.1771252900, -0.0078048767, 0.0204797126, -0.0646919683, -0.0479348749, -0.0421650559, 0.0160646848, -0.0078906771, -0.0169325247, -0.1175608486, 0.0056251604, -0.0006331750, 0.0103754848, -0.0070703002, 0.0266872346, 0.0183468219, 0.0149207180, -0.0212447364, 0.0856868103, -0.1015619189, 0.0828442872, 0.0674954280, 0.1186653003, -0.0899201408, 0.0592346229, 0.0136911031, 0.0195531175, 0.0156405978, 0.0399591886, 0.0676721707, 0.0010365264, 0.0342371687, -0.0194022283, -0.1092443168, 0.1084030271, 0.0341945253, -0.0962830558, -0.0989860892, 0.0538711995, 0.0534091778, 0.0618572161, -0.0436178595, -0.0636201724, -0.0022064424, -0.0431594700, -0.1301131248, 0.0102803269, -0.0546661764, -0.0237354934, 0.0151819335, 0.1073806956, -0.0821217075, 0.0254533440, -0.0004528643, 0.0605776496, 0.0457087532, 0.0586420298, -0.0210168753, -0.0555715300, 0.0814505592, 0.0653087273, 0.0582682379, 0.0070829834, -0.0612750463, -0.0356780477, 0.0077474825, -0.0441620536, -0.0002713047, -0.0036655006, -0.0632633641, -0.0206481554, -0.0995699987, 0.0281845741, -0.0524143428, 0.0100948615, -0.0663370416, 0.0382934771, -0.0578381456, -0.1256592423, 0.0301207155, -0.0988530666, -0.0618364774, -0.0915625319, -0.0346600562, -0.0958347917, -0.0477804914, -0.0120739471, -0.0349140465, 0.1026690677, -0.0132203894, 0.0471698642, 0.0749151036, 0.0924034119, -0.0636851713, -0.0012603886, -0.0739880353, -0.0654141083, -0.0617073774, 0.0627395511, -0.0265251920, -0.1293515414, -0.1007480770, -0.0528982207, -0.1508840621, -0.0553625226, -0.1850546449, -0.0989272222, -0.0149283428, -0.0291759893, -0.0706546381, -0.0658227429, 0.0424463376, -0.0263071191, -0.0428892337, -0.0727513134, -0.0713297203, -0.0843022391, -0.0774435997, 0.0620782077, -0.1207850277, 0.0086253192, -0.0493774489, 0.0966647267, 0.0232200362, 0.0917629004, 0.0386501364, 0.0353022069, 0.0296615940, -0.0760421231, -0.0968250483, -0.0664853305, -0.0247828048, 0.0112236338, -0.2158320546, 0.0956455842, -0.0610688366, 0.0484919436, -0.0536948666, -0.0139318882, -0.0172328111, -0.0844861120, -0.1051395759, -0.0349372327, 0.0974118337, -0.1147134975, -0.0124568781, 0.1012840420, -0.0130308820, -0.0484464616, -0.0324034207, 0.0438834727, 0.0155961132, -0.1124603227, -0.0644487739, 0.0221575387, 0.0542259887, -0.0019804258, -0.0212826319, 0.0279578846, 0.0253708586, -0.0848753750, -0.0545153469, -0.0423011892, 0.0059647774, -0.0920473188, -0.1249981150, -0.0474350415, 0.0313117579, 0.0963308364, -0.0829817057, 0.0982529745, -0.0636313632, 0.0466367826, -0.1516299844, -0.0677868798, -0.0072858455, -0.1297731549, -0.0583872981, 0.0999707803, -0.1009969860, 0.0107798753, 0.0972239375, 0.0212457180, -0.1351005137, -0.0397206470, -0.1345043629, 0.0535519570, 0.0647050068, 0.1218273565, 0.0790178478, -0.0437782183, 0.0413317494, -0.0537544973, -0.0212142151, 0.0953250527, -0.0644064248, -0.0272169616, -0.0490552336, 0.0093130590, -0.1078427881, 0.0429475158, 0.1064178646, -0.0566753298, -0.0866108611, 0.0731405839, -0.0040923026, -0.0490249507, -0.0745861381, -0.1342509091, 0.0035891670, -0.0388683900, -0.1103330180, 0.0183493383, 0.0477771759, 0.0835477337, 0.0485388935, 0.1273082495, 0.0535548963, 0.1005346030, 0.0545359068, 0.0427572764, -0.0571756847, 0.0381215923, 0.0018027035, -0.0090493178, -0.0299372263, 0.1774903685, -0.0238928478, 0.0192970131, -0.0479951017, -0.0026515871, 0.0706901699, -0.0501356237, 0.0112983380, -0.0997764170, 0.0074216551, -0.0689873323, 0.0516318046, -0.1840832084, -0.1240357086, -0.0792615488, -0.1344837546, -0.0907206163, -0.1369845718, -0.0958226770, -0.0824492201, -0.1033770442, -0.0045692008, 0.0025276155, -0.0341583081, -0.1581451297, 0.0262319408, -0.0372588374, -0.0218332354, 0.0166037269, -0.0716715455, -0.0562803634, -0.0174291097, 0.0419045389, -0.0035461194, 0.0015467224, -0.0721716434, -0.0034377642, 0.1292658001, 0.0638676733, 0.0601151623, -0.0780881122, -0.0048904717, -0.0178599767, -0.0777476281, -0.1365782022, -0.0878959596, 0.0815482065, 0.1028307527, -0.1068676040, -0.1090327501, -0.0757294595, -0.1168819591, -0.0339065082, -0.0295412429, 0.0553923920, 0.0114017939, 0.0756546557, 0.0038465266, 0.0388700329, 0.0591507331, 0.0311379060, -0.0873640850, 0.0694958419, 0.0505199321, 0.0227010734, 0.0605696887, -0.0321170352, 0.1430807710, 0.0484261103, -0.0052107410, -0.0860558823, -0.0710110366, 0.1023648977, 0.0684335455, 0.0453180037, -0.0077674859, -0.0786202177, -0.0071537616, -0.0460615382, 0.0743338019, -0.1563172489, -0.0776306018, -0.0474937856, -0.0000824799, -0.0460682996, -0.0119558629, 0.1494686306, -0.0929880515, 0.0108481674, -0.0754207969, 0.0378292762, 0.0712424964, -0.0174666680, -0.0143411700, 0.0113921901, 0.0298878066, -0.0498906523, 0.0307399277, -0.1412265152, 0.0141703570, 0.0154345036, 0.0746844560, -0.0910948142, 0.0213739090, 0.0023507143, 0.1501439810, 0.0187645089, -0.0396540686, -0.0408948734, 0.0143961152, 0.2081602812, 0.1379501373, -0.0795857161, 0.0950938538, 0.0735525489, -0.0194212347, 0.0200425368, 0.0830724686, 0.0840217546, 0.0227858573, 0.0727784783, -0.0352340490, 0.1240913197, 0.0209191181, 0.0569865704, 0.0794280842, 0.0391351618, 0.0068810256, 0.0112670669, -0.0141435955, 0.0305567179, 0.1451694965, 0.0532000661, 0.1271498501, 0.0460386388, 0.1333448142, 0.0996266380, 0.1636511087, 0.1127706617, 0.1574254334, 0.1226399168, 0.0443376862, 0.1513525844, 0.0361056887, 0.0133626917, 0.2000291198, 0.0650061518, 0.1277326792, -0.0155940522, 0.0945809782, 0.0653783083, 0.0947928801, -0.0590620302, -0.0680054203, 0.0263627768, 0.0274537411, 0.0208500624, 0.0728266016, 0.1104826331, 0.2032841444, -0.0260422789, 0.0816204473, 0.1350949258, 0.1339216977, 0.0659391657, 0.0122513631, 0.0244885869, 0.2262620926, 0.0636321083, 0.1604140103, 0.0472312234, 0.2529196739, 0.1366752535, 0.0395355336, 0.0938675404, 0.0226785187, 0.1332308799, 0.1744383723, 0.0309243295, 0.1332907677, -0.0472372025, 0.1398257762, 0.0010018833, 0.1049721465, -0.0112926243, 0.0499972403, -0.0272498783, 0.0658712760, 0.1634502262, 0.0514020920, 0.1550874859, 0.1901226491, -0.0806406885, -0.0207705293, 0.1387346089, 0.1909234673, -0.0213110112, -0.1087151617, -0.0265274197, -0.0531179421, 0.0502851047, -0.0274208840, 0.0033487109, 0.1568492949, -0.0131717399, -0.0051825014, 0.0049424423, -0.1018695310, 0.0906913057, 0.1302046329, -0.0536879450, 0.0894023404, 0.0293022413, 0.0231513679, -0.1401947290, -0.1336972713, -0.1146332845, -0.0743090212, -0.1126360148, 0.0811556876, -0.1019963473, 0.0489583835, 0.1444937140, -0.0271254033, 0.0479934700, 0.0725259483, -0.0439143293, -0.0098722056, -0.0578097999, -0.0744942427, 0.0549854934, -0.2316316068, 0.0349505842, -0.1058835685, -0.0039806869, -0.0274860170, 0.0698322356, 0.0071806032, -0.0530558415, -0.0448983535, 0.0599119999, -0.0166628379, -0.0120982695, -0.0185446665, -0.0483983941, -0.0365662351, -0.2049121559, -0.1418803185, -0.0330111235, -0.0265359301, -0.1438030154, -0.0187857561, -0.1097440124, -0.0495998524, -0.0431887619, -0.0427543372, -0.0652831718, -0.0747716650, 0.1273710430, -0.1570805907, -0.0459289178, -0.2252431512, -0.0569188148, -0.0424410813, 0.0287146997, -0.0769207329, -0.0791431740, -0.1299137771, -0.0414937250, 0.0160479192, -0.1132478267, -0.1489978433, 0.0395156816, -0.0590128414, -0.0776891187, -0.0670307949, -0.0080711991, 0.0273118317, -0.1032013893, -0.1542258859, -0.2265980244, 0.0494452566, -0.1079810038, -0.0419264361, -0.0446444638, 0.0178153925, -0.0484537072, -0.0516568832, -0.0190603640, 0.0043354882, -0.0411199965, -0.1092161164, -0.0061023794, 0.0025536360, 0.0882533491, -0.1667397618, -0.1282991469, 0.0402487330, 0.0286832917, -0.0827323645, 0.0711065680, 0.0816422403, -0.0432634428, -0.0393895507, 0.1135773659, -0.0351564176, -0.0413806625, -0.0606305636, 0.0877910182, -0.0128036048, -0.0474029407, -0.0942100361, 0.0508434586, -0.0690935850, 0.1032417268, -0.0203929171, -0.0394809358, 0.0200578459, -0.0098411972, -0.1354314536, 0.0680014193, 0.0526100397, 0.0196143948, -0.0659860373, 0.1213969514, 0.0639890656, -0.0026108448, -0.0870686173, -0.0624898113, -0.1128002778, -0.0643532649, -0.0980920419, -0.0317044705, 0.0897432566, -0.1059715226, -0.1094891131, -0.0475837961, -0.1434571296, 0.0777450129, -0.0713080317, 0.1221673712, -0.0942693353, 0.1414110065, -0.0084986379, 0.0656820685, 0.0044168690, 0.0925648957, -0.0462711155, -0.0079699550, 0.0818217844, -0.0562116951, -0.0685914010, 0.0457218438, 0.0342704616, -0.0301847253, -0.0389521271, 0.0811734125, -0.0825458765, 0.1162830666, 0.0235407185, -0.0754655674, -0.0868105665, -0.0082146814, -0.1558650881, 0.0039034493, 0.0312455893, -0.0872296169, 0.0165530834, 0.0946337208, 0.0003393584, 0.0917066559, -0.0063968576, 0.1392282397, -0.0330996253, -0.0541347452, -0.0200090706, 0.0041129095, -0.0385257974, -0.0366927832, -0.0065175970, 0.0528419912, 0.0037117805, -0.1957488060, -0.1283479184, -0.0315540396, 0.0722371861, -0.0758382902, -0.0127783818, 0.0015721200, -0.0045125987, 0.0998598635, -0.0830077380, -0.1329848766, -0.0852311105, -0.0773119703, -0.0639963076, 0.0034981235, -0.0070176297, -0.1487786770, 0.0308706257, 0.0380680971, -0.0876371711, 0.0172213353, -0.0024057189, 0.0838897154, -0.1012707502, -0.0711101815, 0.0096506253, 0.0422274508, 0.0376973301, 0.0224301983, -0.0055244924, 0.0332613103, -0.0023794391, -0.1138560399, -0.0154153910, 0.0355602130, 0.0737092122, -0.0317580812, -0.0656805113, 0.0745278820, 0.0195206888, 0.0623549223, -0.0652603433, 0.0224276073, -0.0181065407, -0.0794844702, -0.2021650523, -0.0226314291, 0.0317953378, -0.1390275806, -0.0000307121, 0.0246209018, -0.0233755130, -0.0774722695, 0.0436987504, 0.0816505328, -0.0197575297, 0.0195018239, -0.0204989370, 0.0813766345, 0.0565505363, 0.0407276414, 0.0412972644, -0.0017566720, -0.0617382340, -0.1161186919, -0.0490385368, -0.0742087066, 0.0180134941, -0.0914505273, -0.0506080799, 0.0147794401, -0.0489148572, 0.0739915594, 0.0060324376, -0.1224049628, 0.0393097028, -0.0777901411, -0.0386358686, -0.0318737216, 0.0524096414, -0.1855672151, -0.0916592702, -0.0509990938, -0.1092350259, 0.1151966155, 0.0469957404, 0.0992237180, -0.0308402032, -0.0721807852, -0.1219498590, 0.1264972836, -0.0150506385, 0.1020350307, -0.0693022385, -0.0696471632, 0.0223319605, -0.0988400280, -0.0894678682, -0.0571637750, -0.0473764464, 0.0238182638, -0.1935285032, 0.0501449034, 0.0332728885, -0.0055642249, -0.0070177452, -0.0458123833, -0.0830774605, 0.0476144142, -0.1463652402, 0.0104110539, 0.0783018768, -0.0783982649, -0.0543587357, 0.0686915517, -0.1017231718, 0.0143088438, -0.0444419272, -0.0181523245, 0.0513531342, 0.1471663266, 0.1127930656, 0.0598483123, -0.0011513273, 0.0684586242, 0.0398859940, 0.0308487415, 0.0434954427, -0.0464971587, -0.0847520307, -0.0444483347, 0.0121584814, -0.0998596996, -0.0379968062, -0.0461758859, 0.0510087050, 0.1319031715, -0.0222020987, -0.2878029644, -0.0152614890, 0.0259031728, -0.0502033010, 0.0172948670, 0.1495505422, -0.0442593694, 0.0695219636, -0.0170309637, 0.0244321954, -0.0452690199, -0.0330604687, 0.1442841291, -0.0816376582, -0.0779812112, 0.0718989074, -0.0705978870, -0.0148171335, 0.0306838658, -0.0483368412, -0.0182285663, 0.0517929643, -0.0867198482, -0.0699862987, 0.0905449614, -0.0664866641, -0.1353508830, -0.0056673926, 0.0391976982, -0.1050043404, 0.0602528043, -0.1249610111, 0.1473276764, 0.0094750999, -0.1375821680, -0.0074921097, -0.0672122613, 0.0778008401, -0.0487313718, -0.0585997365, 0.0433062576, -0.0640303344, 0.0143737234, 0.0516360998, 0.0551328361, -0.0709938779, -0.0089141754, -0.0769035071, 0.0842303485, -0.0499531664, 0.1674147993, -0.0097418558, 0.0077029322, 0.0738264322, 0.0055474495, -0.0425113365, 0.1667677015, 0.0231926404, 0.1292207986, -0.1380853206, 0.0561040193, 0.0072899233, -0.0788842142, 0.0100636277, -0.0243165027, 0.0558668450, -0.0706175715, -0.0171046406, 0.0321551599, 0.0247375220, -0.0089051295, -0.0748168752, -0.0041596401, -0.0998666286, 0.0310971644, 0.0339300260, -0.0852895752, -0.0034855297, 0.0185429472, -0.0740103126, 0.0425509587, 0.0192010328, -0.0489815213, 0.0085225245, -0.0878564417, 0.0046894178, -0.0690108240, -0.0218544863, -0.0342929699, 0.0768363103, 0.0146408696, 0.0457142070, 0.0069396687, 0.0279885605, -0.0763803571, 0.0007061209, -0.0073559671, -0.0597265698, -0.0480051003, 0.0549052842, 0.0385263748, -0.0729437470, -0.0332574323, 0.0276342575, -0.0085282046, -0.0500723943, -0.0187598150, 0.0110964365, 0.0261206571, -0.0858418345, 0.0099868029, 0.0272788610, 0.0037901865, 0.0105030341, -0.0808435529, 0.0634143800, 0.0183344260, 0.0669954792, 0.0148279946, -0.0813119188, -0.0814700499, -0.0491663218, -0.0854897946, -0.0672869608, -0.0030533699, -0.0555653609, -0.0375149995, -0.0806742609, 0.0443799235, 0.0411022715, -0.0928880423, 0.0614255443, -0.0213935710, 0.0165105667, -0.0173233971, -0.0373525210, 0.0523538478, -0.0695725679, 0.0675146133, 0.0184380896, 0.0183963571, -0.0433364771, -0.0729316697, -0.0584229007, -0.0730289817, -0.0109250685, 0.0553600192, 0.0290712863, 0.0374465585, -0.0859470442, 0.0587111004, -0.0673714802, -0.0292478427, 0.0009093145, -0.0643115789, -0.0019273474, 0.0665632784, -0.0314612649, -0.0627942011, 0.0587365143, -0.0257361196, 0.0550247133, -0.0914177746, 0.0299819056, 0.0151127214, -0.0450910591, -0.0613573007, 0.0176784825, -0.0705693886, -0.0026362846, 0.0166359972, 0.0160243809, 0.0375832133, -0.0544495471, -0.0225281790, -0.0470136702, -0.0807831436, 0.0594733208, -0.0053790966, -0.0436344966, 0.0012861429, -0.0508290492, -0.0272328369, -0.0233796258, -0.0614589602, -0.0402273051, -0.0937341601, -0.0288051963, -0.0849069431, 0.0101790670, -0.0187493470, -0.0464303084, 0.0501553975, 0.0317770615, 0.0146477250, -0.0352727659, -0.0240238942, -0.0655995831, 0.0208339207, 0.0625105873, 0.0179276560, -0.0424391292, 0.0436995216, -0.0284404531, 0.0455025546, 0.0438175090, 0.0140389325, -0.0372847095, 0.0332474075, 0.0355222821, 0.0174918193, 0.0387029722, 0.0152284838, 0.0598048829, -0.0817173198, 0.0376418568, -0.0007861692, 0.0142717734, 0.0186370183, -0.0913705453, 0.0001423472, -0.0417253189, -0.0166725107, 0.0307743587, -0.0046593491, 0.0410395376, -0.0713414699, 0.0431835614, 0.0366414264, -0.0756442249, -0.0191319250, -0.0939038545, -0.0452623591, -0.0779832304, 0.0178681985, -0.0573157221, 0.0068647037, -0.0230105817, -0.0836676285, -0.0114453211, -0.0316018835, 0.0480528660, -0.0296544991, -0.0103522716, -0.0248438381, -0.0113744922, 0.0373792723, -0.0899416208, 0.0084665120, -0.0126300966, -0.0716965199, -0.0770325288, -0.0364083871, -0.0496855602, -0.0201142039, 0.0202281140, 0.0673910081, -0.0441628210, -0.0093743736, 0.0211212616, 0.0107604144, -0.0827484280, -0.0618126281, -0.0636197850, -0.0362117365, -0.0207310040, -0.0691566318, -0.0620028190, -0.0333693586, 0.0274218824, -0.0329831876, 0.0286148917, 0.0529488251, 0.0720954016, -0.0499751829, 0.0481150411, -0.0013852525, -0.0753620341, -0.0305390637, 0.0264209360, -0.0798439831, -0.0744802952, 0.0598962232, 0.0481854975, 0.0189951491, -0.0187882874, -0.0602782033, 0.0165744163, -0.0373542756, 0.0465773307, 0.0037719221, -0.0258965082, 0.0297270846, 0.0501396619, 0.0274643954, -0.0665791258, 0.0550639294, 0.0681814700, 0.0162445363, -0.0459919013, -0.0843507126, -0.0922182351, -0.0293676592, 0.0567725673, 0.0428776033, -0.0377691425, 0.0052666953, 0.0110455025, 0.0317697749, -0.0684395805, -0.0152904438, -0.0369097851, 0.0007283335, 0.0031664569, -0.0690653622, -0.0582218245, 0.0060282587, -0.0663226396, -0.0781553388, -0.0115277506, 0.0360853188, -0.0585502274, 0.0255711116, 0.0253840536, 0.0174155030, -0.0645559952, -0.0108983591, -0.0853407159, 0.0003683123, 0.0632954538, -0.0466315672, -0.0953982770, -0.0544110127, 0.0471810922, 0.0580647327, -0.0566328503, -0.0360508673, -0.0762181729, -0.0131941084, -0.0304407366, 0.0077691013, -0.0955444276, -0.0112848142, 0.0273009501, 0.0412428156, 0.0436927304, 0.0145028271, -0.0237079002, -0.0624063127, 0.1334150732, 0.0333648585, 0.3459410965, 0.0291322712, 0.1718398780, 0.0074436716, 0.0447468236, 0.0451466516, 0.0557849184, 0.1861236095, 0.0550729409, -0.0037783703, 0.1259465665, 0.0255413614, -0.1311127245, 0.0203450751, 0.0940111205, 0.0095393574, 0.0574775524, -0.0099048940, 0.0328979604, -0.0151133025, -0.0836597085, 0.0492146611, 0.0295159165, 0.2175785750, 0.1223344058, -0.0055958130, -0.0279996172, -0.1699219942, 0.2232605964, 0.0683900788, 0.0583553426, -0.0045235464, 0.0713555962, 0.1116981432, 0.1596918553, 0.1152345613, 0.2148851007, 0.0494686142, 0.0257307999, 0.0295721646, 0.0789847076, 0.0222324617, 0.2164225876, 0.0608354583, 0.1084385365, -0.0732560530, -0.0004504572, 0.0216058716, 0.1154355630, 0.0706879124, -0.0722771138, 0.0536269583, -0.0211332757, -0.0189981665, 0.1027071327, 0.1406548470, 0.1514177620, 0.0362762026, -0.0676037148, 0.1446559280, 0.0841117799, 0.0535449348, -0.0821974725, -0.0026603932, -0.1498992890, 0.1285591722, -0.0079138838, -0.0449179374, 0.0769855380, -0.0366030559, -0.0699049309, 0.0117934346, -0.0113622332, 0.0814224556, 0.1484032273, 0.0256673936, 0.0367806852, 0.0327961817, 0.0069962637, -0.1427358389, -0.1793244779, 0.0296522956, -0.0219379589, 0.0636980757, 0.0527039170, -0.1576548070, 0.0025861284, 0.0305537116, 0.0589199848, -0.0039651101, 0.0310114529, 0.0345539078, -0.1550912112, -0.0472124629, -0.0333293565, -0.0762807205, -0.1203246713, -0.0466556102, -0.1175558865, -0.0908499360, 0.0080958074, -0.1178547144, -0.0303600002, -0.0087044593, -0.0809814483, -0.1392463595, 0.0037925069, -0.0174470451, -0.0255675688, -0.0836920515, -0.0862692147, -0.0705898777, -0.0922771916, 0.1109979153, -0.0256422888, -0.0840956867, 0.0350929797, -0.0016003844, -0.0079375412, -0.0728151053, -0.1096172184, 0.0622668713, -0.0595554709, -0.0498188064, -0.1000396088, 0.0071321703, 0.0195998903, 0.0464147031, -0.0895635858, -0.1160161123, 0.0009888896, -0.0000798137, -0.1677389443, -0.1764231771, 0.0142260808, 0.0470460616, -0.0504855625, -0.0297621898, -0.1338827163, -0.0593135171, -0.0301656201, -0.0092293648, -0.0593403690, 0.0302887000, -0.2098301798, -0.0270555355, 0.0548748523, 0.0751987025, -0.0422589853, -0.0444994532, -0.1133409441, -0.1316939443, -0.1262012571, -0.0266316961, -0.0305283312, -0.1266392022, 0.0962712467, 0.0036922083, -0.0035652546, 0.0205773730, 0.0903824344, -0.1485081464, 0.1248975769, 0.0848324820, -0.0000047669, 0.0741146654, -0.0443404019, 0.0942729488, 0.0524097122, -0.0648856461, -0.0830597132, 0.0149405766, -0.1011784524, 0.0716183260, -0.0202872958, -0.0083107753, 0.0865674168, 0.0237703938, 0.0413034037, -0.0570418276, 0.0350213125, 0.0920221657, -0.0409983359, 0.1058198139, 0.1710486859, 0.0084886085, -0.0544815995, -0.1270326227, 0.0994545668, 0.0560940169, 0.1256192923, 0.0947638527, 0.0396121107, -0.0404290818, 0.1285720170, -0.0450819954, 0.1068215817, -0.0201008432, 0.0118954200, 0.0875005871, 0.1463314295, 0.0664875507, 0.0023199017, -0.0101963822, 0.0879972130, -0.0063503636, 0.0658651888, 0.0260482058, 0.0677892119, 0.0665788949, 0.0485844798, 0.0046219965, -0.0191186816, 0.0794448629, 0.0758644417, 0.0564515330, 0.0015102803, 0.0341540538, 0.0043532802, 0.0054115229, 0.2112040073, 0.0271738078, 0.0176093411, -0.0248917583, 0.1559134424, 0.1507785320, 0.1048539430, 0.0488210805, 0.1225407720, -0.0308881290, 0.0691167936, 0.0978181809, 0.0357823484, 0.0804651901, 0.0893037468, 0.0241760425, 0.1449224353, -0.0285042096, 0.0510648154, -0.0691190585, 0.0498711802, 0.0408506840, -0.0224052053, -0.0112417201, -0.0756314471, 0.0053915232, 0.0601796657, 0.1840131730, 0.1715254933, -0.1020581275, -0.0769769028, 0.0363340676, 0.0607870817, -0.0695464090, -0.0590038486, 0.0140409293, 0.0613711029, 0.0361111015, -0.0368267000, 0.0324127153, 0.0768566802, -0.0080891885, -0.0373342931, -0.1076190397, -0.1245880723, 0.0480023324, 0.0322728865, -0.0624847822, 0.0074153822, -0.0530975349, 0.0705571622, -0.1695974022, -0.0994858444, -0.0888147876, 0.0788735375, -0.1117032319, 0.0394969992, -0.0578302927, 0.0213332325, 0.0829736516, 0.0168673806, -0.1331450492, 0.0099218730, 0.0071286294, -0.1213100106, 0.0409126729, 0.1658362746, 0.0805548877, 0.2106063813, 0.0077818641, 0.0759752467, 0.0839495510, -0.0092269946, 0.0399387926, -0.0350103527, 0.0784287676, 0.1881932020, -0.0842357725, -0.0832906291, 0.0509484485, -0.1189237759, -0.0871718079, 0.0793115944, 0.0002323818, 0.0266362242, -0.0270024296, 0.0679233968, -0.0119673060, -0.0050703315, 0.0190775022, -0.0197742954, -0.0128540127, 0.0956923664, 0.0184289869, 0.0105051296, 0.0279770661, 0.1653361470, 0.0287510436, -0.0123130288, -0.0633487105, 0.1758094579, 0.0521903634, 0.1351310462, 0.0697532296, 0.2320972979, 0.0384997837, 0.0020113050, 0.1367142200, 0.0337905884, 0.0356965922, 0.1147204787, 0.0249806158, 0.1448499709, -0.0583282895, 0.1390341520, 0.0259894207, 0.0969889238, 0.1149502769, -0.0143612623, -0.0631414354, -0.0281236954, -0.0199733507, 0.0908800960, 0.2134722769, 0.0959612727, 0.0769385919, -0.0191242266, 0.0783094689, 0.1452222019, 0.0109798973, 0.1033035964, -0.0538576655, 0.2413458377, 0.1870952249, 0.0623337999, 0.0312591232, 0.0430583246, -0.0208107568, -0.0665840134, 0.1527613103, 0.1554080844, 0.0851844251, 0.1168538928, 0.0910296440, 0.0908876881, 0.0645167381, 0.1209592223, 0.0124582974, 0.0183767676, 0.0643972903, -0.0394656137, 0.0150739681, 0.0671918541, 0.0245686900, -0.0061773658, 0.0018170926, 0.0870535672, -0.0033868074, 0.0803911835, 0.0374164507, 0.0697515011, 0.0181903653, -0.0438401997, 0.0492978320, 0.1629603505, 0.0657041967, 0.0251861773, 0.0497386567, 0.2941717505, 0.0013911659, -0.0145250438, 0.0229237378, 0.0245640893, 0.1482183784, 0.0666854978, -0.0102989767, 0.0841455832, 0.0219015963, 0.1536948532, -0.0717040300, -0.0255688354, -0.0464939401, -0.0787958056, -0.0175857302, -0.0273837838, 0.0573420785, -0.0313387848, 0.2570442557, 0.1339088380, 0.0625894740, 0.0388897173, 0.0214107726, -0.0412624963, -0.0043914691, -0.0286884774, 0.0020148566, 0.1192485988, 0.1093647704, 0.0300533008, -0.0476723686, 0.1213974133, 0.0343832895, 0.0572965816, 0.0898246765, 0.0159881674, 0.0630000010, -0.0046594380, -0.0611990504, -0.0287827495, 0.0384371541, -0.0038163594, -0.1354612708, -0.0144423293, 0.0260046422, -0.0511932671, -0.0162472557, -0.0146209123, 0.0040373690, 0.0777651966, 0.1031318381, 0.0636452287, 0.0078377863, -0.0219842736, 0.0299057737, 0.1343529224, 0.0199910272, 0.0220070407, 0.0458838753, -0.2103566676, 0.0034720786, -0.0267639123, -0.1058235094, 0.0725159571, -0.1020987630, -0.0220870432, 0.0105757136, -0.1302139461, 0.0430745520, -0.0057008909, 0.0046828385, 0.0335699692, -0.0245711133, 0.0359394625, -0.0412517004, -0.1693786234, 0.0809820816, -0.0780731961, 0.0099589275, -0.0028149197, 0.0026296198, -0.0890365615, -0.0226271469, 0.0160786510, 0.0694217011, 0.0422727801, -0.0579480566, -0.0472232327, 0.0412318408, -0.0858381763, -0.0558007024, 0.0121334800, 0.0571973957, -0.0633624345, -0.0452320538, -0.2053160220, -0.0866472796, 0.0228621792, -0.0198441744, -0.0427347831, -0.1023126915, -0.0617304854, -0.0898107886, -0.1005426794, -0.0735237524, -0.0774507895, -0.0165000353, 0.0230458789, 0.0418563448, -0.0001102270, 0.0039707478, 0.0156915151, -0.0000061978, -0.0721398741, -0.0110619096, -0.0049727368, -0.0607267097, 0.0030104080, -0.0274718963, -0.0254844129, 0.0215543993, 0.0082393084, -0.0225003287, -0.0397384092, 0.0773993954, -0.1079668179, -0.0004207060, -0.2059653401, -0.1929365396, -0.0465088040, -0.0535341837, -0.1238070205, -0.0130427089, -0.1024946198, -0.0853137150, -0.0271679051, -0.0875833184, -0.0758703053, -0.0109493639, -0.0554912090, 0.0156887621, -0.0173052140, -0.0159132555, -0.0377681218, -0.1266097575, -0.0732742697, -0.0234502964, -0.1028137207, -0.0150979916, -0.0529331639, -0.1243962795, -0.0126288310, 0.0445370041, 0.1471359581, -0.0393705517, 0.1118800119, -0.1246142983, 0.1211509854, 0.1124137938, 0.0629243776, -0.0333723612, -0.0417216904, 0.0746297166, 0.0924146846, -0.1435501277, -0.0537850596, 0.0486355424, 0.0007705227, 0.0322799422, -0.0797196478, 0.0492522009, 0.0927323326, -0.0262815971, -0.0772370324, 0.0181123633, -0.0752837732, 0.0842616931, 0.0269693341, -0.0648247674, 0.1372185647, -0.0237759817, -0.0436723754, 0.0068659987, 0.1836034209, 0.0079404963, 0.0580159426, 0.0836374760, 0.2187142223, -0.1145289689, 0.1127947196, -0.0162405707, 0.0876139551, 0.1113958806, 0.0271253698, 0.2541693151, 0.0991242230, 0.0288911853, 0.0858884975, 0.0240211077, -0.0443235226, 0.0964597762, 0.1724889427, -0.0068727573, 0.1242784932, 0.0310822912, -0.0043670880, -0.0314290263, 0.0496290624, -0.0210667159, 0.0841252282, 0.2218984216, 0.2084319293, -0.0811019242, 0.0210815035, -0.1656538844, 0.2176509947, 0.0301473178, 0.0939458385, 0.0141738802, 0.2216548175, 0.1410071552, 0.1700963676, 0.0102808606, 0.3236504793, 0.0957382098, 0.0064332765, 0.0965155736, -0.0052510207, 0.0070888307, 0.1005225107, 0.0507577509, 0.1290950924, -0.1010160968, 0.1821821332, 0.0285160691, 0.0626038164, 0.0078459084, -0.0280767176, -0.0350053310, -0.0043766089, 0.0771396607, -0.0257148053, 0.2720429599, 0.1139045507, -0.0061476324, -0.0027744309, 0.1052286401, 0.1730629504, -0.0301595014, -0.1405338794, 0.0184325557, -0.0434905440, 0.0026916941, -0.0163047630, -0.0127719091, 0.2357777804, -0.0695312172, 0.0075217402, -0.0800541416, 0.0051249065, 0.0659716502, 0.0390547290, 0.0558556728, 0.0898969248, 0.0386413150, -0.0389510654, -0.0842782483, -0.0845198855, -0.0524365716, 0.0398324616, -0.0444869883, -0.0549984090, -0.1009111404, 0.0066187931, 0.1958865672, 0.1130133495, -0.0471728481, 0.0665751100, -0.0143147958, -0.0772198737, -0.0409306996, -0.2122467607, 0.0419881381, -0.2146874964, -0.0134624382, -0.0406254157, -0.1717248112, -0.0716104284, -0.1440239400, -0.0664995313, -0.2145919204, -0.2520929873, -0.0011194466, -0.0269718841, -0.0376031399, -0.1098272800, 0.0156297144, -0.0138059650, -0.2016003877, -0.2119802237, 0.1017053202, -0.0596566088, -0.0570372455, -0.0276292749, -0.0318804346, -0.1198169664, -0.1178643852, -0.0241575651, 0.0077853389, -0.0554682352, -0.0476357862, -0.1547325104, 0.0315068662, 0.0821439326, 0.0224719904, -0.0573210977, -0.1103710085, -0.0504732281, -0.0017459670, -0.3161832392, -0.0203196090, -0.0193197541, -0.0063503510, -0.0745267794, -0.0260866284, -0.1875295341, -0.0768728182, -0.2170096636, -0.0499827303, -0.1768523306, -0.0226332452, -0.0517848767, -0.0251941625, -0.0134481480, -0.0334911533, 0.0121372901, -0.1082455590, -0.0320289172, -0.1483347118, -0.0472839363, -0.1066065133, -0.0465793833, -0.2684122920, -0.0099108014, 0.0093194526, -0.0468353666, -0.0959928110, -0.1886496097, -0.1094620526, -0.0889941379, -0.0604241788, -0.1157618612, -0.2313338667, -0.1097956002, -0.1557675004, -0.0920630693, -0.1266516745, -0.0803466737, -0.0244937167, -0.1845757663, -0.0118904132, -0.1046416759, 0.0022913197, -0.0865804851, 0.0725702494, -0.0704036802, 0.0453965142, 0.0047496143, 0.0302689727, -0.0200255215, -0.1408804059, -0.0976842716, -0.0567273274, -0.0224581957, -0.1970477402, 0.0372434407, 0.0773367211, 0.1480251998, 0.0353618078, 0.0313374177, 0.0068088383, -0.0009766588, -0.0333365873, 0.0148369716, -0.0210241042, -0.0536156297, 0.0748647600, 0.0623786524, -0.1239885986, -0.0263728723, -0.0030703107, 0.0441801921, -0.0064078248, -0.0690767467, -0.0151626887, -0.0289587844, 0.0932110325, 0.0078959325, -0.0497065894, -0.0561996549, 0.0556498542, -0.0566033572, 0.0372663550, 0.1502315998, -0.0913163647, 0.0280447695, 0.0017047081, 0.1393022686, 0.0822151825, 0.1276784390, 0.0086081009, 0.2191101313, 0.2649861872, 0.1588220596, 0.1505618840, 0.0968141034, -0.0291885491, -0.0114189265, 0.1478019804, 0.0270884298, -0.0677323341, 0.0942953900, 0.1052526534, 0.0527394973, 0.0267103761, 0.0987135842, 0.0960304663, 0.0363280699, -0.0491539873, 0.0819604993, 0.0815804154, 0.0428876951, 0.1345019341, 0.0668101013, 0.2118019760, 0.1118571013, -0.0370533876, -0.0438168682, 0.0402086563, 0.1715082079, 0.0149048781, 0.2047368735, -0.1115807965, 0.2258293778, 0.0606031418, 0.1217290163, 0.1563548893, 0.2407204211, 0.1661664099, 0.1037350968, 0.2569423318, 0.1450678557, 0.0014693362, 0.1750912368, 0.0203709099, 0.0161648076, -0.0202227589, 0.0626484379, 0.0003442030, 0.1696711779, 0.0681542978, 0.0744300410, 0.0296912268, -0.0689586699, 0.1226988286, 0.1111085862, 0.2254315168, 0.1179712042, 0.0082714902, 0.0032136126, 0.0154376794, 0.2622207701, 0.0506468713, 0.0606829412, 0.0435747989, 0.2129384875, 0.0842091814, 0.2248204350, 0.0403161272, -0.0013544261, 0.0221524704, 0.0335901976, 0.1949454397, 0.1211015955, -0.1095299870, -0.0563030764, 0.0178130381, -0.1215105802, -0.0857799202, 0.2848736942, -0.0419565178, 0.1108923629, 0.0268432871, 0.0000544934, 0.0602890737, 0.0161000993, 0.0776118115, -0.0186438058, 0.0243809801, 0.2265859991, 0.0163807701, -0.0808829516, -0.1051992029, 0.1883118451, 0.1074430048, -0.0236618202, 0.0274205785, 0.1469313502, 0.0248753261, 0.0050617591, 0.0602956749, 0.2510819435, 0.0358535163, 0.0252178703, 0.1598158181, 0.0947778225, 0.0465980135, 0.1861749589, 0.0359355882, 0.0909853652, -0.0110410927, 0.0290372632, 0.1446921676, -0.0534849502, 0.0116029130, -0.0125359036, -0.0462474823, 0.0621609725, 0.0948931053, 0.0848262161, 0.2181804180, 0.1964563876, -0.0408899747, -0.0018778378, 0.2087041289, 0.0913658962, -0.0368484929, -0.1750027090, 0.0528842285, -0.1172865182, 0.0319726653, -0.0148056857, -0.0209534932, 0.1126395911, -0.1547563225, -0.0541968979, 0.0383173637, -0.1617794782, -0.0591712147, 0.0078790653, 0.0407953449, -0.0509863384, 0.0486656800, -0.0118353814, -0.1153266206, -0.1760069728, 0.1452368945, -0.0336340070, 0.0318410806, 0.0297619682, -0.0976230726, -0.0250305999, 0.0714206472, 0.0260233618, 0.0689687803, -0.0515783876, -0.0221221391, -0.0011565427, -0.0455390960, 0.1421382874, 0.0525709912, -0.0642964765, 0.0501771234, -0.0994262844, 0.0677320436, -0.1607862711, 0.0173685998, -0.0371552967, -0.1016910225, -0.0704024658, -0.0395196378, 0.0160105322, -0.0857349560, -0.0872287601, -0.0835896283, 0.0444230884, -0.0515084639, -0.1518269330, 0.0140559943, -0.0553596802, 0.0261836778, 0.0072292951, -0.0101026818, -0.0855061859, -0.0614782944, -0.0495586768, 0.0209654197, 0.0774805024, -0.0798943862, 0.1027915701, -0.0256579798, 0.1147871912, -0.0509562939, 0.1262359470, 0.0298341848, 0.0762389377, -0.0730226040, -0.0453142561, -0.0705579072, -0.0818753541, 0.1668123454, 0.0854133144, -0.0472205319, -0.0458950736, 0.0562690534, -0.0965746567, -0.1234422252, -0.0635285750, 0.1034143046, 0.0451562069, 0.0255779270, -0.0523816161, 0.0443980023, -0.0708945543, 0.0489024296, -0.0169590916, 0.0953231305, 0.1099673286, -0.0202774256, 0.0303041786, -0.1198282465, 0.2297588885, 0.0340421684, -0.0539808311, 0.0115841050, 0.0761359558, 0.0142537337, -0.0082940124, 0.0349614955, 0.3016970754, -0.0467269719, 0.0064418986, -0.0241408627, -0.0904886127, 0.0226654988, 0.1004069969, 0.0192600526, 0.0859210864, 0.0100254314, 0.0701633468, 0.0538285598, 0.0261004250, -0.0714646354, -0.0410126299, -0.0312591158, 0.0764353499, -0.0151185859, 0.0913701355, 0.3199374974, 0.0465457886, -0.1193969548, 0.0363364257, 0.0505305305, 0.1437499225, -0.0083316285, 0.0365059115, 0.0052940142, 0.1344807297, 0.0539511442, 0.1494599432, 0.0928685963, 0.1200391352, 0.1062855422, 0.0552615151, 0.0902977139, 0.0847617537, 0.0157778449, 0.0773481727, 0.1220696196, -0.0090616457, -0.0339822099, 0.0576206893, 0.0233256798, 0.0476781689, 0.0075431704, 0.0777013376, -0.0297292303, 0.0073294439, -0.0147459907, -0.0104996692, 0.0682879984, 0.1097669378, 0.0688083768, 0.0584999919, -0.0733607486, 0.1181672812, -0.0117952796, -0.1755441278, -0.0318353325, 0.1673824936, 0.0408155918, 0.1217220351, -0.0531563796, 0.1470684111, -0.0307495110, 0.0418301709, 0.0980405584, -0.0838736594, 0.1149006858, 0.0780799910, 0.0129602924, 0.0819715783, 0.0088385986, 0.0278289840, -0.1188135147, 0.0483015887, -0.0370964296, 0.0711161494, -0.0415295474, -0.0819261223, -0.0120983133, 0.0035622835, 0.0840614811, 0.0290842596, -0.1286256611, -0.0804152042, 0.1401289552, -0.1548009813, -0.0921256989, 0.0016710279, -0.0746967867, -0.0030227941, -0.0472257882, -0.0066952696, -0.0976763070, -0.1033966690, 0.0010114416, 0.0368775651, 0.0220096316, -0.1161448658, -0.0475038067, -0.0021019445, -0.1505098343, -0.1280988902, -0.0569793172, -0.0203103647, -0.1686639935, -0.0437326543, -0.1367492080, 0.0076576155, -0.0595028847, 0.0011032815, -0.0731004328, 0.0179451872, 0.0452126712, -0.0752927884, -0.0896933377, 0.0003525509, -0.0259212218, 0.0432742499, 0.0664610490, 0.1511311233, 0.0099778334, 0.1752865463, -0.0184252243, 0.1080777571, 0.0635251477, -0.1150037944, 0.0573076569, -0.0361107253, 0.1949128509, 0.1290566325, -0.0451207757, -0.2102956772, 0.0378883369, -0.2233005911, 0.0092203850, 0.0757126063, 0.0228203256, 0.1329888552, -0.1453217864, -0.0335981287, 0.0146555817, -0.0638546497, 0.0937733948, -0.0031036041, -0.0102516301, 0.2051520795, -0.0446306057, -0.0800187439, -0.1265758872, 0.0962452665, -0.0250386819, 0.1171598285, -0.0452039316, 0.2139605731, -0.0244846251, 0.1414861679, 0.1621230692, 0.2805372775, -0.0250577070, -0.0012427715, 0.1232004985, 0.1360154748, 0.1131014973, 0.1237830892, 0.0873275176, 0.1310269088, 0.0766053945, 0.0728007033, 0.0406705849, 0.0276850779, 0.0151818544, 0.0801841691, 0.0627980009, 0.0760317966, 0.1319567859, 0.1131561846, 0.2825656533, 0.2208379805, 0.0758427083, -0.0197720435, 0.1218373626, 0.0452017933, -0.0232294817, -0.1104687974, -0.0073480792, 0.1450948417, 0.0887517855, 0.0458366498, -0.0329612531, 0.1020830497, 0.0443437435, -0.0124462582, 0.0873162523, -0.0418520086, 0.0179971755, 0.1250344813, 0.1182294339, 0.0606687330, 0.0362536609, 0.0240628794, 0.0237310659, 0.0237940308, 0.0701852441, 0.0463607237, -0.0717712864, -0.0795499086, -0.0507531203, 0.0902241170, 0.1778599173, 0.1519767493, 0.1381354481, -0.0424255952, 0.1389179975, 0.0725281015, -0.0135898255, -0.0666067004, -0.0635161027, 0.0005054668, -0.0022041094, -0.0941237956, 0.0208627172, 0.1784173846, 0.0214780141, -0.0716266185, -0.1047108322, -0.0139380684, -0.0707469806, 0.0310490988, 0.0455525070, 0.1055391133, 0.0443433598, 0.0328118205, -0.0703456476, -0.0675053224, 0.0364077948, -0.0038349179, -0.0576326251, 0.0064155739, -0.0449066311, -0.0698978230, 0.1297267228, -0.0118232537, 0.1945813149, 0.0794642344, 0.0687334463, 0.0036925608, -0.0595194735, 0.0112407440, 0.0279548429, -0.0794859380, 0.0255523883, -0.1093390360, -0.0952837765, -0.1567391902, -0.0074231238, -0.0612476654, -0.0550579652, -0.0925442800, 0.0491314828, -0.0359476358, -0.1163018867, -0.1121079996, -0.0242854301, -0.1129076853, -0.0635099262, -0.1392280459, -0.0052313344, 0.0226876177, 0.0158848874, 0.0742070749, 0.0031782754, 0.0033169603, -0.0882208198, -0.0397354178, -0.0758742765, -0.0183499027, -0.1073009148, -0.0422342233, -0.0136088897, 0.0784689561, 0.0680568963, 0.1861334741, -0.0019727554, 0.2101675421, 0.0678750798, 0.0323262475, 0.0652092993, 0.1060025096, 0.1762458980, 0.1278684586, -0.1065280512, 0.1634691656, 0.0101238070, -0.0327890404, 0.0075325398, 0.0954985693, -0.0418372564, 0.1460049897, 0.0758861080, -0.0569777749, 0.0216311757, 0.0300432108, 0.1261732131, 0.1323468387, 0.2011253834, 0.2318494320, -0.0414655134, -0.0644882992, -0.0307218730, 0.1584044546, 0.0546613857, -0.1560264975, -0.0290999077, -0.0358837359, 0.0559927151, 0.1033301204, -0.1069429442, 0.1754579842, 0.0143653834, 0.0352897905, 0.0824949220, -0.0473397709, 0.0241177827, 0.0862287283, 0.0345141627, 0.0276983213, -0.0415819399, 0.0577688850, -0.0582811609, -0.0295533165, -0.0750137269, -0.0820170268, 0.0347158052, -0.0148164043, 0.0158697218, 0.0114578111, 0.0891258344, 0.0548883379, -0.0887433812, 0.0456264280, 0.1134946644, 0.0205819793, -0.0175443944, -0.1944117993, 0.0252241548, -0.0795776546, -0.0263796952, -0.0025283399, -0.0087762075, 0.0810422376, -0.1771982461, -0.0000080689, 0.0021641061, -0.0763315558, 0.0208472572, 0.1141852736, -0.1066945121, 0.0066746967, 0.0213978346, -0.0943868235, -0.1690138429, -0.1256249249, 0.0366588496, -0.0070196912, -0.0306134075, 0.0437292345, -0.1147494391, -0.1339242309, 0.1323237866, -0.0277676992, -0.1080411971, -0.0720509738, -0.1096607223, -0.1256702840, -0.0074580829, -0.0401909128, 0.0191974100, -0.0515504368, -0.1445682794, -0.0511360504, -0.0044351378, -0.0922705159, -0.0425633006, -0.0190788377, -0.0003367054, -0.1349783838, -0.0449398160, -0.0921258554, -0.1206904799, -0.1315065771, 0.0562806688, -0.1450717896, -0.0112289237, -0.0660586059, -0.0911291465, 0.0643332601, -0.0804504305, 0.0341444574, 0.0172373373, -0.0492086746, -0.0711236820, -0.0579239205, -0.0140477726, -0.0646933988, -0.0248557460, -0.0228307359, -0.0138779292, -0.1273275316, -0.0862397030, 0.0050659175, -0.0355604701, -0.0178656355, -0.0455645025, -0.0484672152, -0.0753623918, -0.0634660795, -0.0503015928, -0.0443170965, -0.0207812283, 0.0424917340, -0.0687523708, -0.0164399352, -0.0623893067, -0.0657136887, -0.0462804958, -0.0897385329, -0.0058817742, -0.0730183199, 0.0478124693, -0.0007090161, -0.1033435315, -0.0703868791, 0.0153501388, 0.0260091554, 0.0734797269, -0.0797300339, -0.0429660156, -0.0029910894, -0.0154900346, 0.0644689798, -0.0540231578, -0.1820352823, -0.0792190284, -0.0420896113, -0.1148720458, -0.1387817264, -0.3201947510, -0.0681478977, -0.0349665396, -0.0351164229, -0.1147558689, -0.0805939510, -0.0840444043, -0.0799427405, 0.0236180760, -0.1665173024, 0.0853516012, -0.0036147393, 0.0792507976, 0.0652336329, 0.0284828059, 0.0080194650, 0.0141797978, -0.0890970156, -0.1014256999, -0.1063377336, -0.0127298469, 0.0139384009, -0.1297967285, -0.0637239143, -0.0033325674, 0.0807045028, -0.0026071586, -0.0295471493, -0.0015627060, -0.0259713344, -0.0485379845, -0.0240449682, -0.1148611009, 0.0144974897, 0.0349429138, -0.0982589722, -0.0609882176, 0.0022588293, -0.0571270846, -0.0454362817, 0.0101051610, -0.0752622485, 0.0222812500, -0.0052062743, -0.0225631241, -0.0589337572, 0.0949094072, 0.0559049584, -0.0345284753, -0.0256180577, 0.0183218997, 0.0721208230, 0.0129706757, -0.0602792464, -0.1067396477, -0.0407197513, 0.1000365838, 0.1096941978, -0.0134336362, 0.0724176988, -0.1585149318, 0.0007291383, 0.1378184855, 0.0533414036, -0.0369359702, 0.0551701523, 0.1811508387, 0.0827561021, -0.0937823504, 0.0721221715, -0.0227053668, -0.0231818892, -0.0010727760, 0.0673907101, 0.0580759495, 0.0314746648, 0.1146817505, -0.0702804476, 0.1127090454, 0.0257921573, 0.1414638907, 0.0723025203, -0.0150546459, 0.0299557485, -0.0460278764, -0.0699730515, -0.0378117934, 0.1806389689, -0.0147510078, 0.1138064265, -0.0868426114, 0.1718347222, 0.0951600149, 0.0906829014, 0.0900948122, 0.2823511660, 0.0548276417, -0.0378680602, 0.0204303507, 0.0085108709, -0.0038433208, 0.1749252975, 0.0469331034, -0.0010096298, -0.0565197840, 0.0221918114, 0.0239871852, 0.0280482005, -0.0577382632, 0.0395651311, -0.0066664284, 0.0285496823, -0.0105127431, 0.0976288393, 0.1992389113, 0.1174108684, 0.0290871635, -0.0787366033, 0.0471256450, 0.0187986605, -0.0158398356, 0.0982110202, 0.0646665618, 0.0271486863, 0.0079883318, 0.0424778759, 0.0689895451, 0.0328788683, 0.0803718716, -0.0289957337, 0.0163186621, 0.0147835463, -0.0017231909, 0.0248473678, -0.0469189845, -0.0137751354, -0.0432636775, 0.1008902565, -0.0606690980, 0.0059540151, -0.0164305288, 0.0059238942, 0.0111343749, -0.0794586912, 0.0090361759, -0.0670888200, 0.0024499181, -0.0637710467, 0.0346419550, -0.0446368195, -0.0186647698, 0.0362267941, 0.0582646653, 0.1059812382, 0.0266330838, 0.0523272231, -0.0435902327, 0.1019914299, 0.0100051230, -0.0982756317, 0.0126594817, -0.0237608738, 0.1264009923, 0.0894544944, -0.0099561187, -0.0473298021, 0.0293543935, 0.0119409598, -0.0184472650, -0.0160490740, 0.0054335026, 0.0861456394, -0.0165709537, -0.0077005690, 0.0574171171, -0.0795253515, 0.0764246210, -0.0143202767, -0.0538007356, 0.1162369996, -0.0015589240, -0.0558890961, 0.0188648347, 0.1786694676, -0.0447857790, 0.0923692435, 0.0083870832, 0.1776361763, 0.1176617071, 0.0681077689, -0.0836464986, 0.2563396692, 0.0521282367, -0.0140451640, 0.1276487112, 0.0871006325, 0.0230857637, 0.1784788221, 0.1113623828, 0.0239663869, 0.0088830600, 0.0909647197, -0.0341194831, 0.0118095260, -0.0206208602, -0.0321013741, -0.0410110652, 0.0244359039, -0.0640140176, 0.1184143350, 0.0807646587, 0.1545947045, -0.1013802290, 0.0281908736, 0.0648203418, 0.1447511613, -0.0332397260, 0.1531752050, -0.0148288235, 0.2613551319, 0.0805330575, 0.2072676420, 0.0098223733, 0.1482284814, 0.0686642006, 0.0614336655, 0.3777863681, 0.1593126804, 0.0026688718, 0.0531340279, -0.0534569398, 0.1082712933, -0.0455815233, 0.1295061111, -0.0779331326, 0.1503113955, -0.0044252253, -0.0303947516, 0.0353682935, 0.0308000054, 0.0194136128, -0.0368316881, 0.1868923753, 0.2309879810, -0.0118106566, -0.0500503182, -0.0288966298, 0.3035304248, -0.0671055317, 0.1241445914, 0.0356705710, 0.0514582209, -0.0812958777, 0.0587652028, 0.0294813551, -0.0270765685, -0.1163056344, -0.0320537463, 0.2305928022, 0.2071221918, -0.0227778573, 0.0361682028, -0.1052209064, 0.0649303421, -0.0735838115, -0.0558546223, -0.0401868075, 0.1044813767, -0.0165042579, -0.0617473833, -0.0368052348, 0.0452141240, -0.0643977299, -0.0319208801, 0.0958584175, 0.0506056547, -0.0403684750, 0.0111319488, -0.1087939814, 0.0972318053, -0.0180310123, -0.0167704821, -0.0276181698, 0.2096828520, 0.1586522758, 0.0253747310, 0.1039070934, 0.2623355091, 0.1232341975, 0.0857614428, 0.1513201445, 0.1099247932, -0.0472337976, 0.0811719969, 0.0340477042, -0.0020243966, 0.0461002216, 0.1393282562, 0.0215346273, 0.0193829518, 0.1013342291, 0.0248795468, 0.0647193864, -0.0149656460, 0.0396331362, 0.0868214369, 0.2098913640, 0.1957120299, 0.0024919864, -0.0263269972, 0.0742378235, 0.1454764009, 0.0427152738, 0.0606968403, 0.0518307909, 0.1250501871, 0.0984459966, 0.1198872924, 0.0112584978, 0.0869470686, 0.0936892778, 0.0495580919, 0.1451332718, 0.0603290759, 0.1052239016, 0.0229020156, -0.0251384526, 0.0923591703, -0.0169880018, 0.0133960415, 0.0148556614, 0.1023284495, 0.0344595611, -0.0579054467, 0.0134518705, 0.0467910655, -0.0480034389, -0.0105665419, 0.0321745239, 0.1648129970, -0.0037869452, -0.0534953177, -0.0329236612, 0.1414946169, -0.0556731671, -0.0581801422, 0.0023537145, 0.0309401881, -0.0723708272, 0.0502425842, -0.0700437203, 0.1155909523, 0.0918647349, 0.0223298240, 0.1387418807, 0.0607856810, -0.0465493724, 0.0349848010, 0.0408860557, 0.1279316247, 0.0361381471, 0.0102854623, -0.0113722980, -0.0766364783, 0.1230036840, -0.0114259431, 0.0123194130, 0.0534464791, 0.0153165534, -0.0493302383, 0.0987238586, 0.1451587826, -0.0637946129, 0.0630107820, 0.0185697842, 0.0771407709, 0.0158875585, 0.1099431738, -0.0265334062, -0.1418885887, -0.0010397163, -0.0864764303, -0.1349756122, -0.0125445575, -0.0390242375, -0.0167190582, -0.0704448447, -0.0203408338, -0.0276635047, -0.0026830998, -0.1007983387, -0.0334907994, -0.0367948301, -0.0173182841, -0.0522639900, -0.0265008900, -0.0374093838, -0.0254515745, -0.0729074255, 0.0454811603, -0.0977825075, 0.0475106165, 0.0543479733, 0.0208265781, 0.0251068324, -0.0463472903, -0.0041960534, -0.0547515154, -0.0313749239, -0.0138522536, 0.0614765808, -0.0158819295, -0.0587480217, 0.0171849523, 0.0063441573, -0.0896978229, 0.0048053297, -0.0123425554, -0.1084860787, -0.0275858101, -0.0410373062, -0.0197721291, -0.0592364743, -0.0008643880, 0.0094856862, -0.1717324108, 0.0476796776, -0.0736017227, 0.0198237430, 0.0238490067, 0.0597174466, -0.0439461097, -0.0193765182, -0.0475020744, 0.0404278301, -0.0201596208, -0.0744630247, 0.0637783110, -0.0567698665, -0.0108401719, 0.0103195673, 0.0279923622, 0.0007279180, 0.0256980080, -0.0170698483, -0.0349314213, 0.0118266772, -0.0481528491, -0.1075402126, -0.0671421289, 0.0401803069, 0.0005005077, -0.1423855871, -0.0191486739, -0.0440496765, -0.0156536829, 0.0260252133, -0.0383739099, 0.0401438847, 0.0014101258, -0.0235333201, -0.0066173864, 0.0270449072, -0.0606452115, -0.0761334673, -0.0950166360, -0.0002743070, 0.0340739042, 0.0456331000, -0.0653313696, -0.0459580235, 0.0172159392, -0.0173850060, 0.1532437950, 0.0046666930, 0.2276440859, 0.1131566241, 0.1804097891, 0.0468759239, 0.0504283644, 0.0239743125, -0.0286350492, 0.1133401543, 0.0584934615, -0.1132965311, 0.1154386625, 0.0720735118, 0.0346857496, -0.0273982864, 0.0564477295, 0.1032225788, -0.0081512816, -0.0733540952, -0.0508942343, 0.0052265651, -0.0380841009, 0.1250800639, -0.0635773987, 0.2132707238, 0.1438410133, -0.0009158585, 0.0133708473, -0.1323560774, 0.1663226187, -0.0034785261, 0.1693829596, -0.0639580339, 0.1688676029, -0.0331359580, 0.2194661945, 0.1086267903, 0.0420064852, -0.0046828007, 0.0001906064, 0.1736151874, 0.1488429606, -0.0027185667, 0.0335446261, 0.1143265665, 0.0600529313, -0.0239442699, 0.0118393349, 0.0490476973, 0.1784576029, -0.0549065955, -0.0718269572, 0.0954599828, 0.0812383369, 0.1039295048, 0.1017170176, 0.0587638877, 0.2138700038, 0.0119048869, -0.0089310491, -0.0091787428, 0.2546523511, 0.0363610834, -0.0435788818, 0.1122846752, -0.1478653252, -0.2568929493, -0.0403575860, -0.0592296384, -0.1377712339, 0.0971540436, 0.0896927863, -0.0394762382, -0.0074604885, 0.0910768285, -0.1138339341, -0.0840818360, -0.1349565089, 0.1726860106, -0.1057204008, -0.0174689833, 0.0672468990, 0.0107010687, 0.0029734529, 0.0335605033, 0.0261018425, -0.0156773366, 0.0942500457, -0.1655203700, -0.1348908097, -0.0603477471, -0.0001768308, -0.2382257879, -0.0974216759, -0.0161682721, -0.1705523729, 0.0695660859, -0.1048079282, 0.1129012108, -0.0887542665, -0.1641657799, -0.0677393004, 0.0787097737, 0.1503613144, -0.0512515791, -0.0946368873, 0.1480520070, -0.0790642649, 0.0456785224, 0.0226354375, 0.0874075815, 0.0044900719, -0.1423077732, -0.0496401712, -0.0683484450, -0.0081981644, 0.0518766083, -0.0821876675, -0.0050565470, 0.0545174107, -0.0607950315, 0.0090357903, -0.0041019544, 0.0808461681, 0.0742447078, -0.1723869443, 0.0973415822, 0.0070381858, 0.0990643948, -0.1219453588, -0.0778663307, -0.0954865441, 0.0711572841, -0.0396799482, -0.1669911295, -0.0433564335, -0.2059388906, -0.1130568534, -0.0987995788, -0.0378598087, 0.0625945181, -0.0359041356, -0.0228054244, -0.0660026073, 0.0921572521, -0.0552135073, -0.0460661799, -0.0640602335, 0.0061260136, -0.0199421775, 0.1255151182, -0.0747391731, -0.0678579733, -0.0426339731, -0.0461605340, 0.0652579442, -0.0334237218, -0.0143417101, 0.0730019659, -0.1954599321, 0.0988789126, -0.0636838004, -0.2414730787, -0.0621581450, 0.0567881800, -0.0701214001, -0.0378002897, 0.1240141243, -0.1889332831, -0.0005006650, 0.0258868970, -0.1209940314, -0.0333996043, -0.1627501100, 0.1354052722, -0.0522700250, -0.0008124518, -0.0232105907, -0.0541615412, -0.0762731731, 0.0159078408, -0.0387495533, 0.1082757264, -0.0181508828, -0.2167568952, -0.0333822183, -0.0919480100, 0.0287832320, -0.1058129892, -0.1496199667, 0.0231122617, -0.1368241608, 0.1166845411, -0.1968397498, -0.0980095118, -0.0988125578, 0.0498525128, -0.0959872901, -0.0305865966, 0.0138860419, -0.0018204153, -0.0264621377, 0.0355956107, -0.1478227526, -0.0480424874, -0.1361173540, -0.0220825206, -0.2162565887, 0.0547289178, -0.0220943727, 0.1201867983, 0.0389905274, 0.0453150049, -0.0591856167, 0.0963392332, 0.0305624735, -0.1364974976, -0.1891160309, -0.0323349200, 0.0736833364, 0.0109752603, -0.0803096592, -0.0500157401, -0.1094037741, 0.1349630952, -0.1730438173, 0.0465717167, -0.1368568093, -0.0485105440, -0.2116152644, 0.0204261113, 0.0046843570, -0.1648858637, -0.0020245339, -0.0431922674, 0.0140720410, 0.0292859264, -0.0266588572, 0.0890620351, -0.2319461852, -0.0537109822, -0.1202959940, -0.0268673189, -0.0014897855, 0.0560022481, -0.0835923329, -0.0988008529, -0.0589611903, -0.1796281338, -0.1583754420, 0.0996359587, 0.0083753644, -0.2358369380, -0.1349737495, 0.0182895847, -0.0227068923, 0.1549325436, -0.1596669555, -0.0437945873, -0.1463528275, -0.0974069014, -0.0493217297, -0.0197051819, 0.0355263911, -0.1585363746, -0.0345623307, 0.0846341178, -0.0509397499, 0.0861331299, -0.0317424908, 0.0634634346, -0.1127950177, -0.0428506508, -0.1342150420, 0.0802556649, 0.0703443587, 0.1046188697, -0.0106812855, -0.0129404366, 0.0785054117, -0.0732372403, -0.0827660114, 0.0237725247, 0.0786738321, -0.0157062653, -0.0490312204, -0.0305991638, 0.0854129791, -0.0144096753, -0.0588319711, -0.0796491429, -0.0551673509, -0.0319104716, -0.2493839562, 0.0265439302, -0.0075963703, -0.1532442123, 0.0117078330, 0.0122853862, -0.1292313784, 0.0273764208, -0.1692139506, 0.0303095784, 0.0491940379, 0.0869468302, -0.0268692002, 0.0060034334, -0.0724618137, 0.0164907053, 0.0676930174, -0.0696996301, 0.0696160793, -0.1472242922, -0.1792482585, 0.0620660707, -0.0110392729, -0.0911061540, -0.1253308505, -0.0216343869, -0.1483883113, 0.2262961566, -0.0391347781, -0.2416983694, 0.0601630956, 0.0673060566, -0.0911620110, 0.0698198676, 0.0354391523, 0.0058915471, 0.0050102333, 0.0410899110, -0.0582291596, 0.0323265269, 0.0102424165, -0.0106130745, -0.0929627493, -0.1240277961, -0.0415768549, 0.0610440224, 0.0329921879, 0.0236810632, 0.0576541573, 0.0640836358, -0.0380140580, -0.0559815280, -0.0917779058, -0.0391677730, -0.0755973160, -0.0279913638, -0.1420233548, 0.0295439065, -0.1195626557, 0.0577769466, -0.0953368172, -0.2591486573, 0.0614856221, 0.0271531437, 0.0174910855, 0.0301747061, 0.0868694112, -0.0164806098, -0.0560544282, -0.0420682691, -0.1283728182, -0.0764043778, -0.0988024175, 0.0726716593, -0.0470483862, -0.0391976088, 0.0047862423, 0.0448630303, 0.0222019628, 0.0726780593, 0.0210530628, -0.0694589093, -0.0058836318, 0.0207603108, -0.1325975806, -0.0836260766, 0.0449231565, -0.0518899448, -0.0693069249, -0.0137843089, -0.0018336034, -0.0279771611, -0.1389757246, 0.0748104230, -0.0853000432, 0.0056610894, -0.0305961818, 0.0337007865, 0.0902651474, -0.1601421386, -0.0515373088, 0.0466617681, -0.0407814272, 0.0128181390, -0.0216670465, 0.0775706097, -0.0940522850, -0.0940145999, -0.1085549593, 0.1209091321, -0.0754752234, -0.0219283663, -0.0631952137, 0.0084210569, 0.0530784577, -0.1310218126, 0.0004976529, 0.0518967509, 0.0231244285, 0.0935841650, -0.0476673096, 0.0856031775, 0.0277432390, 0.0636655986, -0.1171060205, -0.0441848822, 0.0061718058, 0.0365736522, -0.0744479820, -0.0644670874, -0.0540696904, -0.0687873065, -0.0869312212, 0.0706180260, -0.0773704648, 0.0687197745, -0.0937244222, 0.0683273152, -0.0210424215, 0.0446301848, -0.0414380915, -0.0914348364, -0.0316747874, 0.0810626000, -0.0475796722, -0.0346364155, -0.0128767164, -0.1055224240, -0.0748778209, -0.0250400174, 0.0805983394, -0.0812468752, 0.0247769263, 0.0323931389, 0.0323857814, -0.0282064117, 0.0288940035, -0.1296755522, -0.0987856612, 0.0401294231, -0.0771541670, 0.0375157632, 0.0266312212, -0.0452200510, -0.0402224325, -0.0769570246, -0.1390835792, -0.1237471551, 0.0407267734, 0.0736071691, -0.0221507158, -0.1043598056, 0.0263116285, -0.0447426140, 0.0275127254, -0.0094708456, -0.0127984518, -0.0672579259, -0.0169113539, -0.0879423916, -0.0930596963, -0.0207509417, -0.0557797626, 0.0021248271, -0.1065551564, 0.0469683222, -0.0122391554, 0.0842849314, -0.0980518907, -0.0628287047, -0.0221436247, -0.0647950321, 0.0029213484, -0.0279039033, 0.0875967592, -0.1044843942, -0.1010682136, 0.0370596237, -0.0448635742, 0.0448659882, 0.0586987324, 0.0761791244, -0.0833434090, 0.0153207043, -0.1317525357, 0.0618863776, 0.0403502472, 0.0933195055, 0.0460699946, -0.0223572254, 0.0251804553, 0.0051475526, -0.0760691017, -0.1027767062, -0.0021127174, -0.0287411138, -0.1441253573, 0.0994479284, -0.0509800017, 0.0237148590, -0.1430947781, -0.0530742444, -0.1034200341, 0.0377431661, -0.1292256415, -0.1634289473, 0.0574778132, -0.0996083245, -0.0710870549, -0.1360440701, -0.0855875090, -0.0772151127, 0.0021791612, 0.0641132668, -0.1498527080, 0.0780091658, -0.0474901497, -0.1158378944, -0.0667495877, -0.0073215039, 0.0545297079, 0.0000815573, -0.0860788673, -0.0114488760, -0.0453272723, 0.1180492565, 0.0601094440, 0.0030747883, -0.1012716070, 0.0972605497, 0.0199516546, -0.0129027674, -0.1054749265, -0.0232787058, -0.1251220852, -0.0062296521, -0.0864999220, -0.0517460406, 0.0232709236, -0.0377845168, -0.0371632800, -0.0496907830, 0.0302287005, 0.0185026117, 0.0350109823, 0.0704962909, -0.0387967639, -0.0920231566, 0.0261209887, -0.0171968043, 0.0748068020, -0.0460234880, 0.0032546711, -0.0786400661, 0.0161502454, -0.0571622178, -0.1558640748, 0.0712036863, 0.0565126352, 0.0268402044, -0.1439433843, -0.0243382454, -0.0613423064, -0.0450151190, -0.1272685081, -0.1558625549, -0.0044170767, 0.0036916395, -0.2335853130, 0.0418771878, 0.0999355465, -0.1720215231, -0.0156006692, 0.0204341523, -0.0799447298, 0.0005834291, 0.0468458086, 0.0765614584, 0.0183977969, -0.1278502196, -0.0258926265, 0.0154332183, -0.0711909235, -0.0465439670, -0.0352349840, -0.0539978743, 0.0537613593, -0.1228826717, -0.0339382291, -0.0548159145, -0.0582033098, -0.0558816083, -0.1925739199, -0.0506544560, -0.0702095255, 0.1262132525, 0.0311521515, 0.0162677597, -0.0103744650, -0.0264115036, 0.0405047610, -0.0353135429, -0.0362545662, -0.1083614901, 0.0003574668, -0.0191091876, 0.0123234671, 0.0420890860, -0.0220482238, -0.0329106711, 0.0267572086, -0.0144604454, 0.0159138758, 0.0515357926, -0.0729633942, 0.0631163120, -0.0232686028, -0.0698004887, 0.0200720131, 0.0361512750, -0.0017668937, 0.0268423427, 0.0599111207, 0.0750469863, -0.0861935094, 0.0295975003, 0.0357087664, -0.0356933549, 0.1449846029, -0.0388392583, 0.0489349104, 0.0273515545, 0.1685437858, 0.0439134762, 0.0872237161, 0.0979423970, 0.0754289478, -0.0154175274, 0.1307679117, -0.0392667316, 0.0301793050, -0.0366178006, 0.1879211515, -0.0842996985, -0.0602234825, 0.0141344257, 0.0747266114, -0.0772520751, -0.0497356802, 0.0834180936, 0.0513371415, 0.1590521336, 0.1861717701, 0.0420115665, 0.0362407789, -0.0236503202, 0.1399655491, 0.0376278907, 0.0581666417, -0.0731766224, -0.0757603049, -0.0463726744, -0.0194748528, -0.0778920799, 0.1184734404, -0.1298281252, -0.0266234595, -0.0901002139, -0.0288893860, -0.0396069437, 0.1275219321, -0.0298385043, 0.0396965034, 0.0147734368, 0.0033932833, 0.0191327725, -0.0552653074, -0.0270149838, 0.0396531187, -0.0013767509, -0.0399821177, -0.0899739563, 0.0190633722, 0.1347693652, 0.0110596558, -0.0507512279, -0.0819008648, 0.0028770966, 0.0170126669, -0.0594648570, -0.0918285623, -0.0968399048, -0.0307996776, -0.1233973131, -0.0179753806, -0.0683476776, -0.0378239229, 0.0114101535, 0.0550941601, -0.1049455628, -0.0768595114, -0.0568471774, -0.0369746648, -0.0657307431, 0.0275015496, -0.0309603140, -0.1252401024, -0.0531759821, -0.0214670468, 0.0769035742, 0.0185815543, 0.0235863533, 0.0525788143, -0.0778965428, -0.0338804387, 0.0217462685, -0.0551093146, -0.0708829612, -0.0745007172, -0.1124016419, -0.0518372953, 0.0010966703, 0.0052802414, 0.0279269423, -0.0252382476, -0.0423169471, 0.0656583384, -0.0264683627, -0.0878856033, -0.0297658779, 0.0051818020, 0.1888027638, 0.0482847877, 0.0141810989, -0.1189770475, 0.0166828353, -0.0632983372, 0.0522382110, -0.1238598377, 0.0331759565, -0.0486560725, 0.1760917753, -0.0088290889, 0.0811761245, 0.0236738920, 0.0427492708, -0.0186199229, -0.0031114563, 0.0291975420, 0.0585315302, -0.0209758859, -0.1390546560, 0.0225223582, 0.0400650725, 0.0792460740, -0.0758840144, 0.1848393977, 0.1233415976, 0.1423223466, 0.0693281814, 0.0625305474, 0.0061913407, 0.0208568890, 0.1397316009, 0.0629389212, 0.0271392260, 0.0790904984, 0.0401025303, 0.0299860053, -0.0137917576, 0.0964501426, 0.0059510483, 0.0952453688, 0.0250130594, 0.0315937437, -0.0303348359, -0.0046665892, 0.0550531670, 0.0501390025, 0.2376989424, 0.1649308205, -0.0768582895, 0.0538823828, 0.0741582215, 0.0479980335, 0.0340708792, -0.1551648229, -0.0502014048, -0.0053442973, -0.0694160685, -0.0081808679, 0.0705179274, 0.0423214398, -0.0335919671, 0.0079660052, -0.0726698115, -0.1147128567, -0.0509695783, 0.0941077471, -0.0696055591, 0.0378154553, 0.0558619574, 0.0755122751, 0.0706472322, 0.0503006503, 0.0414539613, 0.0461425036, 0.0606970228, 0.0599316433, 0.0066090128, 0.0337293148, 0.0631641969, -0.0259935297, 0.0610983595, 0.0503733009, -0.0091104507, -0.0151651613, 0.0403352305, 0.0677573085, 0.0827293843, 0.0634379908, 0.0000087865, -0.0773492903, -0.0216525812, 0.0065543791, 0.0357521251, -0.0420359857, -0.0135511486, 0.0007018380, -0.0412335880, 0.0428038724, -0.0852307379, -0.0252924375, 0.0308046509, -0.0727706105, -0.0570965633, -0.0783305839, 0.0917579681, 0.0102463467, -0.0717231408, 0.0532053262, -0.0254142918, -0.0464639030, -0.0358868986, -0.0905760452, -0.0052087661, -0.0000872655, 0.0101944348, 0.0399111807, -0.0245524943, 0.1363479048, -0.0386801511, 0.0706685483, -0.0328854136, 0.1018784419, 0.0891503841, 0.0652435124, 0.0568733178, 0.0291637164, 0.0543917157, 0.0280691478, 0.0864945129, 0.0072898953, 0.0081241345, 0.0498877428, 0.0311364383, 0.0255958121, 0.0426067039, 0.0816535503, -0.0803318769, -0.0401870944, 0.0335625745, 0.0572175309, 0.0376627147, -0.0218964275, 0.1045871302, 0.1669005752, 0.0451393612, 0.0772023872, 0.1498848796, 0.1844963431, 0.0290252361, 0.0560983308, -0.0401298888, 0.2213823646, 0.0637137145, 0.2137359977, 0.0705508664, 0.1577812135, 0.0990540311, -0.0451788642, 0.1521246135, 0.1445056647, 0.0337212496, 0.1291882992, -0.0621358976, 0.0352266580, -0.0552577451, 0.0995058268, -0.0893671215, 0.0970898569, -0.1169689745, 0.0593533367, -0.0275273137, 0.0413509943, -0.0075825281, 0.0734937266, 0.1356743127, 0.1955229491, -0.0873250514, 0.0584522784, 0.0552163757, 0.2192635089, 0.0422210172, 0.1224715933, -0.0109611088, 0.1637525260, -0.0825463831, 0.0007315000, 0.0543876700, 0.0603026375, -0.0590203740, -0.0474021845, 0.0564160720, 0.0954304785, -0.0416425243, 0.0552932993, 0.0092237052, 0.0245058257, 0.0271380395, 0.0765669271, -0.0444495827, 0.0021466040, 0.0838960186, -0.0621063560, 0.0047836346, 0.0414175764, 0.0134884082, 0.0363947377, 0.0590501465, 0.0831527486, 0.0754339024, -0.0496607311, -0.0640750304, 0.2161161005, 0.0322897770, 0.0942086354, -0.0535419621, 0.1193108931, 0.0502085909, 0.1255063415, 0.0648785532, 0.1014510915, -0.0459982902, 0.0038228978, 0.0917391106, -0.0023370942, 0.0558642484, 0.0399747305, -0.0796914175, 0.0422057286, -0.0375683196, 0.0158349201, -0.0117976330, 0.0303050522, -0.0975637808, -0.0064173294, -0.0023017824, -0.0088483430, -0.0533380955, 0.0851008892, 0.0622272193, 0.1687839329, 0.0146389632, -0.0802862868, 0.0942089483, 0.0053725364, -0.0610454530, 0.0316827781, 0.0360788889, 0.0061659869, 0.0372183137, -0.0080372794, -0.0018814546, -0.0295908544, -0.0629969537, 0.0378873944, 0.0739442036, -0.0662945807, -0.0301131047, -0.0289074928, -0.0822466090, 0.0587145947, 0.0078771403, -0.0711421892, -0.0425833240, -0.1290168911, 0.0798393041, 0.0172498599, -0.0457258970, -0.0737210587, -0.0134330261, 0.0237347875, 0.0692357048, -0.0393829830, -0.0446950346, -0.0790838003, -0.0510234274, -0.0300985295, 0.0009563027, 0.0994622558, -0.0339391194, 0.0405352563, 0.0585134476, 0.1403419077, -0.0564858839, -0.0261787456, 0.0340167582, 0.0772263855, 0.2078791261, 0.0764526799, -0.0606891960, -0.0201309863, -0.0104987854, -0.0505754836, -0.0039530657, 0.1032593474, 0.0142550720, 0.0612603575, 0.0491085835, 0.0442369357, 0.0067310589, 0.0667494908, 0.0175547320, -0.0195781961, 0.0223732442, 0.0514801778, 0.0646043569, 0.0121404026, -0.0191810783, 0.2204785645, -0.0121610723, -0.0245610252, 0.0531397425, 0.0662503242, 0.0174224395, 0.0450529307, 0.0333588533, 0.0671525821, -0.0432110801, -0.1063360199, -0.0649623200, -0.0334651209, -0.0802953616, 0.0005231860, 0.0631324276, -0.0402775705, 0.0152423829, 0.0622192025, 0.0817204043, -0.0428409465, -0.0104240859, -0.0495411530, 0.0251209196, 0.0452226363, -0.0526965745, -0.0866803378, 0.2026253939, 0.1409690380, 0.0456082970, 0.0492361411, 0.0383777618, -0.0434417166, 0.0060588587, -0.0358683802, 0.0048909746, -0.0098437443, -0.0020538429, 0.0201079566, 0.0410027690, -0.0283091925, -0.1034253165, -0.0433770455, -0.0152048590, -0.0026143042, 0.0648336187, -0.0421764031, 0.0213597976, -0.0622244217, -0.0243780855, 0.0759285912, -0.0581033975, -0.0269482471, -0.0394112729, -0.0178501252, 0.0322917476, -0.0514289737, 0.0062738569, 0.0620275624, -0.0918711647, 0.0172529817, 0.1006025150, -0.0252874587, -0.0295362882, 0.0953201950, 0.0652179867, 0.1262185425, -0.0485504605, 0.1187563017, 0.1133891270, 0.1014287099, -0.0236459039, 0.1107123122, 0.0702382177, -0.0030973104, 0.1781810373, 0.0553987995, -0.0232599154, 0.0403930061, 0.0476095192, 0.0534015782, -0.0420531034, 0.1232874393, 0.0108677940, 0.0121659813, 0.1089362800, 0.0546674319, 0.0013632664, -0.0544844791, 0.0951463282, 0.0013446520, 0.0214887839, 0.1374887824, -0.0459753834, -0.0772261545, 0.0673794895, 0.1971557587, 0.0455976650, 0.0422497578, 0.0648298040, 0.0206056572, 0.0820536464, -0.0149873262, 0.0368629731, 0.1778578460, -0.0611917898, 0.0286896769, 0.0811300799, -0.0725662783, 0.0887151361, 0.1499577910, -0.0379445851, 0.0815362409, -0.0638161376, 0.0946836099, -0.0678416416, 0.0555940568, -0.1249547377, 0.0233466849, -0.0115552312, -0.0820556805, 0.0754707381, 0.0525212996, 0.1457886100, 0.0354016647, -0.1092613488, -0.0602053218, 0.0868531764, 0.0121559026, -0.0211926512, 0.1055324599, -0.0660896972, 0.1187354401, -0.0067436825, 0.0889979973, 0.1036917418, 0.0764463842, 0.0822290257, 0.0079451269, 0.2452799082, 0.1699892431, -0.0066633243, -0.0022988366, 0.0180980656, 0.0341136530, -0.0000973667, 0.1205533370, -0.0690605193, 0.0941044688, -0.0399836116, 0.0757023916, -0.0171951298, 0.0567768104, 0.0302364733, 0.1142012477, 0.0519506261, 0.1013512090, -0.0145883318, 0.0527305752, -0.0081580710, 0.1912198067, -0.0570499822, 0.0687160790, 0.0012378601, 0.2320894599, 0.0803330317, 0.1559542567, 0.0261779483, 0.1198678985, 0.0366003253, -0.0191411637, 0.1769492179, 0.1492464989, 0.0005307418, 0.0419402532, -0.0390515924, -0.0401983261, -0.0607317537, 0.1699011922, -0.0122645050, 0.0077284235, 0.0122040678, 0.0658753961, 0.0698115900, -0.0698207468, 0.0082081612, 0.0134717962, 0.0796341822, 0.1420231462, -0.0336059108, 0.0330270529, -0.0902227759, 0.2081865221, -0.0316187963, 0.0176653266, -0.0366314650, 0.1603800803, 0.0327795446, 0.0523737669, 0.0908788145, 0.1751111448, -0.0086827436, 0.0082860943, 0.1155437306, 0.1035069600, 0.0389550403, 0.2150168121, 0.0341102965, 0.1337135136, 0.0157325752, 0.1224127486, 0.0287721325, 0.1272586584, -0.0433333591, -0.0409340523, -0.0683585331, -0.0358601622, 0.0550481640, 0.0316492319, 0.0905727223, 0.1182155982, 0.0411629826, 0.0357412994, 0.1338711679, 0.1158987060, 0.0147459647, -0.1643245071, -0.0697841793, 0.0206120070, 0.0275793448, 0.0214993861, 0.0305672418, 0.0329609178, -0.1378646642, 0.0321324691, -0.0533998907, -0.0418715663, -0.0140719563, 0.0392420180, -0.0675486997, -0.0756067932, 0.0544893257, -0.0880984515, -0.0916850418, -0.0966046751, -0.0198408011, -0.0069552297, -0.0278179143, 0.0213545132, -0.1332309991, -0.1508745253, 0.1136130616, 0.0154637909, 0.0785707012, 0.0374399796, -0.1249200851, -0.0962116271, -0.0508149862, -0.0448007435, -0.0752013698, -0.0154622700, -0.0588080101, -0.0420049429, -0.0254698303, 0.0766052306, -0.0463805348, -0.0849524662, -0.1273811162, -0.1675453484, -0.0418254957, -0.0419950485, -0.0225488972, -0.1000049412, -0.0145872394, -0.0176201575, -0.0327101499, -0.0793133527, 0.1239940897, 0.0712786764, -0.0153040104, -0.0530911162, -0.1241199672, -0.0997829437, -0.0014075848, -0.0727026612, 0.0018561265, 0.0332682282, -0.0128435539, -0.0452794395, 0.0346431844, 0.1629602015, 0.0239918362, 0.1198675781, -0.0394740552, 0.1597467363, 0.1226045117, 0.0444800854, -0.0134413652, 0.0510933660, 0.1112076342, 0.0726501718, -0.0813840404, 0.0719825327, 0.0612036511, -0.0176255964, -0.0056058271, 0.1364201903, 0.1409140676, 0.0217458773, -0.1217097193, 0.0494585708, 0.0133635364, 0.0297154449, 0.0564326867, 0.0466735698, 0.1193866953, 0.1909894645, 0.0206364263, 0.0799519196, -0.1161280647, 0.1581299454, 0.0579168759, 0.0299968868, -0.0491262339, 0.2083740979, 0.1541192681, 0.0841327757, -0.0098063350, 0.2260369211, -0.0205644816, 0.0387723371, -0.0687506348, -0.1068484709, 0.0813642666, 0.1272287220, 0.0201585870, 0.1269620210, 0.0015209384, 0.1133543253, 0.0644993857, 0.0273950715, 0.0960481167, -0.0572287627, 0.0580622181, -0.0594306178, -0.0426866710, -0.0836048052, 0.1341653913, 0.0870055929, 0.0614046082, -0.0575648248, -0.0046892427, -0.0037629143, -0.0408648588, 0.0233033262, -0.0983769894, 0.0934669971, -0.0822309926, 0.0400949270, -0.0075324229, -0.0852442011, -0.1010255888, -0.0257055517, 0.0016701331, -0.0250816420, -0.0151613150, -0.1030537710, -0.1012923419, -0.0719203800, 0.0105834929, 0.0021837784, -0.0361212380, 0.0882538334, -0.0033435528, 0.0009524887, 0.0170857552, 0.0639406294, 0.0086607644, 0.0073559205, 0.0188917574, -0.0303478017, -0.0446222164, -0.0744555667, -0.1255931556, -0.0750458315, 0.0259926058, 0.1648922116, 0.0892336667, 0.1237249821, -0.0604112223, 0.0227801148, 0.0519723669, 0.0025920488, -0.0509696677, 0.0708766729, 0.0721198544, 0.1207648665, -0.0446187817, 0.1303334981, -0.0153367501, -0.0064369100, -0.0181158669, 0.0679151863, 0.0732123777, -0.1081672162, -0.0152790938, 0.0096763838, -0.0254422203, 0.0210132040, 0.0610276982, -0.0275199134, 0.0860148594, 0.1818381995, 0.0047159153, -0.0434213951, 0.0160430484, 0.1786219180, 0.0157196298, 0.0297374558, -0.0690636039, 0.2263660878, 0.0289843306, 0.1951751858, 0.0255483128, 0.0724676251, 0.1493922770, 0.1011964977, 0.1828524768, 0.1123348325, 0.0106424242, 0.1761462241, -0.0146945957, 0.0891731307, 0.0400879756, 0.1423278600, 0.0277721100, 0.1151133329, -0.0454677567, 0.0623516031, 0.0338665806, -0.0388106406, 0.1792284548, 0.0987251103, 0.1211574227, 0.1698952615, 0.1057577506, 0.0417202301, 0.0372973420, 0.2873660922, -0.0127559789, 0.0039225197, 0.1048719734, -0.0536718145, -0.0845750198, -0.0824356601, -0.0747967660, -0.2554916739, 0.0317245051, 0.0240062159, -0.1798499227, -0.0655730590, -0.0061266683, -0.0475923270, 0.0948717594, -0.1097213551, -0.0081558684, -0.1577785462, 0.1097199395, -0.0840593725, 0.0904494897, -0.0144408438, 0.1300478876, 0.0539828576, 0.0120395366, 0.0223390050, -0.1928304583, -0.1087658629, -0.0824879631, 0.0153875882, -0.0792532340, -0.0378395766, 0.0945879295, -0.0672751889, 0.0325802714, -0.0711971670, -0.0384232737, -0.0577702224, -0.0495390333, -0.1634576172, -0.0112673119, -0.0569360368, -0.0678666309, 0.0125122210, -0.0609067529, 0.0346647650, -0.0973834619, -0.1365291923, -0.0158174317, -0.0851001665, 0.0005037081, 0.0064223302, 0.0501045957, -0.0387833975, 0.0004307285, 0.0823474601, 0.0489650294, 0.0547056608, -0.0018271010, -0.1305972487, -0.0183526333, -0.0219463464, -0.1591908485, -0.0255564861, -0.0348632112, -0.1974474192, 0.1191966236, -0.1174742654, -0.0795976594, -0.0844966546, -0.0089157140, -0.0962137431, -0.0095030302, 0.0638805255, -0.0908391178, -0.0517947301, 0.0131694945, -0.1348713189, 0.0369593091, 0.0009777120, 0.1075477600, -0.0276398044, -0.1018906459, -0.1010871604, -0.0492787845, -0.0584955327, 0.0922930688, 0.0476232655, 0.0203934330, 0.0192225091, -0.1053240076, -0.0362818725, -0.0400310382, 0.0727826133, 0.0029996212, -0.1017919555, 0.1088290885, -0.1004870236, 0.0695095584, -0.1370941699, -0.0331840627, -0.1369563639, -0.1264619976, -0.1812932938, -0.1109144986, -0.0332535096, -0.0882886276, -0.1039238721, 0.0053242533, -0.1451687217, 0.0418498628, -0.1316855699, 0.0725783855, -0.1551273912, 0.0299819447, -0.1661181003, -0.0566109829, 0.0155788092, 0.0043868436, 0.0832785070, -0.0589631796, -0.0576510020, -0.1856496334, -0.0354749784, 0.0889611915, -0.0405352041, -0.0632387102, -0.1052756459, -0.0591458417, -0.1755061448, 0.0777849779, -0.1099117100, -0.1138147414, 0.0183092859, -0.0347073115, -0.1131218672, 0.0234273542, 0.0327869207, -0.1452996284, -0.0007565795, -0.0103087761, -0.0314614847, -0.0535314642, 0.0025859056, 0.0983062238, -0.1401506364, -0.0884416252, -0.1263515353, 0.0167122930, 0.0300559513, 0.1353549063, -0.0335716978, 0.0280053187, 0.0132004367, -0.0791845620, -0.1405873448, -0.0809751600, -0.0526819229, -0.1549102515, -0.1258689314, 0.0330299139, -0.0149190603, 0.1288233697, -0.1390334666, -0.0192986540, -0.0128400559, -0.1129385754, -0.1017692462, 0.0435931385, 0.0314297751, -0.1025188491, -0.1280454695, 0.0741167217, -0.0172330290, 0.0893430486, -0.0390798412, 0.0402716585, -0.0791348442, -0.0619227327, -0.0644438043, 0.0640198961, -0.0693273470, -0.0687662140, 0.0257691555, 0.0037982326, 0.0300765764, -0.0629070625, -0.0565517247, -0.0872239396, 0.0177537818, 0.0214624032, -0.0554788187, 0.0019225907, 0.0367412232, 0.0585269928, -0.1651510745, -0.0723105818, 0.0099377688, -0.0449489616, -0.2231123745, -0.1459297091, -0.0013446434, -0.0624045916, -0.1074173227, 0.0625918210, -0.0412892774, 0.1235108003, -0.1021599993, 0.0935766846, -0.0502929762, 0.1423296332, -0.0872108787, 0.0360444337, -0.0187099259, 0.0150278248, -0.0249709655, 0.0705844611, 0.0138110183, -0.0794011727, -0.0428203531, 0.1390825361, 0.0448470190, -0.1302440166, -0.1212524697, 0.0976531357, -0.0083282851, 0.0402301513, -0.0542140640, -0.0665797964, -0.0127446661, 0.0600883067, -0.0669858605, -0.0796469450, -0.0082868505, -0.0062386189, 0.0655334219, -0.0420485288, -0.1223044693, -0.0719085783, -0.0586946160, 0.1116163582, 0.0882310495, 0.0565178469, 0.1041692421, -0.1033042446, -0.0085285269, -0.0284424052, -0.0755550712, -0.0269510578, -0.0378278755, -0.1031880006, 0.0149237523, -0.0006512387, -0.0006400173, -0.0925678685, 0.0220055003, -0.0060310117, -0.1519672424, 0.0949003771, -0.1380153298, 0.0078798626, -0.0722309574, -0.0409816466, -0.0546502173, -0.0152650448, 0.1200870499, -0.0494865887, -0.0958839729, 0.0283487253, -0.1516117305, 0.0187472440, 0.0265925806, -0.0300944429, -0.0270001758, -0.0108409766, -0.0517091416, 0.0998306870, 0.0779673606, 0.0702976510, 0.0669797063, 0.0654139966, 0.0682274699, -0.1479327530, -0.0049592992, -0.0091529908, 0.0063881031, 0.0450805835, -0.1543209106, 0.0936688855, 0.0067430395, 0.0303175859, -0.0416124426, -0.1397297829, -0.0045509879, 0.0473288856, -0.2483876795, -0.0285951793, 0.1250406802, -0.1320164055, -0.0346301384, -0.0095430641, -0.0203625560, 0.0524484217, -0.0662133321, 0.0670176372, -0.0313281603, 0.1114434898, 0.0167148896, 0.0016030543, 0.0540041663, -0.0244872011, 0.0474796928, 0.0528017953, 0.0289632771, -0.1637728512, 0.0088289548, -0.0335877426, -0.0012468911, -0.0346073695, 0.0134126628, -0.0387282297, 0.0246867165, -0.0801820606, -0.0813728049, -0.1157941148, 0.0205301009, 0.0064330096, -0.1532757431, 0.0544147715, -0.0146948714, -0.0130886985, 0.0294442791, 0.0319669135, -0.0771172941, -0.0683181137, -0.0858178064, 0.0778595135, -0.0505394153, -0.0392810665, -0.0456331521, -0.0632406548, 0.0403078049, -0.0306650940, 0.0409863703, 0.0263839699, -0.0417331979, -0.0332783461, -0.0505449697, 0.0960006639, 0.0679226667, 0.0011331470, -0.0247150101, 0.0027472898, -0.0715290010, 0.0249720905, -0.0192855317, -0.0697160065, 0.0405584835, -0.0027955864, 0.0352606885, -0.0037823364, -0.0017508840, -0.0828748196, -0.0701397434, 0.0666741878, -0.0287982635, 0.0842498094, 0.0450911149, 0.0653923526, -0.0129101342, -0.0431921594, -0.1380345225, -0.0250933561, 0.0285647344, 0.0733333156, 0.0054394612, -0.0096397670, -0.0691355467, -0.0621838123, -0.1288649589, -0.1770812422, -0.0772484839, -0.0394829288, -0.0464861877, 0.0899008512, -0.1220228821, 0.0666344166, -0.1620809436, -0.0944990665, -0.0583802052, -0.0187650230, -0.1345293820, -0.1658295393, 0.0358185545, -0.0990270674, -0.0910760313, -0.0772565976, -0.1215363219, 0.1002964899, -0.0762271956, 0.0261085518, -0.1421617270, -0.0821509808, -0.0496101379, -0.0163104236, 0.0659371093, 0.1006206051, -0.0783705860, 0.0514979735, -0.0924786478, -0.0777768269, -0.0284279436, 0.0525231734, -0.0125697237, -0.0634466037, -0.1171411425, -0.0418770388, -0.0240390245, 0.0525448620, -0.0263599735, -0.1248207912, 0.0385309346, 0.0283953082, -0.1195931584, -0.0162031334, -0.0165208429, -0.0557085164, -0.0299581867, -0.0018688259, -0.0522953421, 0.0396540835, 0.0160423853, 0.0424355976, -0.1061494648, -0.1145229414, -0.0347663164, -0.1347555816, -0.0716189742, -0.1034400016, 0.0504080653, 0.0278841145, 0.0113370921, -0.0554205924, -0.0588566884, -0.1367632896, -0.0482744835, 0.0805161297, -0.1585163176, -0.0494700223, -0.0894749016, 0.0577225126, -0.1394157559, -0.0457152613, -0.1244222075, -0.1129594371, -0.2841654420, -0.0508753657, 0.0721652582, -0.0643023029, -0.0286047012, 0.0039888741, -0.0413330123, 0.1106322557, -0.0052509313, 0.0131705496, -0.0709219649, -0.0435342528, -0.1234297454, 0.1553754210, 0.0702872574, 0.0923265740, -0.0787063390, -0.0123817576, 0.0616642497, -0.0987836197, -0.0646602586, 0.0159475543, 0.0106139323, 0.0319349766, -0.0824316368, 0.1189700440, -0.0491723493, 0.0696805865, -0.2236402929, -0.0663693473, -0.0377618074, 0.0154695679, -0.0788641348, -0.0292399619, -0.0173433218, -0.0660818592, -0.0482547842, -0.0780720711, -0.1169536859, -0.0749902651, -0.0824763998, -0.0280252639, -0.1139935553, 0.1617722958, 0.0124965534, -0.0310550127, -0.0668780953, -0.0121065974, 0.0677325502, 0.0082026785, -0.0165221561, -0.0996346325, -0.0125242071, 0.1132677346, 0.0673505366, -0.1233399138, -0.1076727137, -0.0595108047, -0.0103961108, 0.1223992407, 0.0026187240, -0.0281162821, 0.0211899374, 0.0410970598, -0.0911195427, 0.0260967389, 0.0535183623, -0.0935836509, 0.0565208904, 0.0204506535, -0.0604098588, 0.0991647616, 0.0585104115, 0.0844763592, -0.0928387716, -0.1174840406, 0.0344721340, -0.0382453427, 0.0527045317, 0.0338464975, 0.0840997398, 0.0854470879, -0.0126788085, -0.0999589488, -0.1357004493, 0.0440581366, 0.0587158687, 0.0626401454, -0.0192048568, 0.0008524946, 0.0062187072, 0.0620264225, -0.0549746193, -0.0294090249, -0.0012011286, -0.0071801236, -0.0460723825, -0.1283862293, -0.0216038283, -0.1075900644, -0.0786027089, -0.1099385247, -0.0841200203, -0.0035728933, -0.0183177348, -0.0168610197, -0.0180677753, 0.0343490168, -0.1147370711, 0.1000879556, 0.0530164652, 0.1158024743, 0.0468353145, -0.0234049745, 0.0251662787, -0.0505689047, -0.0133882863, 0.0463325270, -0.0458571166, -0.1635085791, -0.0987723619, -0.0141352918, -0.1324982047, 0.0751262158, -0.1788190901, -0.0762080550, -0.0215211418, -0.1423031092, -0.0869984403, -0.1708724350, -0.1080814004, -0.1065191552, -0.0895638168, -0.0045976969, -0.0553968363, -0.0659064502, -0.0701996610, -0.0269377399, -0.1272626817, -0.0087346043, -0.2235274464, -0.0923574418, 0.0433028787, -0.0772411600, 0.0201464873, -0.0749039799, -0.0630020797, -0.0610327274, -0.0082323896, 0.0233857259, 0.0222668685, -0.0847733021, -0.1258258522, -0.0279955100, 0.0124506662, -0.0499442294, -0.2269280702, -0.1286454052, -0.0946443677, -0.1210473552, -0.1957530975, -0.2327841073, -0.0934769437, -0.1295388341, -0.1776868552, -0.1493125409, -0.0798106045, -0.0230947435, -0.1371514946, -0.1035230383, -0.2588386536, 0.0762086585, -0.1377343833, 0.0336917080, -0.0581651032, -0.0244151484, 0.0029223368, -0.0631839931, -0.0708725527, -0.0304560438, -0.0652985126, -0.0465441868, 0.0186886657, -0.1468464136, -0.0399388857, -0.0127258375, 0.0390164405, -0.0226325244, -0.1218443513, -0.1871470362, 0.0251929220, 0.0061264727, -0.1086638346, -0.2486682534, -0.0968100280, 0.0469091572, 0.0402123146, -0.1347007602, -0.1422748864, -0.0848287493, -0.1275528371, 0.0307692587, -0.2338683456, 0.0183257777, 0.0308998581, 0.0387244970, -0.0626441464, 0.0468338467, -0.0795511827, -0.0427236222, -0.1713822633, 0.0083807884, -0.0654881671, -0.0425306372, -0.0336547382, -0.1704878658, 0.0425141901, 0.0194445383, 0.0665135160, 0.0099912733, -0.0222539771, -0.1751610488, 0.0364767499, 0.0160839446, 0.0511953086, -0.0258301850, -0.0034914017, 0.1556529999, 0.0465402156, -0.1669777781, -0.0989246145, 0.0172688495, -0.0888924152, -0.0226557292, -0.0302182492, 0.0126036787, 0.1037935615, -0.0471488871, -0.0240640659, 0.1119455546, 0.0074821906, 0.0794327110, -0.0497681014, -0.0576248877, 0.0594580248, -0.0080283806, 0.0238575730, -0.1386635005, 0.2051323354, 0.0308901723, 0.0507210419, 0.0171534903, 0.2108137012, 0.1689830273, 0.1345947683, 0.0366864800, 0.2641382515, 0.0112365717, 0.0251038317, 0.1940362155, 0.1200226843, 0.0228959210, 0.1190185547, 0.1060642228, 0.1141798124, 0.0410434753, 0.1600400954, 0.0437463894, 0.0548605509, -0.0573866628, -0.0541655421, 0.0719308704, -0.0367600471, 0.1443289667, 0.0674903020, 0.3143944144, 0.2270684391, -0.1104057655, -0.0593918785, 0.0409414843, 0.2029401213, -0.0121488813, -0.0707609430, -0.0591632761, 0.0187470056, 0.0722161978, 0.0013752399, -0.0193322673, 0.1738024503, 0.0224485844, -0.1007865369, 0.0741318762, -0.0778755322, 0.0296584032, 0.1450169384, 0.0856779292, 0.0781170130, 0.0577767603, 0.0944430754, 0.0415890105, -0.0430399179, 0.1712548435, -0.0155464169, 0.0202965252, -0.0700322464, 0.0147656677, -0.0039883377, 0.1827847213, -0.0010620321, 0.0579437725, 0.0755274147, 0.0316695571, -0.0205392111, -0.0438851453, 0.0344879515, -0.0340740643, -0.0879571885, -0.0702924356, -0.0078902962, -0.1165932119, 0.0313198529, -0.0143072680, 0.0113889500, -0.0653288141, -0.0428996980, -0.0265802722, 0.0037979274, -0.0540147461, -0.0983171836, -0.0077080149, -0.0244993418, -0.0281952508, -0.0506693684, 0.0510339141, -0.0460815541, -0.0187001191, 0.0558789857, 0.0153120104, -0.0453078113, -0.0991375595, -0.0154017191, 0.0127262594, 0.0403849632, 0.0004463599, 0.0752695575, -0.0409751050, 0.0593038164, -0.0121039981, 0.1885875016, -0.0411794335, 0.1414733231, 0.1285754889, 0.0687073916, 0.0440756567, -0.0325932726, 0.1526446640, 0.0771857575, 0.0696803853, 0.0828823745, 0.0217252709, 0.1137345061, -0.0511240810, 0.1226832792, 0.1076277420, 0.0407434069, -0.0212874915, 0.0556012057, -0.0476191789, 0.0038540917, 0.0644606352, 0.1085073724, 0.1254785657, 0.0762840956, 0.0525156558, -0.0667752624, 0.0551211759, 0.1231334731, -0.0000551414, 0.2175506502, -0.0321844481, 0.2432550341, 0.0047772638, 0.1228510886, 0.0715081915, 0.2263094783, 0.1073175445, 0.1076915860, 0.2501930892, 0.1868738830, -0.0045648799, 0.2022345960, 0.0721717924, 0.0520761795, 0.0471861288, 0.1954863220, 0.0222534221, 0.1994499862, -0.1206331477, -0.0344618745, 0.0619694814, 0.0530241355, 0.1629344523, 0.0490117483, 0.2245136201, 0.1389913708, -0.0237091240, -0.0829636231, 0.0360426530, 0.2642141283, -0.0337255336, 0.1694347411, 0.0050314977, 0.2780954242, -0.1830415279, 0.0262229033, -0.0007015284, 0.0861623958, -0.0186686143, -0.0225821342, 0.2609771192, 0.1167602837, -0.0629984662, -0.1048568860, 0.0735233277, -0.0432401858, 0.0505440496, 0.0249985587, -0.0225910414, 0.0412598550, -0.0917830765, 0.0130393412, -0.0189790521, 0.0045777988, 0.0142077832, -0.0389607772, -0.0461500920, 0.1913931072, 0.0234124362, -0.0219177045, -0.1060478613, 0.1317776442, -0.0360259451, 0.0128709413, -0.0642645136, 0.1019065008, 0.0318010859, 0.0639695451, 0.0240477119, 0.2411399335, 0.0366904922, -0.0308700912, 0.1020330191, 0.0253720712, 0.0608445331, 0.1729083508, 0.0281025916, 0.1159219816, 0.0029847131, 0.0442009084, 0.0696653798, 0.0324668959, 0.0717529356, -0.0681872591, 0.0059247948, 0.0446112789, 0.0546412803, 0.0865031704, 0.1533426940, 0.1255907416, 0.0767798424, 0.0579425283, 0.1127020866, 0.1521801054, 0.0010961856, -0.0617789142, 0.0522521324, 0.0491958521, 0.1247211769, -0.0287934188, 0.0242804606, 0.0833471715, 0.0077052182, -0.0062792692, -0.0149009954, -0.0315059312, 0.0825415701, 0.0046792747, 0.0626343936, 0.1097086370, -0.0130335269, 0.0261163246, -0.0116926543, 0.0391115062, 0.0455374829, -0.0062766955, -0.0013956932, -0.0841666535, -0.0639066920, 0.0069313515, 0.0195160601, 0.0744971111, -0.0214457344, -0.0121502606, 0.0037609609, 0.0182856154, -0.0344009846, -0.0042096912, 0.0441022180, 0.1117469594, 0.0728456602, 0.0171963535, -0.0834258869, 0.0921104252, -0.0179691873, 0.0141579304, 0.0971687734, 0.0299171470, -0.0251500215, 0.0247125328, 0.0210687723, -0.0536713079, -0.0790964216, 0.1073863134, -0.0186482109, -0.0844739899, 0.1023140624, 0.0642662272, -0.0013083597, -0.0562370680, -0.0185703114, -0.0770232230, -0.0177231915, 0.0002368394, 0.0100385435, -0.0186182465, -0.0033205913, -0.0660366639, -0.0438396819, 0.0831228048, 0.0457267463, -0.0922541246, -0.0610656925, -0.0366101600, 0.0685360283, -0.0271923617, -0.0811374262, 0.0182841215, -0.0207752492, 0.0006591645, -0.0516900606, 0.0363033898, -0.0262483750, -0.0207935534, -0.0843255371, -0.0935062915, -0.0080029787, 0.0462661386, -0.0630285367, 0.0611733235, 0.0082383668, -0.0521352924, -0.0941080302, -0.0017666467, 0.0885917991, 0.0293006208, 0.1092114449, 0.0059346603, -0.0343154706, 0.0400390625, -0.0147102019, 0.0724911615, 0.0325832814, 0.0710249320, -0.0638009384, -0.0076051834, 0.0607607439, -0.0594118424, -0.0443423316, -0.0276184753, 0.0672309324, 0.0440826602, -0.0819361880, -0.0124238040, -0.0011469090, -0.1044081599, 0.0150464978, -0.1022148877, -0.0724183917, -0.0095761903, -0.0066924216, 0.0291068237, -0.0212976299, -0.0054782229, -0.0345975608, 0.0667382032, 0.0242562685, 0.0684869364, -0.0150129879, 0.0583170727, -0.0128377425, 0.0202908069, -0.0192523133, 0.1182713062, -0.1093740985, 0.1230398789, 0.0088091232, 0.0509401858, 0.0574826673, 0.0672804713, 0.0592034571, -0.0266991053, 0.1004837751, 0.1320979595, -0.0951035023, 0.1457277387, 0.0552514456, -0.0349594057, 0.0155384839, 0.0682794526, 0.0543492846, 0.0035087967, 0.1459833086, 0.0210500583, 0.0093594883, 0.0222914554, 0.0963028446, 0.0622822158, 0.1500874609, 0.0828400627, 0.0169927720, -0.0171150528, 0.0676739141, 0.0698815957, 0.0278328974, 0.0025710419, -0.0048707374, 0.0610886291, 0.1084326655, 0.0151847955, -0.0618074201, 0.0588815100, -0.0129775302, -0.0605137870, 0.1426469982, 0.0088204294, 0.0540046506, 0.0530747138, 0.0037780120, 0.0582474396, 0.0475177988, 0.0276409052, 0.0009347252, -0.0303357355, -0.0476250499, 0.0217982773, 0.0597203821, 0.0286293589, 0.0216074735, 0.0353290848, 0.1085767820, 0.0886054039, 0.0145920096, 0.0121151917, 0.0418299399, 0.0727008954, -0.0512152612, 0.1249786839, 0.0167959109, 0.1100191772, 