//Numpy array shape [64, 1]
//Min -0.354983538389
//Max 0.455615490675
//Number of zeros 0

#ifndef W12_H_
#define W12_H_

#ifndef __SYNTHESIS__
wavrec_out_weight_t w12[64];
#else
wavrec_out_weight_t w12[64] = {0.3734550476, -0.0092591960, 0.2625230551, 0.2336709499, 0.4556154907, 0.2898301780, -0.0915442109, -0.3313191235, 0.2857105434, 0.3157594502, -0.0703302771, -0.1602040082, 0.2812595665, 0.3002977669, -0.0421871319, 0.3388185203, -0.2579333186, -0.2080612034, 0.3029323518, -0.1977502257, -0.1237130314, -0.1734034270, -0.1777645648, -0.0345366746, 0.3057506680, -0.3547230363, -0.2807004452, -0.2821033597, 0.2211615890, 0.2803865075, -0.2997102439, -0.3549835384, -0.0216684565, 0.2494286597, -0.3109917045, -0.3458992243, -0.1704496294, -0.1223678291, -0.3178508878, -0.0706118420, 0.2035092711, 0.1656083912, -0.2141341567, 0.2647848725, -0.0606425293, 0.2358427495, 0.2407671213, 0.3803530633, 0.2534042597, 0.4407832623, -0.1221640930, 0.2990679443, 0.3193415701, 0.3405835927, 0.3977602124, 0.2377201319, 0.2677244842, -0.0279799253, -0.2005755901, 0.2814180851, 0.3348082602, -0.3077679574, -0.0278791748, -0.2912418246};
#endif

#endif
