//Numpy array shape [64, 1]
//Min -0.321569174528
//Max 0.486576855183
//Number of zeros 0

#ifndef W12_H_
#define W12_H_

#ifndef __SYNTHESIS__
wavrec_out_weight_t w12[64];
#else
wavrec_out_weight_t w12[64] = {-0.2402220666, 0.2073549926, -0.1519293040, -0.2322157919, 0.2739325464, 0.3282262087, -0.3133462667, 0.3608410060, 0.3087656498, -0.2250530720, 0.4184470773, 0.1872026175, 0.3374279439, -0.0958616212, -0.1751856208, 0.2658990920, -0.2104656845, 0.3410214186, 0.3307033777, 0.3150703907, 0.4468827844, -0.1913496852, -0.2645381689, 0.2163205296, -0.1111968011, -0.1938176751, 0.3377947509, 0.3276285529, -0.2899815738, 0.3363381326, 0.1910926700, 0.4446322322, 0.2725285888, -0.1088959426, -0.2538138330, -0.1585245579, 0.3690607250, 0.3207915723, -0.2482340187, 0.3268510997, -0.3215691745, 0.3052007556, 0.2065723836, 0.1899650395, -0.2705420256, -0.1317256093, 0.3819702864, -0.0889159441, -0.1922988147, 0.4356878400, -0.0957074463, 0.3830958605, -0.1502755284, -0.1462706625, 0.4865768552, -0.0126224849, -0.0883871913, 0.3151663840, -0.2907805741, 0.2941010296, -0.2980805635, -0.1524547040, 0.3166171312, -0.2897310853};
#endif

#endif
