//Numpy array shape [5, 16, 32]
//Min -0.433724880219
//Max 0.355736017227
//Number of zeros 0

#ifndef W5_H_
#define W5_H_

#ifndef __SYNTHESIS__
conv1d_1_weight_t w5[2560];
#else
conv1d_1_weight_t w5[2560] = {-0.1044730693, -0.1662221551, -0.1750541180, -0.1145358756, -0.1193176359, -0.2118812054, -0.1664438248, 0.1677059680, 0.1716450304, -0.0074554216, 0.0452520214, -0.0202058237, -0.0455339067, -0.1007957533, 0.1200958118, 0.0983298644, -0.0960713625, 0.0240951404, -0.0524496287, 0.0344973654, 0.0134028383, -0.2570618093, -0.0953577980, 0.0400569104, 0.1227596179, -0.0965253487, -0.1573398113, 0.0491332002, -0.0980722234, 0.0873848945, -0.0146404002, 0.1595590115, -0.1223544851, -0.0722111091, 0.2069319785, -0.1860657185, -0.0597558916, -0.0665024668, 0.0858696178, 0.0703955665, 0.2756588161, -0.0487708710, 0.1179610193, 0.0776238292, -0.0202346388, 0.0866183788, 0.2220856100, 0.1350570321, -0.0340217017, 0.1883615255, 0.1623437405, -0.0522094183, 0.0510742925, 0.1233233213, 0.0666500032, 0.1398420930, 0.0298170596, 0.1967880130, -0.0254855212, -0.0748801306, 0.0115148732, 0.0294840578, -0.0152790034, 0.2046280205, -0.1653508991, 0.1411671489, -0.0175881702, 0.1188608110, 0.0996597260, -0.0861627460, -0.1618898660, 0.0970490947, 0.0225321744, 0.1791437864, 0.1377304345, 0.1458083987, 0.0187064540, 0.0499228686, -0.0658968836, -0.0621552393, -0.0071066096, -0.1338975728, 0.0656243563, -0.0324506983, 0.1220406294, 0.1118496358, 0.0463844649, -0.0398326479, 0.0503471643, 0.0387847088, -0.0965821743, -0.1459895670, -0.0691165775, 0.0480967835, -0.0629447624, 0.0363888443, 0.1189718917, -0.0798935145, -0.1933466196, 0.0326875895, -0.1185513735, -0.0614538863, -0.0160714462, -0.0993922949, 0.0036018167, 0.0779478773, -0.1165244728, -0.0250628777, 0.0734532475, -0.1672197580, 0.0355846956, -0.0017661744, -0.0507156327, -0.0529271662, 0.0568112992, 0.1492286623, -0.0877250060, 0.1095213071, -0.0082679670, -0.0595848188, 0.0631706715, -0.0630067438, 0.0166665763, 0.0150605105, 0.1327046752, 0.0775665119, -0.0234370064, -0.0311259776, 0.0862836242, -0.0198804680, -0.0370398834, 0.0277333576, -0.0379583314, -0.0116301915, 0.0177844353, -0.0225669350, -0.0494297296, -0.0633911267, -0.0573138446, -0.1094328687, -0.1047838405, -0.0737146437, -0.1243773326, 0.1190282032, 0.0755911991, 0.1587234735, -0.0088309748, -0.0894899592, -0.1447466165, 0.0120454319, -0.0018981702, 0.1850018501, 0.1452674568, -0.0164597742, -0.1889048517, 0.0732861534, 0.2053681314, -0.1559605449, 0.0940244570, 0.0597606488, 0.0724954829, -0.1302563697, 0.0944814011, 0.0464585274, 0.0579593405, -0.0722618401, -0.0989795625, -0.1168500558, -0.0122224111, 0.0033881848, 0.1884375066, 0.1487198919, -0.0944731608, 0.0098943533, -0.0863145888, -0.0289544780, -0.0876474753, -0.0654052347, -0.2497166395, -0.1850003004, -0.1639606208, -0.2836565971, -0.1531893909, -0.0428779647, 0.1126561761, -0.1901146024, 0.1064938679, -0.1198911965, -0.0775734186, -0.1136721745, -0.0882238150, 0.0758340433, 0.1972204894, -0.0769954249, 0.2766081691, -0.0225093011, -0.0822388604, 0.0378312171, 0.1123004109, 0.0440787934, 0.0537056699, -0.2018188387, -0.1170932874, -0.1580607891, 0.2161330134, -0.0969529971, 0.0416532122, 0.1304897666, 0.0041184905, 0.1882778704, 0.0996491089, 0.0694965869, -0.0359223373, -0.1054678783, -0.1026169881, 0.2410723120, 0.1248035431, 0.1394752860, 0.1029991582, 0.2463643253, 0.1911751032, -0.0067805909, 0.0608355664, 0.1787257791, -0.0397033095, -0.0228962712, -0.0206804369, 0.0855479166, 0.1727390587, -0.1058078110, -0.2158616483, -0.1457662582, -0.0426102020, 0.0967842340, 0.1255864203, 0.0335457548, -0.0725962743, -0.0760083944, -0.1335253268, -0.1561170518, -0.0185229518, -0.1211601794, 0.0822070390, 0.0166282952, -0.0225129779, 0.0525569841, 0.0385041013, 0.0352740996, -0.0474568866, -0.0889450014, 0.1133458614, 0.0928858966, -0.0515926294, 0.0205178354, -0.0461436138, 0.0267241169, 0.0926228166, 0.0062758001, -0.1888763160, 0.1325844973, 0.0187982321, 0.0167051088, 0.1660935432, 0.0255213678, -0.1720195264, -0.1341991276, 0.2022683471, -0.1045164987, 0.0117407618, -0.1326349974, 0.1083697528, -0.0624881834, -0.1076865047, -0.0737518966, -0.1305956542, -0.0873951316, -0.0897992626, 0.0579473078, 0.1811772585, -0.2011558115, 0.0419810973, -0.0873513147, -0.0296943635, -0.0394026712, -0.0643284172, -0.0556349009, -0.0712473541, 0.0460982248, 0.0140876789, 0.0743304715, -0.0575926714, -0.0668867901, 0.0344230197, -0.0165024810, 0.0910558179, -0.2038334906, 0.0074109263, -0.0182488468, 0.0759172887, -0.1511522681, -0.1095717847, -0.0338473283, -0.0765270516, 0.0220376328, -0.0266547892, 0.0100108301, -0.1346881837, 0.1425570995, -0.1153501868, 0.0939026475, 0.1496815383, -0.0568990111, -0.0195035469, 0.0427221172, 0.0956688076, -0.0018523164, 0.0819675922, 0.0752567798, -0.1031128913, -0.1995167583, -0.1649740487, -0.1693037003, -0.1809770912, -0.0809724703, -0.0067437263, -0.2401520461, 0.0249758121, 0.0077418401, 0.1549799591, -0.1801466197, -0.0850898027, -0.1536618620, 0.1858018339, -0.0403689854, -0.1179048419, 0.0474069826, 0.1036016792, -0.0948526636, 0.1605468839, 0.0510451905, 0.0813214555, 0.0025692144, 0.0072136130, 0.0396845713, 0.3557360172, -0.0221641045, 0.0531396717, -0.0272886902, 0.0972447842, 0.0712366104, 0.1914085746, 0.2626225948, -0.0400612578, -0.0259719975, 0.1622588784, 0.0204841644, -0.0887017995, -0.1620811373, -0.0183577351, 0.0609836951, -0.1723043770, 0.1471599638, 0.2031310499, 0.0908043459, -0.0213798080, 0.2066727430, 0.0159277953, 0.1541997641, -0.0883731097, -0.1457296610, 0.2135629058, 0.0615964755, -0.0532192327, -0.0868671387, -0.3711600304, -0.3194718957, -0.0903476551, 0.0874930695, 0.1574424803, 0.0253225733, -0.3708992898, 0.0387247242, -0.3283123374, -0.3257281780, -0.1654609442, -0.0585004501, -0.0150179248, -0.0287429746, -0.0077409772, -0.1678459495, -0.0431859568, 0.0481393747, -0.0765849873, 0.0054284045, -0.0382256620, -0.0871805176, -0.1635730416, -0.0430784002, -0.2471979558, -0.1761665940, -0.1867905855, -0.2530514598, -0.0878121629, -0.2039272934, -0.0456261933, -0.1778537035, -0.0448593833, -0.0513246097, 0.1629199088, -0.0042214510, 0.0782235116, -0.1494283378, -0.0713112950, 0.0408330001, -0.0593474396, -0.1426937133, -0.0260584299, -0.0809327736, -0.1052094921, 0.0379062854, -0.0492123812, -0.2959221005, -0.0077169193, 0.1165733710, -0.0515623055, 0.0549536124, -0.0574894659, -0.0979122519, 0.1912383735, -0.0192881152, 0.0856111422, 0.0623228140, 0.1012998596, 0.1309688687, 0.0767506734, 0.0431660078, -0.0206494555, -0.0999434218, -0.0096811680, 0.1336228997, 0.1367075294, 0.1241086945, 0.1543131322, 0.0345779546, 0.0926448479, 0.0179947633, 0.1894450486, -0.0145776104, 0.0083415080, 0.0329715647, -0.0416329168, -0.0924752429, 0.0592424124, -0.1285720170, -0.1930353940, 0.0642908290, -0.1337877363, 0.0579038002, 0.1579027921, 0.1686889380, 0.0794787034, 0.0770516470, 0.1411863714, -0.0349999107, 0.0261003617, -0.0584693030, 0.0329295658, -0.0619425215, 0.1475952268, -0.2229888141, -0.3001702726, -0.2098208815, -0.0394450687, 0.0633420125, 0.0909756497, 0.0955567881, -0.1299120486, 0.0784839392, -0.3045341372, -0.0510695577, -0.1411658525, -0.0881864578, -0.0095140524, -0.0276041497, -0.1346032768, -0.1135620475, -0.1009039953, -0.0396929905, 0.0880595967, 0.0177109223, 0.1118429676, -0.0565366186, -0.1018112227, 0.0436191931, -0.1161316484, 0.1415865421, 0.0652902499, -0.2041804641, 0.1719948798, -0.2086838186, 0.0906080604, 0.0092520257, -0.0846769735, 0.0571260042, -0.0101840487, 0.0879764035, -0.1707472950, -0.1053951532, 0.0642001480, -0.1608756036, 0.0628271326, 0.1542629302, -0.0651269108, -0.1240174845, 0.1756983548, 0.0096545611, 0.0551646426, -0.0398186743, -0.0159030389, 0.1165256798, 0.2307408750, 0.0137579087, 0.0052514351, -0.0059220996, 0.0045567313, 0.2004070431, 0.1858069003, 0.0086049484, -0.1893371195, -0.1055565476, 0.1370507479, -0.0988566279, 0.1602066755, -0.1690840125, -0.0367418081, 0.1060939431, -0.0901565328, 0.1743686199, 0.1217006594, 0.1292215437, 0.0684425384, 0.0336201154, -0.0458606444, 0.1018113717, -0.0333943442, -0.0531026945, 0.1524873674, 0.0747101754, -0.0852281526, -0.0527030230, -0.1966975033, 0.0158219617, 0.0057059489, -0.0575965755, 0.2071118653, 0.1750872284, -0.0955335945, -0.0183669683, -0.0296141412, -0.1624892801, -0.1814962178, -0.0320492387, 0.1861825287, -0.0186470281, 0.0645562559, 0.0966799930, -0.0626092479, 0.1407332718, 0.1870023906, 0.0796975717, 0.0461298153, 0.0552360527, 0.1555936933, 0.0403989926, 0.1154230759, 0.0814852566, 0.0262485165, 0.0759454966, 0.0725850761, 0.0392377377, 0.0029590847, 0.1109779626, 0.0228092857, -0.0149222855, 0.0594044067, 0.1481085867, 0.1548700631, 0.0093158064, 0.0188767407, 0.2217307687, -0.0500398166, 0.1081711948, -0.0120389592, 0.1314577907, -0.0654152036, 0.0307053588, 0.1426240802, -0.1512297690, -0.2317959517, 0.2350918055, 0.2378958613, 0.1369994134, 0.1165333837, -0.0827393308, 0.0675831735, 0.0601946414, -0.0074103032, 0.0363322198, 0.0590038486, -0.0218148045, -0.0406836160, -0.0881949738, 0.0319213569, -0.0465781391, -0.0820521787, 0.0370120108, 0.0061691776, 0.2077679336, 0.1849799156, 0.1448030174, -0.0891270414, 0.0213106498, 0.0162564740, -0.1546712369, -0.0847861916, 0.0882070586, 0.0729867890, 0.0771718100, -0.0336581245, -0.1583494842, -0.1677638441, -0.1326233447, -0.1875269860, 0.1146594733, 0.1880960613, 0.1141701639, 0.0720826834, -0.0858010948, 0.0057462524, 0.1203916147, -0.0938357338, -0.1045557857, 0.0985206142, -0.2309351712, 0.1175533906, 0.0452423096, -0.0387897305, 0.0809921697, 0.1637319922, -0.1153582335, -0.1200902089, -0.0804389864, 0.0690049008, 0.1001382172, -0.0134541970, -0.0410675891, 0.0893517509, 0.0679959655, 0.1699540168, -0.1297753006, -0.0369315855, -0.1603802145, -0.1636775881, 0.2178889960, 0.2262262404, 0.0605776832, -0.0214383509, 0.1214761660, 0.1932010800, -0.0449407324, 0.2311031371, -0.0391290411, -0.0780553818, 0.1149070114, 0.0811729059, 0.1496957839, 0.0711491108, -0.0451594181, -0.1942555904, -0.0265360102, -0.0899963900, 0.1450195312, 0.1765475571, 0.1709996015, 0.1648263782, 0.1690455228, 0.0908436775, 0.1542182714, -0.2236491144, -0.0506151728, 0.0037986822, 0.1878081113, 0.0459147245, -0.0144035062, -0.1627126336, -0.1495188028, -0.1611213535, -0.0001676941, 0.1147747263, 0.0011190894, -0.0388484560, -0.0026479999, -0.2488511056, -0.0010447962, -0.2149958909, -0.1559733152, 0.0217664707, -0.1121443510, 0.1314244121, -0.2492450178, -0.2334078699, -0.0225778203, 0.0404020846, 0.0495233610, 0.1895954013, 0.1035411283, 0.0086078644, 0.1474999487, -0.1802611053, -0.1250572205, -0.0945898816, -0.0755110532, 0.0683848113, -0.1153708696, 0.2093957663, -0.1032371372, 0.0657587498, 0.0258055218, 0.0097228996, 0.1453324109, 0.0826415643, 0.1102461442, 0.1066253483, 0.0358764380, 0.1634338498, -0.1026946381, -0.0051438008, 0.0539737120, 0.1602620780, -0.1776819527, 0.0592675135, -0.1415648311, -0.0485000797, 0.0591879711, -0.0853649303, -0.0375372320, -0.0770807043, 0.0915644690, 0.0386309549, -0.0052465582, -0.1274231821, -0.0605762824, 0.0457135327, 0.0893069282, 0.0897091180, -0.0613870397, -0.0897136331, -0.1143382937, -0.1941981018, 0.1051249504, -0.0570882708, -0.1074075028, -0.0516138412, 0.0203920435, 0.1781977713, -0.1060058102, 0.0754475594, 0.0772853866, 0.0814685076, -0.0168585964, 0.1614825279, -0.1460791826, -0.0692763478, -0.0678338334, -0.0502262376, 0.0204098970, 0.1367855817, -0.0464464538, -0.1003239751, 0.0158900954, 0.1052370220, 0.0009458103, 0.1021995693, 0.0083920686, -0.1713740528, -0.0767386109, 0.1399456114, -0.0164668541, 0.2226691544, 0.0583375245, -0.1305802912, -0.0024984423, 0.1499707252, -0.0239880234, 0.0885751992, 0.0567337684, 0.0877039954, 0.2158825994, 0.0538689122, -0.0698619187, -0.0399126858, 0.1623129100, -0.0109490827, -0.0214797650, -0.1142636538, -0.0775125399, 0.1794863343, -0.0434822030, -0.0884375051, -0.1379110366, 0.1166333035, -0.1043530256, 0.1224534065, 0.1149873734, -0.0307692345, -0.0839493945, 0.1534127146, 0.1237794757, -0.1597441286, 0.1389812678, -0.0479586832, 0.0168874338, 0.0332237482, -0.1740176082, 0.1139776185, -0.0543313324, -0.0053746365, -0.0280211493, -0.1933646351, -0.0962326452, -0.1466286778, -0.1817358434, 0.1105362102, 0.1255691499, 0.0739908889, -0.0791365057, 0.0238617603, -0.0070880395, 0.1629927307, -0.1282746643, -0.0526632816, 0.0175061394, -0.2162869573, 0.0499991663, -0.0686918646, -0.1841632426, -0.1430379450, 0.0737277642, 0.1134857088, 0.0737762377, -0.0596017577, 0.0517653041, 0.0802827179, 0.1398766339, -0.0814754590, 0.0460373200, -0.1267261356, 0.1065692976, 0.1245995760, -0.0958478153, 0.0304104146, 0.0320299976, 0.0758748427, 0.0952997953, 0.0903671309, -0.0781837255, -0.1959561110, 0.1170458868, -0.1273741126, -0.1423972845, 0.0094824228, 0.0299947653, -0.0289440714, 0.1267255396, -0.0706729740, 0.0976134390, -0.0878989473, 0.0637517646, 0.0255458504, 0.1100502387, 0.0158917606, 0.1368675232, -0.0401597470, -0.0422721244, -0.0094852457, -0.0914695859, 0.0534579419, 0.0469579287, 0.1490995288, -0.1006329805, -0.2045605034, -0.1162016168, -0.1380707026, 0.0254203398, -0.1553108841, -0.0628462806, 0.1716023684, 0.1567486823, -0.1380236596, 0.0726892799, -0.0098101003, -0.0797444955, 0.0715244189, -0.0529573523, -0.0902311653, -0.0966278911, 0.0453865156, 0.0812932998, -0.1262932867, 0.1047498360, -0.0592140779, -0.1554986089, 0.0438221693, 0.0401118882, 0.0282857958, 0.1539926678, 0.0544956811, -0.0594441891, 0.0261363573, -0.0996670797, -0.0192854945, -0.0820979774, -0.1157298684, -0.0812000409, -0.1611672044, -0.0714795589, -0.0614399761, -0.0721904039, 0.1689613163, 0.1818956584, 0.1108799502, 0.0234626401, -0.0058786403, 0.1162242964, 0.0423128195, 0.0545168146, -0.1163062155, -0.0306619219, 0.1005356610, 0.0672271922, 0.0251488518, -0.0197470449, -0.1060292944, -0.0291386656, 0.1170628443, -0.0895269364, -0.0062811668, 0.1031798273, -0.1070067585, 0.1211585924, -0.0329335742, -0.1039088219, -0.2128473073, 0.0628295466, -0.0196905490, 0.1578437239, 0.0875483528, 0.0214184802, 0.0033567986, 0.0060643149, 0.0910096541, -0.0884594247, 0.1572166383, -0.0181362201, 0.0331751220, 0.1760509163, -0.1110926196, -0.1219216213, -0.1372692883, -0.1389533877, 0.1340987533, 0.0045358995, 0.1421767920, -0.1089796945, 0.0961547717, -0.0679074749, 0.1707923412, 0.1684690118, -0.1821732074, 0.0768531039, -0.0129809976, 0.1585912853, 0.1412353069, 0.0454810299, 0.1341940761, -0.1108287126, -0.0789931864, -0.0723516867, -0.0942364186, 0.0991769880, 0.0513294786, 0.1169805378, -0.1077892557, -0.0010294387, -0.0045161992, -0.0905985683, -0.1389791965, 0.1664917171, 0.1295489967, -0.0533392094, 0.0228994414, -0.0804513991, -0.0846287087, -0.0321379639, 0.1049388126, -0.0933560356, -0.1251544058, 0.1190283671, -0.1339751780, 0.1627423316, 0.0401435904, 0.0420962833, -0.1729707271, 0.0222200584, 0.1243490130, -0.0103650009, 0.0832123533, -0.1911384016, 0.0902530700, -0.1128647551, -0.1404457092, -0.1694545150, 0.0302659515, -0.1598016620, -0.0582592599, 0.0910550728, -0.1350895017, -0.0240026284, -0.0053706337, -0.0829032212, -0.0836641192, -0.1149921492, -0.1678383201, -0.1558236480, 0.0345083065, 0.0327077731, -0.1488606632, -0.0480184928, 0.1005148068, 0.0735653639, -0.0203195792, -0.0586170219, 0.0856650174, -0.0920687392, 0.0760952756, 0.1664191037, 0.1521360129, -0.0184574667, 0.0382688269, -0.0511807948, -0.1117208153, 0.0754397437, 0.0133043807, -0.1447972655, -0.1299127191, 0.0774934366, -0.0602320023, -0.0182800461, -0.0551346205, 0.0748751312, 0.0416568257, 0.1191022918, 0.0757514611, 0.1106991768, -0.1048451960, -0.0086041167, -0.1912771165, -0.0884589478, -0.1852195263, -0.1077431291, -0.1666490883, 0.1034060121, 0.0902844593, -0.0505098738, 0.1367211491, -0.0625881255, -0.0287174117, -0.0505315661, -0.0061371806, 0.0628957152, -0.0564992353, 0.0932391658, 0.0521220081, 0.0283510219, -0.0106006851, 0.1052782312, 0.1116020754, 0.0324266851, -0.0305581614, 0.1467316151, -0.0478761978, -0.0000083721, -0.0060510775, -0.1238954663, 0.1751714796, 0.0861955732, -0.1606005430, -0.0850658044, 0.0708750561, -0.1141589805, -0.0154546341, -0.1009098813, -0.0170871448, 0.0590531342, 0.0750786066, 0.1477398276, -0.2145181447, 0.0671641305, 0.0628331825, -0.0348599963, 0.1004468575, -0.0152869532, -0.0278468486, 0.0447734259, -0.0885922462, 0.0326416604, 0.0788262710, -0.1374613792, -0.0388428532, 0.0138325794, -0.0244178269, -0.1555536389, 0.1464699805, -0.1812285334, -0.0276172329, -0.0353708789, -0.1637821347, 0.1100777909, -0.0982141644, 0.1235828698, 0.1915881783, 0.1643346995, 0.1169151887, 0.0623386353, -0.0463130772, 0.0060260990, -0.0731456950, -0.0926996469, 0.0050608260, 0.0645473450, 0.1372250915, -0.1661299914, -0.1236533821, 0.0870875269, 0.1608801037, 0.1384924799, -0.1458557099, 0.1034867316, 0.2281918973, -0.0811958462, 0.0473904572, 0.1978392750, -0.1400046796, -0.0031467271, 0.1257961988, -0.0232988596, -0.0769863278, 0.0341347605, 0.0161119979, 0.2246192396, 0.1945112348, -0.0282206833, 0.0371233262, 0.0989204496, 0.0002004965, 0.0496136844, 0.2002666891, 0.1350317746, -0.0133653665, 0.1450993270, 0.2212448716, 0.1228076667, -0.0245698318, -0.1791920662, -0.1624454111, 0.0192223899, -0.2805641890, 0.0102201020, 0.1471579671, 0.0689142942, 0.0470984243, 0.1519726217, 0.0557159409, -0.1265412867, -0.0887445807, 0.1374147683, 0.0785634220, -0.0193351414, -0.0761114061, -0.2057369202, -0.2118915617, -0.2085773647, -0.2821833491, -0.1171377599, 0.1864425987, -0.0234539695, -0.1737783104, -0.0262419712, -0.2579688430, -0.2575939596, 0.0539729893, 0.1841109544, -0.1402002722, -0.0461449921, -0.0470268875, 0.0589540042, 0.1821862906, -0.1031923369, -0.0133645060, 0.1412165463, -0.0303089917, -0.0151842153, -0.1023019403, -0.1018831208, -0.0073057278, -0.1074668095, 0.1456740797, -0.0855890960, -0.1013594121, 0.0051362417, -0.0218956787, 0.0712150410, 0.0174762867, -0.1942005157, 0.0294499416, -0.0177824423, -0.1194226518, 0.1054897904, 0.0421777107, -0.0478538424, -0.1547286808, 0.0661936924, 0.0473714061, 0.1187678277, -0.0091944588, 0.1205074936, -0.0786675811, -0.0771827549, -0.0004370701, 0.1076825559, -0.0169255752, 0.0863440484, 0.0636467338, 0.1567200273, 0.0520028174, 0.0775840431, 0.0967968479, -0.0276720934, 0.0967618972, 0.1642676145, 0.0621141419, -0.0755870342, -0.0220949911, 0.1891835183, 0.0234768074, 0.0644861013, -0.1650089622, -0.0654186904, -0.0945929214, -0.1347720325, -0.1106099933, -0.0575772375, 0.0937721208, 0.0332663283, -0.0805268511, -0.1149075478, -0.1523569822, 0.1078336835, -0.1403775066, 0.0044344608, -0.0139443213, -0.0837727338, -0.1454062015, -0.1491469741, -0.1934786588, 0.0033174793, 0.0384163037, -0.0497192107, -0.0783098266, -0.0922892764, -0.0866713747, -0.0009804219, 0.0391014814, -0.0646058619, 0.0509125516, 0.0504540093, -0.0737414658, -0.2004517764, -0.0453673117, 0.1543581486, 0.0757229775, 0.0126082134, 0.0199758224, -0.1192572862, -0.2002571523, 0.0435376652, -0.1861215532, -0.2573317587, -0.2298138440, -0.1619188040, -0.2089644521, -0.1168959588, -0.0554223992, 0.0777603611, 0.0702449977, -0.1062630787, -0.0279172473, -0.0390418023, -0.0094064102, -0.2269636393, 0.0654997677, 0.0975550488, 0.0037563024, 0.0166499335, 0.3357248008, -0.2415882796, -0.0954405740, -0.1603838652, -0.1354896426, 0.0487481132, -0.0131304152, 0.0069327457, 0.1572873294, -0.0291625857, 0.0395549498, 0.0571046099, 0.2136380076, 0.0241231229, -0.1710737199, 0.1755888164, 0.1914335191, -0.0748144016, 0.0193799529, -0.0933970064, 0.0512921251, 0.0070059705, -0.1282449365, 0.0662693158, 0.1207755432, 0.0870231017, 0.1526426375, 0.1770801693, 0.0949006602, -0.0435581282, -0.1391553879, -0.1267305315, 0.0532579571, -0.0531061925, -0.0272383522, -0.1095640659, -0.1788606048, 0.0500630736, -0.1825065911, 0.1424284130, -0.0058512837, 0.1215317622, 0.0130829681, 0.0684430227, -0.0072379820, 0.0012296147, 0.1035835892, 0.1037159190, -0.2000067979, 0.0696772784, -0.0476668254, 0.0478432029, 0.0512656793, -0.1751067191, -0.1558389068, -0.0365781523, -0.0090833455, -0.1461383700, -0.1255574822, 0.0398363657, -0.0276944339, -0.0687857345, 0.1325953603, 0.0501596481, -0.1704795063, -0.0773735195, -0.0240359399, -0.0680751279, 0.0685913339, -0.1947324872, -0.2754759490, 0.0231853183, -0.0687113404, 0.0544452928, -0.1464127600, -0.1479715109, -0.1362195611, -0.1881159395, -0.1273886561, -0.0828930065, 0.0874964148, 0.1509434134, 0.1039876789, -0.1146032065, -0.0680279732, -0.1205016449, -0.2136956155, 0.1549535841, 0.0299546588, -0.0699131265, -0.0217308644, 0.1119573116, -0.1789740622, -0.0563452132, 0.1664230227, 0.0565500967, 0.0880937278, -0.1215580702, 0.1247788519, 0.1691115797, 0.0761129633, -0.0714186206, -0.1100329086, 0.0259087756, 0.0420215726, 0.0587153323, -0.0446402654, 0.1135513261, -0.1022376046, -0.1846112758, 0.1377074569, -0.0470607802, -0.0970527381, -0.0405877233, 0.1263828427, 0.0881098136, -0.0528297797, -0.2081360072, 0.0036365958, 0.1361012012, -0.0146220699, 0.0346998982, 0.1033492535, 0.0518513098, -0.1512379646, 0.0231962204, -0.1357501298, 0.0453723259, 0.1156264246, -0.1462189704, -0.1142162755, -0.2599102557, -0.0612441860, 0.0399989113, -0.0604068413, 0.0548200980, 0.0940806270, -0.0766812637, 0.0622607023, -0.1240029335, -0.0030140940, 0.0840308666, 0.0448106900, 0.0262740087, 0.1283907443, -0.1264071912, -0.1215348989, 0.0483010784, 0.1033673361, 0.0096419659, 0.0163749792, 0.0938776135, -0.0988596976, 0.0259146839, 0.1065015346, -0.0601600818, 0.0840038881, -0.0719248801, -0.0873570517, -0.0680353343, 0.0337931588, 0.0889463350, 0.0718622357, 0.1307867169, 0.0552539565, 0.2483865172, 0.1629751325, 0.0709047318, 0.0930040628, 0.1755368859, 0.0098515600, 0.0779301077, 0.0969682485, 0.2107295543, 0.1359383762, -0.0795545876, 0.1520901471, 0.0271844976, 0.2267401814, -0.0155657101, -0.2654367387, 0.1168363690, -0.1621424407, 0.0984259695, -0.0151151028, 0.1763925999, 0.0951420963, 0.1090982482, -0.0721918643, -0.0172714405, -0.2368121892, 0.0802751929, 0.0931679904, -0.0066747395, 0.0236010477, 0.1494132578, 0.0032821326, -0.0974174440, -0.0604483522, 0.0198187418, 0.0552634411, 0.0262685735, -0.1219841093, -0.0290642697, -0.0217947345, -0.1487415135, -0.0720833689, -0.0005419161, 0.0082701202, 0.0376280472, -0.0381388143, 0.1536280960, -0.0879857689, -0.1365214735, -0.1360819638, 0.0860166326, 0.1793203652, -0.1380791515, -0.0783491656, -0.0100416932, -0.0614476986, -0.1672897041, 0.0217457116, -0.1470312178, 0.0198749416, -0.2290249765, -0.0146454470, -0.0295811687, 0.1278619617, -0.0033209193, 0.0734223053, -0.2417588979, -0.0894950777, -0.0205011778, -0.2214517891, 0.0659676269, 0.0659058988, -0.2068613619, -0.1002972797, -0.0115008783, -0.1633230150, -0.0426988155, 0.0935544819, -0.1652984768, 0.0072054020, 0.1048723161, -0.1340613663, -0.0852894187, -0.1534314156, -0.1004627123, -0.1027741060, -0.0228089634, -0.1648211926, -0.0423076153, 0.1478121728, -0.2293837816, 0.1907984912, -0.1696785390, -0.1827112585, -0.1108844280, 0.1199725419, -0.0435803235, 0.2624622285, -0.1250692606, -0.1007325724, -0.2228596061, 0.2485442758, -0.0420642979, 0.2079471201, 0.2309832126, 0.1386154443, 0.2996065021, 0.1124988720, 0.1962413341, 0.1295378208, -0.0004330514, 0.1543751359, 0.2009999454, 0.0671394840, 0.0711687654, 0.1027323753, 0.1780991703, -0.0561275817, 0.0319768675, 0.1271744370, 0.1725368202, -0.0386063792, -0.0494508334, -0.1416190863, -0.0774593577, -0.1033721864, 0.1340756565, -0.0532091670, -0.1560667008, -0.0135670602, 0.0851005614, 0.0974069908, 0.0311019756, 0.1054078564, -0.1462430656, 0.1310286373, -0.0501475856, 0.1019116640, 0.1328900903, -0.1312848479, -0.0692434683, 0.0620345511, 0.1053956822, 0.0413817391, 0.0947651938, -0.1022023112, 0.1281271726, -0.1784892231, -0.0742862374, -0.1477472931, -0.0395587385, 0.0378007591, 0.1051585153, 0.1330052763, -0.1047326028, -0.0187546704, 0.1077569649, -0.1944795549, 0.0551443845, -0.0342135653, 0.0357862636, -0.0947221816, -0.0523701273, 0.0371793993, -0.0292094126, -0.0468636639, -0.0885063410, -0.1169132367, -0.1134879664, 0.1131265759, -0.0509307161, 0.1394643933, -0.0891598389, 0.0439284146, 0.1018079519, -0.0817801431, 0.0837295428, -0.0639118925, 0.0583089553, 0.0138649382, -0.0299043376, -0.0567063540, 0.0373393409, 0.1247831583, 0.0277827829, 0.0543884300, -0.0510318205, -0.0563737340, 0.0240164921, 0.0444791280, 0.1561096907, 0.0994528979, 0.0475734733, 0.0525517091, -0.1197352931, -0.1400406361, -0.0148896705, -0.1771220863, -0.1523331553, -0.0679633617, -0.0633647889, -0.0587907024, 0.0133655723, 0.0782746971, -0.1680845171, -0.1033404917, 0.2145229131, -0.0979945734, -0.0582375340, 0.1205269173, -0.1845779568, -0.1061440036, 0.0118238870, 0.1493622959, -0.0621522181, 0.0639336407, -0.1367507875, -0.0653767139, -0.1056051925, -0.0463638194, -0.1169911623, -0.0669146702, -0.0425435193, 0.1891550422, 0.0539093614, 0.1508787423, 0.0105201704, -0.1064605415, 0.0408326313, -0.1044428647, 0.0745656863, 0.1098616198, 0.1517719328, 0.1311205626, -0.1113894060, 0.0218439735, 0.0585311949, -0.1220931187, -0.0133392792, -0.0775354952, 0.2778519690, 0.0316598602, 0.0248914156, 0.1230733022, -0.0561099350, 0.2368916869, 0.1426705420, 0.2043164968, 0.1212399900, 0.0978149250, 0.0208353717, -0.3789033592, -0.1818775684, 0.0326043218, -0.0236227531, -0.0482789874, 0.0808048397, 0.1196026206, -0.2271472365, -0.2282477617, -0.2939384878, 0.0936942846, -0.4337248802, 0.1770271063, 0.0565330796, -0.0049244808, 0.0938409418, -0.1315731555, -0.0627982095, -0.2195447087, 0.1026066616, 0.0956763923, 0.1234705821, -0.0552205890, -0.2433776408, -0.0392976068, -0.2059703916, -0.1341100633, -0.2782608867, -0.0550431386, -0.0650604293, 0.1254053712, 0.1029496118, -0.0217577685, 0.0834620148, 0.0376288332, 0.0139778983, -0.1365714967, -0.1350990683, 0.0287713073, 0.0146126542, -0.1253300905, -0.1104921848, 0.0421167985, -0.1559856534, -0.0510125905, 0.0063227750, -0.1065416560, -0.0466641076, 0.0301548708, -0.1579760760, -0.0735412464, 0.0823606327, 0.0244195592, 0.1336976886, 0.0379579216, 0.0396805406, -0.0351113901, -0.1873788685, 0.1856871098, -0.1217169836, 0.1078549698, -0.0126765082, -0.0950214788, 0.1222386658, -0.0341942906, 0.1665606499, 0.1934537441, 0.0995202214, -0.0987775400, 0.0952642336, -0.1034465134, -0.0315746106, -0.0217763297, -0.0922887027, 0.0909581110, 0.1461561024, 0.1319776624, -0.1324114799, 0.1187438965, 0.0825480074, 0.0421772525, 0.1302537024, 0.0055141761, -0.0406659022, 0.0339374542, 0.1400490254, -0.1118370593, 0.0716496557, 0.1707139313, 0.0674061105, -0.0944945216, -0.1056291685, 0.0636569113, -0.1522926241, 0.0353173688, -0.1365061998, 0.0925462469, 0.0204450581, -0.0575487316, -0.1009144187, 0.1274634749, 0.0120296888, 0.0170066133, -0.0097674029, -0.0905243829, 0.1179668233, 0.1318163872, -0.1307250559, 0.0585461445, 0.1018655077, -0.1977847070, 0.0367337614, 0.0858803317, -0.0092492355, 0.0667052120, 0.1187001243, 0.0033923883, 0.0334720016, 0.0828003660, -0.1030638292, -0.1546638310, 0.0602212921, 0.0332350954, -0.0071753557, 0.0643513203, -0.0111380126, -0.1579518616, 0.0267284643, 0.0308692567, 0.1247057021, 0.1139655113, -0.0414375961, -0.1505905390, 0.0193871986, 0.0485351272, -0.0549198166, 0.0683166087, -0.1706002504, 0.0600384809, -0.0005263707, -0.0526374765, 0.0794728175, -0.0786626339, -0.0523134544, 0.2583653629, -0.1794917732, -0.1186796054, -0.0625428632, 0.1548620164, 0.1171376184, 0.1053619385, -0.0904160738, -0.0950378329, -0.1030830964, 0.1593773067, -0.1609013975, 0.1966165155, -0.0553985015, 0.0421748422, 0.1190144718, 0.1251047701, 0.0528122224, 0.0354311392, -0.1149633452, 0.1313760132, 0.1934207380, 0.1034596488, 0.0742695853, -0.0561081879, 0.1307750493, 0.0329512060, 0.1229736581, 0.0045376020, 0.1753523350, -0.0929105207, -0.0248340461, 0.1802142262, 0.0305529907, -0.0744464695, 0.0890207812, 0.1175636202, -0.0709762350, 0.1048179641, 0.0997564122, -0.0384099856, -0.0984941497, 0.0288316719, -0.1488678902, 0.0072690928, -0.0326430909, 0.0842064545, -0.2541716099, -0.0884237811, -0.1665420681, -0.0725926384, -0.1603868306, -0.2058156878, -0.0921955779, -0.0630291775, -0.0860366672, -0.1249347776, -0.1754760146, 0.0271813907, 0.0675747693, 0.1305026859, -0.0139407367, 0.0565587692, -0.0328085087, 0.1263463944, 0.0676836520, -0.0227679275, -0.1879455447, 0.0063512591, 0.1140442118, 0.1861029714, 0.1065192744, -0.0266272668, 0.0970057771, 0.1251824051, -0.1082148701, 0.0614223219, 0.0964856595, -0.0488157533, -0.0387949347, 0.0750110149, -0.1467409581, 0.1925682127, 0.0038556743, 0.1192852557, 0.0077613350, 0.1614627093, 0.0143776769, 0.1549664140, 0.0892346278, 0.2263869941, -0.0440973938, 0.1214561090, -0.0373317339, 0.0464921668, 0.1463635862, -0.0743366554, 0.0817704499, 0.0467585288, -0.0518433787, -0.0859902129, 0.2017806619, 0.0804339871, 0.0506257415, 0.0231069624, 0.1581828594, -0.0938931108, 0.0353113748, 0.1787754744, 0.0464314595, 0.0057484470, -0.0442554764, 0.0812885091, -0.0612618588, 0.1852991432, -0.1141839996, -0.2104755491, 0.0666753724, 0.1222685277, 0.0775765553, 0.2104133070, 0.0344840251, -0.0847179517, 0.0118823927, -0.0616528206, -0.0068858438, -0.1323355436, -0.2525440156, 0.1261365414, -0.2124604732, -0.0320198424, -0.2344704866, -0.0392932333, 0.1330358088, 0.0501913615, -0.0680606738, -0.0847936496, 0.0662970543, -0.1039299741, -0.0314403474, -0.1244314462, 0.1218428835, 0.0279929750, -0.0245541073, -0.1694014370, -0.0076098214, -0.0898803249, -0.2149841189, 0.0279398281, -0.1543243378, 0.0918722302, 0.0602950528, -0.1745247841, -0.0206471384, 0.0213107131, -0.0164935216, -0.0715005547, 0.0696973056, 0.0032395266, 0.0811502188, 0.2929662168, -0.1762303710, -0.0522621274, -0.1695511043, -0.1483445168, 0.1970338672, -0.0150979562, -0.0291440152, -0.1882652938, -0.1572564989, 0.1357581764, 0.1774039567, 0.1677383929, 0.0567590669, -0.0596212074, 0.0740487054, 0.1354207546, -0.0870943815, 0.2438978255, 0.0216105226, 0.0509142727, 0.2563606501, 0.1578307003, 0.0758544207, 0.0210989062, 0.0014465575, 0.1237828508, -0.0319374762, 0.0996261314, 0.1151292324, -0.1993796974, 0.1521352232, 0.1640472859, -0.1011150554, 0.0744791850, 0.0415203422, -0.1924963892, -0.1463821828, 0.0673848242, 0.0694456026, -0.0210899059, 0.2016459852, -0.0645641908, -0.0450964682, 0.0051085642, -0.1501600742, 0.0460162275, -0.0679977536, -0.0608514845, -0.0034710807, 0.2280647010, -0.0468099862, -0.1541481614, 0.2088914514, 0.0369666889, 0.0007412525, 0.1731121540, 0.1509912312, 0.0636156723, 0.1804232001, 0.1272495389, 0.0823040232, 0.0483875014, 0.0181308407, -0.0189422406, 0.0469856933, 0.1703777313, 0.0446290076, -0.1216604859, -0.0129969837, 0.0927761644, 0.0549776033, -0.0549564958, 0.1106364578, -0.0836244524, -0.0056697438, -0.1616499722, -0.0964170769, -0.0818136185, -0.0992131904, -0.1364142001, 0.1000788435, 0.1389737427, 0.0939254165, -0.0967855603, 0.1042174399, -0.1301551908, -0.1265397072, -0.0817984194, 0.1129947901, 0.1147461757, -0.0069116224, -0.0647796988, -0.0203597378, -0.0177439898, -0.1111314967, -0.1399767995, -0.1891669035, 0.0303284526, -0.1627952605, -0.0911880210, -0.0846740529, -0.1782847792, -0.0424819961, 0.0773111284, 0.0369312316, 0.1003142074, 0.0167515259, 0.0686157718, -0.0779567063, 0.0728703812, -0.0422399193, 0.0083076628, 0.1113357916, -0.0969277173, 0.0001955532, -0.0397766903, -0.0669948384, 0.1048547700, -0.1444345117, 0.0794689134, -0.0607051030, -0.0414330214, -0.1899656802, -0.1331720799, 0.0412969813, 0.0658516362, 0.1740070432, 0.1800069660, 0.0408407301, 0.1798966229, -0.0339732841, 0.0607177056, 0.1630337238, 0.0528439283, -0.0720782802, 0.1339103729, 0.0592411235, 0.0938769281, 0.1925507635, 0.1079143956, 0.1958403289, -0.0028352099, 0.1564385593, 0.0291582067, -0.0386860520, 0.0639744252, -0.0633654073, -0.2183699608, -0.1169136092, -0.1592722982, 0.2130583674, 0.1057039872, 0.2315530181, -0.0543116741, 0.0971545875, 0.0129278274, -0.1191244349, -0.1404165030, 0.1261944473, 0.0470200963, -0.1162681356, 0.0124821542, -0.1326136738, -0.0512756780, -0.0754482821, -0.1327389777, 0.1012028158, -0.0185140911, -0.0463079400, -0.1282289922, 0.0819759816, 0.0246851724, 0.0614259429, -0.1376131177, 0.0249709338, -0.0307333525, 0.0184822306, 0.0815980136, -0.1836522222, -0.0884499475, -0.0784205198, 0.0271394979, 0.0456425138, -0.1532143205, 0.0831157863, 0.0579437651, -0.0917044804, -0.1272835284, 0.0954717025, -0.1801468134, -0.0662836581, -0.0946834385, 0.0413860455, 0.0794502944, -0.0044645984, -0.0237189811, 0.1404356807, 0.0464776121, -0.1392440945, -0.0797853470, -0.1173079163, -0.0664215833, 0.0014120518, -0.1294839233, 0.1466816962, 0.1048409119, 0.1072812751, 0.0962274075, 0.0430082642, -0.1153285578, -0.1189524382, -0.1242972240, 0.0650979578, 0.0889119729, -0.0529464707, -0.1243269518, 0.0378464423, 0.0048717745, 0.1456827074, -0.0548072383, -0.0663774833, -0.0874841809, -0.0191625431, 0.1617714316, -0.1965885013, 0.0287961625, 0.0027632713, -0.1143614575, 0.1895486861, -0.0621679984, 0.1172211692, 0.0091953073, -0.0122562246, -0.0644855276, -0.0568763465, 0.0258883145, 0.1940671653, 0.0702777281, 0.1286787689, 0.2509889305, 0.1047830805, 0.0230272431, 0.0570181385, -0.0073527875, -0.0310075674, -0.0151591320, 0.1714866608, 0.1724574268, -0.0112235267, 0.2389656156, 0.0084669208, -0.0204481687, -0.0536359437, -0.0260069072, 0.0912400484, 0.1601484120, 0.1374861747, 0.1642026901, -0.1036764309, -0.1901978552, 0.0497838445, 0.0276959967, 0.1948039234, 0.1028357819, 0.1604717970, 0.1455029398, 0.0067339214, 0.0704498589, -0.0391721725, -0.1720228791, 0.1259239763, 0.2306234986, 0.0020070737, 0.1127105504, -0.1748588383, 0.0691972747, -0.0953355655, -0.0925482661, 0.0462339409, 0.1963539720, 0.0364555269, -0.0583065525, 0.1340180933, -0.0462803319, 0.0184973199, -0.0790870041, -0.0942975134, 0.1554688215, 0.1016633809, 0.0411880761, 0.0581333190, 0.1452315003, 0.1974384487, 0.1087885872, 0.1141390949, 0.1199584529, 0.1185570955, 0.1565537006, 0.1430403739, 0.1907013059, -0.0837043077, -0.0297131576, 0.1659356952, 0.1424015909, -0.0299131423, 0.0851059034, -0.1162872687, -0.1490043700, -0.0123012597, 0.0104445918, 0.2137502432, 0.1343951821, 0.1936362684, 0.1990268230, 0.1894778758, -0.0690707117, -0.0675348714, -0.0979577079, 0.0040866737, 0.1911651939, 0.0623063110, 0.1989539266, -0.0473610535, -0.0107742948, 0.3054203391, 0.0293956529, 0.1510337293, -0.0479476079, 0.0436721072, 0.1172755435, -0.0348615944, 0.0466267653, 0.2002026439, -0.1943409592, 0.0023534496, 0.0112797059, -0.1169429868, 0.1870533079, -0.0527004562, -0.2702233493, -0.1870517433, 0.0318895578, 0.1206741929, -0.0218833499, 0.1316710413, -0.0429751426, -0.0117426300, -0.2553182244, -0.1097458825, -0.2158980668, -0.0317919999, 0.0535464622, 0.0466772132, 0.0698520169, -0.1796593368, -0.1997893304, 0.0108181909, 0.0791485682, 0.0506624505, 0.0973945335, 0.0165616963, 0.0842750669, -0.0262212120, 0.1236142218, -0.1590494812, 0.0212557930, -0.0373244956, 0.0965311527, -0.1205560043, 0.0082025127, -0.1297125816, 0.0631199554, 0.3061507642, 0.2066103965, -0.0082531832, 0.1121986359, -0.1578128189, 0.0603410974, 0.0527471974, 0.0993714407, 0.3241645992, -0.0596681945, -0.0134705976, 0.0406709947, -0.0149920667, 0.1461171359, -0.2025347501, -0.1517841518, 0.1220625937, 0.1515650749, 0.1650472283, 0.2135961056, 0.0839677379, 0.0250227824, 0.1725579798, 0.1710691601, 0.0797040910, -0.1656573266, 0.1187913194, 0.0051451679, 0.0077027269, -0.0531066880, -0.1412855983, -0.3740069568, -0.1629333943, -0.3107682765, 0.0526614524, 0.2317680568, -0.0297355093, -0.3276239038, 0.0560879335, -0.1100087538, -0.3108932972, -0.1668417901, -0.1040604860, 0.0323761068, 0.0228985641, 0.1601379663, -0.1713541150, -0.0317339823, -0.0952049345, -0.0504731126, -0.0490447842, 0.0017320534, -0.0358860791, -0.2337566763, 0.0883965269, -0.2290171832, -0.2764603198, -0.1337490976, -0.1853070110, -0.0474540144, -0.0329197608, -0.0769307837, -0.2961900234, -0.2064230740, -0.0973320976, -0.0119375261, 0.0438094959, 0.1037723571, -0.0947999284, -0.2037445456, 0.1192221865, -0.1472070068, -0.0599025302, -0.0531423055, -0.1878159344, 0.1180657074, 0.0577626638, -0.0647300258, -0.1502743065, -0.1050893888, 0.0079824487, 0.1924268007, 0.0406073667, 0.0076524098, 0.0279195849, 0.1183807403, 0.0951052010, 0.2256537974, 0.1708035618, -0.0118976217, -0.0404106788, 0.2823338509, -0.0171996187, 0.0814398080, -0.0802290738, -0.0073443828, 0.0848725513, 0.0092300558, 0.0777824000, 0.1658243090, 0.1204411536, 0.0309691615, 0.0158820748, -0.0929223523, -0.0256956592, -0.0541275702, 0.1567733437, -0.0639558882, -0.1105151176, -0.0525836982, -0.1465427727, -0.0683621094, -0.0799491331, -0.0309999790, 0.1923881620, 0.0304014366, 0.0301226005, 0.0368607976, 0.2263767421, -0.0516329221, -0.2131337225, -0.2667676806, 0.0440370068, 0.1529692411, -0.1000428870, -0.1128669679, 0.0374981165, -0.1416853070, -0.0530642234, 0.0402857251, 0.0360369161, -0.0565660410, -0.0342657454, -0.1861448288, 0.0195977595, -0.0662142262, 0.0392252654, -0.1524455994, 0.0989466533, 0.0968543962, -0.2033314556, -0.1016688421, -0.2275180817, -0.2059771866, -0.1200746447, -0.1095362678, -0.1598606557, 0.0449516512, 0.0276897214, -0.0430097505, 0.0427788794, -0.1100076512, -0.0566623621};
#endif

#endif
