//Numpy array shape [9, 32, 64]
//Min -0.299329787493
//Max 0.397859424353
//Number of zeros 0

#ifndef W8_H_
#define W8_H_

#ifndef __SYNTHESIS__
conv1d_2_weight_t w8[18432];
#else
conv1d_2_weight_t w8[18432] = {0.0642164648, 0.0525805913, 0.0002466438, 0.0359162837, -0.0226019602, -0.0899350494, -0.0656913519, -0.0806058049, -0.0716293901, 0.0342074595, -0.0026188185, -0.0887437761, -0.0492404923, -0.0095981080, 0.0664333329, -0.0502983816, 0.0622781776, -0.0406924933, -0.0436059050, -0.0815519914, 0.0034418707, -0.0741065517, -0.0398784690, -0.0423521437, -0.0463193059, 0.0369785391, -0.0430966057, 0.0000298978, 0.0584382229, -0.0541905463, 0.0357697643, -0.0785936788, -0.0231250376, 0.0583411753, 0.0688244253, -0.0101922192, -0.0467886478, -0.0138586089, 0.0478782654, -0.0491122566, 0.0552058592, -0.0218217261, -0.0837323964, 0.0060852156, -0.0675342828, -0.0873469934, 0.0137900198, -0.0177682098, -0.0599420778, -0.0061440924, -0.0247757901, -0.0726035535, 0.0427494533, -0.0810192525, -0.0681226924, 0.0352763832, -0.0682385713, -0.0144946966, 0.0402429774, -0.0728563219, -0.0645833313, 0.0233862009, 0.0381821878, -0.0716697946, -0.0201952234, -0.0403478332, -0.0806705728, -0.0001844392, -0.0030137787, 0.0645729303, 0.0412763543, 0.0281301048, 0.0186491385, -0.0537967682, 0.0692362338, 0.0365738310, 0.0119187832, -0.0826757774, -0.0031508172, -0.0027244415, -0.0190793909, 0.0225040652, 0.0419369787, 0.0582848527, -0.0487889275, -0.0570025183, 0.0232666209, -0.0210936740, -0.0705784857, -0.0629214272, 0.0427928008, -0.0859737471, -0.0056620990, -0.0851747468, -0.0243284944, 0.0340241529, 0.0041772975, -0.0488493927, -0.0038493695, -0.0428092293, 0.0440968089, 0.0211616307, 0.0216017161, -0.0285123736, -0.0198640283, -0.0256103128, 0.0389190912, 0.0025417297, -0.0925116017, 0.0302943680, -0.0677602738, -0.0162352528, 0.0189859681, 0.0265230648, 0.0217054598, 0.0536543466, 0.0682142153, -0.0109177548, -0.0532312617, 0.0137347160, -0.0123222759, -0.0058219079, -0.0160488747, 0.0335377045, -0.0420600176, -0.0135447243, -0.0207897928, -0.0129171656, -0.0083332947, 0.0231201965, 0.0457751788, 0.0624085441, 0.0309583228, -0.0834922567, -0.0974958092, -0.0385034233, -0.0088560693, -0.0441199616, -0.0946086049, -0.0728057995, -0.0723222196, 0.0419570804, 0.0150891598, -0.0265702419, -0.0881503746, -0.0632376149, 0.0214004777, -0.0079945242, -0.0423419960, -0.0319631882, 0.0464972891, -0.0365405381, 0.0077176406, 0.0329444855, 0.0556260906, -0.0459832251, 0.0311536491, 0.0532606617, -0.0340743698, 0.0578844622, 0.0584137551, -0.0621017106, -0.0771113411, -0.0147151705, -0.0781145096, -0.0670954585, -0.0489545763, -0.0804880261, -0.0483113006, -0.0868246108, 0.0137486830, -0.0812626407, -0.0549142174, 0.0426894985, -0.0644011199, -0.0277349744, 0.0348267592, 0.0722385868, 0.0553157404, -0.0207410343, 0.0209059995, -0.0620160215, -0.0166099258, 0.0668993518, 0.0351433158, -0.0374792218, 0.0243679956, -0.0610241555, -0.0080231344, 0.0350434706, -0.0884698704, -0.0070220008, 0.0053631715, 0.0376459435, -0.0811384022, -0.0242146794, 0.0264294725, 0.0547213405, -0.0406094976, -0.0910629928, -0.0453478955, 0.0078434125, -0.0514859147, -0.0005376714, -0.0979205444, -0.0234904084, 0.0194072966, 0.0711830631, -0.0431245193, -0.0599630214, 0.0337289795, -0.0872375295, 0.0019945481, 0.0203449205, -0.0363245681, -0.0468809009, -0.0925882235, 0.0204957798, -0.0170494467, 0.0532903038, -0.0735549480, 0.0692427233, 0.0509513803, -0.0493015572, -0.0064506903, 0.0194003563, -0.0437333658, -0.0625749230, -0.0328778848, -0.0420760885, 0.0119075980, 0.0090375245, 0.0408495106, -0.0688995272, -0.0437751599, -0.0929042920, 0.0928052887, -0.0147169176, -0.0883627534, -0.0628479421, -0.0076223952, 0.0239102412, -0.0399477892, 0.0499805361, 0.0743119493, 0.0696695000, 0.0315926857, -0.0173997078, 0.0608115084, 0.0161314253, 0.0465260483, 0.0261186901, 0.0326651335, -0.0348799415, -0.0641253814, -0.0525254048, -0.0067073023, -0.0114555014, -0.0434382670, 0.0182622410, -0.0904223174, 0.0088016195, -0.0393923260, -0.0730420500, 0.0285337772, -0.0444129184, -0.0052174297, 0.0097070318, -0.0141332299, 0.0405252725, -0.0232809316, -0.0405798480, 0.0003397262, -0.0479928739, -0.0558189042, -0.0026653332, -0.0606167950, -0.0640665740, -0.0312358830, -0.0602864847, 0.0277054049, 0.0168515444, -0.0718915388, -0.0861585960, -0.0861582831, 0.0483753458, -0.0136746559, -0.0420114361, 0.1407017857, 0.0296262298, 0.0616164431, -0.0927332640, 0.2542329431, 0.1488846987, 0.1986612976, 0.0296038073, 0.1329230964, 0.2248334587, 0.0268840380, 0.0865178928, -0.1322349906, -0.0396664105, 0.0476074331, -0.0495236218, 0.1927083582, -0.0448437780, 0.1493831277, 0.1038420498, -0.0778471902, -0.1570891887, 0.0666972175, 0.0837000608, 0.1052715629, 0.2412779927, 0.0853076354, -0.0558135547, 0.1271990389, 0.0281580668, 0.2414268255, 0.0828204453, 0.0016246263, -0.0864999667, 0.0199292917, -0.0476945043, 0.1960844696, 0.1082646623, 0.0047998405, 0.1268227100, 0.1425789893, 0.0423222035, 0.0450654738, 0.0551933981, -0.0800976902, -0.0502158478, 0.0901221856, 0.0825600103, 0.1140053198, 0.0144216456, -0.0044933585, 0.0787883922, -0.1043060273, -0.0896850526, 0.0261230338, -0.1004768237, 0.0066365604, 0.0155918384, 0.1826070547, 0.1081363931, -0.0483501107, 0.0394224450, 0.2082406580, 0.2000673115, -0.0630451962, -0.1325144470, 0.0387275405, 0.0178726297, 0.0171316247, -0.1281614155, -0.1077684313, 0.0319984630, 0.0236650594, -0.0569703691, -0.0458406620, -0.0143570825, -0.0511531867, 0.0010961110, -0.0833535939, -0.0575158857, -0.1614941806, 0.0019364589, -0.0662545860, -0.1218251958, -0.0631531775, -0.1256437600, -0.0611943118, -0.0046284897, 0.0551003963, 0.0567910783, -0.0313443169, -0.0779818222, -0.0551962554, -0.0032283014, 0.1432929933, 0.0771693289, -0.2329057008, -0.0690086186, -0.0759076178, -0.0070734313, -0.1844444722, -0.1254501194, -0.1785653532, -0.1398414820, -0.1589049697, -0.0419847071, -0.0446659923, 0.0377343148, -0.0412889980, -0.1303462982, -0.0628861636, -0.0290891957, -0.0828620642, 0.0071250447, -0.1060350612, -0.0486658439, -0.0439772122, -0.0461707152, -0.0191152524, -0.1321372241, -0.0507709049, -0.2020431608, -0.0070074326, -0.0700712278, -0.0574313365, -0.0477081798, -0.1238052472, -0.0919617414, -0.1629524231, -0.0121019976, -0.0475285687, 0.0016639500, -0.1419237703, -0.0255817845, -0.0670503080, -0.1144509986, -0.1215616688, -0.0862170011, 0.0681861341, -0.0045510312, -0.0280902237, 0.0322540663, -0.1825083345, -0.0429430120, -0.0800016969, 0.1674060524, -0.0863678679, 0.0058282553, -0.0192861296, 0.0269395579, -0.1014000699, -0.0109185362, -0.1135864556, -0.0422176495, -0.0490091294, -0.1422756463, -0.0984675214, -0.1313960701, -0.0600323863, -0.1167697832, -0.0743789151, -0.0447432175, -0.0542479716, 0.0610096753, -0.1540824920, -0.2099624872, -0.0193902999, -0.0567588732, -0.0588629022, -0.0925112814, -0.0109654209, 0.0038238063, 0.0494960509, 0.0425502956, -0.1546128094, 0.0039759493, -0.0590305775, 0.0155469812, -0.1439002156, 0.0597416684, 0.0570701398, 0.0944774821, -0.0322582349, -0.0116053931, 0.0414942056, -0.0187417232, 0.0422820598, -0.2123359293, -0.1638143808, -0.1683639288, -0.2075517029, -0.2097350657, -0.0007760101, 0.1251836568, 0.0208797082, 0.0201783329, -0.0664361417, 0.0266946275, -0.0887686163, -0.1493751854, -0.0241940748, 0.0058924016, -0.0390763693, 0.0512248538, 0.0261387564, -0.0065928223, -0.0599426217, 0.0088437330, -0.0618208051, -0.0250837766, 0.0234132688, -0.0128592141, -0.0483177081, 0.0332162008, 0.0217784587, 0.0012959982, 0.0648541301, 0.0417882130, 0.0035780631, -0.1560923755, -0.0260460544, -0.1600073725, -0.1257041991, -0.0509179346, 0.0774419904, 0.1200795025, 0.0145670082, -0.0404108167, 0.2777198851, 0.1583459526, 0.2180601209, -0.0440742746, 0.1606033742, 0.1640054584, 0.0918616951, 0.0288582165, 0.0297675952, 0.0279615745, 0.1278636158, -0.1233190596, 0.0982497633, -0.1277940422, 0.0344448611, 0.1357300133, 0.0149154309, 0.0555984043, 0.0531896427, 0.1138990745, 0.0558102690, 0.2649022341, 0.1108702123, 0.0259787831, -0.0182243567, -0.0349576846, 0.1209304929, 0.1541514099, 0.0793795511, -0.0013199237, 0.0394486934, 0.0016906162, 0.3373664021, 0.2657655776, 0.1505232453, 0.1407245696, 0.1797238737, 0.1253557950, 0.0414382257, -0.0680289567, -0.0526382439, -0.1290731430, 0.0874347612, -0.0425312258, 0.2047320753, -0.1064903215, 0.0984306335, 0.1158166751, -0.0177170653, 0.0365348123, 0.0910621509, 0.0462903455, 0.0796650201, 0.2106971592, 0.0264586080, 0.0828336403, 0.1966082156, 0.1309224069, 0.2861030102, 0.1857707798, -0.0338593386, 0.0320942625, -0.0148714380, 0.0603689551, -0.1745347977, -0.0428083166, 0.0301768519, 0.0321397632, 0.0256744735, -0.0714759603, 0.0041796826, 0.0026847336, -0.0047209570, -0.0255287569, -0.0786448717, 0.0948771834, -0.0399708115, 0.1555030048, 0.0396513455, -0.0651424453, 0.0895273015, 0.0350744650, 0.0046250350, 0.0573610775, -0.0742897987, -0.0625841171, -0.2179517895, -0.1247264519, 0.0387565009, -0.0248693880, -0.1184308752, -0.0826928988, -0.0198195651, -0.0471424833, -0.1161625087, 0.0056298445, -0.0733783543, -0.0767879859, 0.0364356078, 0.0410335362, -0.0047379285, -0.0481956862, 0.0884649903, 0.0168750025, 0.0409873016, 0.0102054290, -0.0384777822, 0.0980521590, -0.0714433417, 0.1746703386, -0.0470406562, -0.0308952462, 0.0066160467, 0.0037626685, 0.0368930027, -0.0150909526, -0.0019237588, -0.0903493166, -0.0561224595, 0.0735563263, 0.0408518799, -0.0026208083, -0.0899695158, -0.1278206110, -0.0170057938, 0.0676761717, 0.0900470763, 0.0713584572, -0.1708330959, -0.0363827273, -0.0841610581, 0.0346455500, 0.0397450812, -0.0789491460, 0.0856278837, 0.0081813531, 0.0344526023, -0.0065074232, 0.0011468951, 0.0059463037, -0.1110123470, 0.0254794098, -0.0185638461, 0.0434888005, 0.0145829925, 0.0051929816, -0.0039625471, -0.0555471256, -0.0204093959, -0.1352426708, 0.0645940155, 0.0143836420, -0.0206604432, -0.0093207266, -0.0487506054, -0.1242591515, -0.0546469837, 0.0084850760, 0.0713218674, 0.0989115238, -0.0695633590, -0.1452487856, -0.0701662898, 0.0255215243, -0.0316530727, -0.0528534576, 0.0328043848, 0.1050965264, 0.0850624591, 0.1871646494, -0.0021307636, 0.1247022003, -0.1285920739, 0.0880528018, 0.0621391572, 0.0689738840, -0.0051608765, 0.0855532810, 0.0236881170, -0.0300250202, 0.0202234145, -0.1559518874, -0.0169557407, -0.0893090740, -0.0804324970, 0.0331840776, -0.1337680221, -0.0957351178, -0.0341010839, -0.0090105534, 0.0067724185, 0.0734591708, -0.1389169842, -0.1075357571, -0.0341674276, 0.0289053172, -0.0859373510, -0.1109779254, -0.0508566909, 0.0585287511, -0.0070773428, 0.0641497001, -0.0244548414, 0.0851213112, -0.0666524842, -0.0435752980, 0.0383289754, -0.0412240401, 0.0930425450, 0.0423801243, 0.1198189333, 0.0954841971, -0.0194354653, 0.0176003370, -0.0813245177, -0.1588555723, 0.0434413701, -0.0008731937, -0.1587454975, -0.1387154162, 0.0166705772, -0.0758877918, 0.0019289574, 0.0505567119, -0.1096848547, 0.0270954259, 0.0084442450, 0.0214952249, -0.0620857142, -0.0208392162, 0.0708390325, -0.0220834855, 0.0850496441, 0.0522741340, -0.0152506037, 0.0971981809, 0.0008522953, 0.0156489313, 0.0161157586, 0.0426905304, 0.0334434658, -0.0090880739, -0.0562575385, -0.0987743288, -0.0672604591, -0.0932597965, 0.0596132353, -0.0374020934, 0.0655494407, 0.0202272162, -0.2015487701, -0.0298637580, -0.0089857699, 0.1377630383, -0.0375469625, 0.0723658577, -0.1247235984, -0.0651803240, -0.0248251017, 0.0848379731, -0.0497927777, 0.1009675711, 0.1178672537, 0.0370887965, 0.0053988397, 0.0419765711, 0.0014095766, 0.0133373216, -0.0479961224, -0.0152585786, -0.0135533791, 0.1016845852, 0.0435324088, 0.0089164684, 0.0191091485, 0.0658645555, 0.0308593400, -0.0962514654, 0.0433052368, -0.0327282175, -0.0238458831, -0.0036211759, -0.0706453174, -0.0522406138, -0.0275470801, 0.0791207328, 0.0358039103, -0.0231695361, -0.0521270819, -0.1731514335, 0.0411041565, -0.0186067224, 0.0101850061, 0.0851695687, -0.0081758136, -0.0588145629, 0.0586195067, 0.0802359506, 0.0666521788, 0.0091992533, -0.0513164662, -0.0149893416, 0.0339375511, 0.0050421627, 0.1384209096, 0.1136539727, 0.1190993711, 0.0865743458, 0.0238760523, 0.0074642985, 0.0090777827, -0.1737426370, -0.0700510591, -0.0734858140, -0.1840044707, -0.1081838012, -0.0667965561, 0.0845217481, 0.0048085186, 0.0496208407, -0.0841317475, 0.0497309007, 0.0602840781, 0.0064260247, 0.0480329022, -0.1010338068, 0.0407817923, -0.0029735102, 0.0076849950, 0.0198639594, 0.0122125363, 0.0666232929, -0.0978357494, 0.0810480341, 0.0243642721, -0.0666274503, 0.1032810956, -0.1063159630, 0.0066960542, -0.0377326235, -0.0435504839, -0.2246944010, -0.1318038702, -0.0241185836, -0.0411560275, -0.0540344268, -0.1056965739, -0.0053680413, -0.0768978819, -0.0319343545, -0.0792818815, -0.0188268255, 0.0341678970, -0.0884330496, 0.0267381892, -0.0400013179, -0.0399137214, 0.0606367141, 0.0480412431, -0.0760760307, -0.0241935030, -0.0776310265, -0.0405115820, 0.0137571488, -0.0127420081, 0.0615254045, 0.0101895621, 0.0223259162, -0.0134062311, -0.0612685271, -0.0868197456, -0.0931785852, -0.0849748999, 0.0003683328, -0.0933815762, -0.0907330438, -0.0109121129, -0.0458456576, -0.0390629917, 0.0253329426, -0.0804696903, -0.0073266746, -0.0417348519, 0.0659562498, -0.0755247846, 0.0384762138, 0.0714324936, 0.0504585057, -0.0485168360, 0.0046216631, -0.0121251186, -0.0605660640, 0.0241713431, -0.0302865375, -0.0430494398, -0.0765296221, 0.0146023734, 0.0647670329, 0.0707046762, 0.0087562799, 0.0076880986, 0.0263378397, 0.0489130877, -0.0615437962, -0.0143453348, 0.0296781790, -0.0424453728, 0.0259870719, -0.0752942264, -0.0761477724, 0.0245199874, -0.0949465707, 0.0585890710, -0.0823041946, 0.0385722257, -0.0119686928, 0.0427486897, -0.0499230325, -0.0665008500, -0.0090343440, -0.0430576243, -0.0420240089, 0.0446561910, -0.0738928393, 0.0245066062, -0.0387374572, 0.0007019566, 0.0179554261, 0.0090186605, 0.0347970910, 0.0472432263, 0.0699996576, 0.0324720144, -0.0055103851, -0.0060692076, 0.0347008258, -0.0807134286, -0.0936530232, -0.0689198598, 0.0091655832, 0.0585779250, 0.0258671641, 0.0412871242, -0.0137367649, -0.0409764498, 0.0553267337, 0.0089920899, -0.0228171125, -0.0195369646, -0.0780525357, 0.0242662616, -0.0391020961, -0.0129455635, 0.0465831906, -0.0351386182, -0.0269746929, -0.0839241743, -0.0613798574, 0.0503400452, -0.0993985832, -0.0502226129, -0.0157705788, 0.0128726056, 0.0047868192, -0.0319514312, 0.0066331965, -0.0986623764, -0.0441579707, -0.0429194309, 0.0106145162, 0.0074477657, -0.0433416888, -0.0625724047, -0.0069042174, -0.0012968895, -0.0821480229, -0.0375348590, -0.0283724926, -0.0580598004, 0.0418692231, -0.0691824406, -0.0294774342, -0.0387551226, -0.0021816902, 0.0077512278, -0.0844804421, -0.0175233595, 0.0362080410, -0.0400985107, -0.0675560385, -0.0153627302, -0.0505786873, 0.0262810141, -0.0296094306, 0.0591864660, -0.0239509940, 0.0022686413, -0.0254905280, -0.0084229074, 0.0022924861, -0.0874989852, -0.0275043901, 0.0288759060, -0.0713928938, 0.0284035485, 0.0235586278, -0.0693966076, -0.0471788906, -0.0776046142, 0.0168155413, 0.0292088650, -0.0252074245, 0.0082778949, 0.0630046949, 0.0086510470, 0.0038678602, 0.0026899986, 0.0459275134, 0.0267012957, -0.0131915957, 0.0562422536, -0.0823857710, 0.0319519341, 0.0035002499, 0.0104252482, -0.0922808498, 0.0152184013, 0.0400712155, -0.0844622701, 0.0687045753, 0.0654698014, 0.0676842630, -0.0887444839, -0.0899725258, 0.0573728234, -0.0139195109, 0.0238108430, 0.0494373553, -0.0641248524, -0.0150891729, -0.0376211703, -0.0033414559, -0.0852870643, 0.0033517589, -0.0593264624, 0.0417111516, -0.0255056173, -0.0848503932, -0.0064023999, -0.0351200625, -0.0235710330, -0.0684690103, 0.0274386704, -0.0738230497, -0.0603245944, -0.0411196835, 0.0500338711, -0.0555892698, -0.0443402156, -0.0458510369, 0.0670554563, 0.0478819348, -0.0345211253, -0.0752942115, -0.0976251140, -0.0901913270, -0.0409178287, -0.0357899703, -0.0889609829, -0.0204995126, 0.0145812901, -0.0126920203, -0.0190166626, -0.0826640800, 0.0142834969, -0.0876568928, 0.0037539080, 0.0012849347, 0.0279431324, -0.0343118273, -0.0736930594, 0.0562238730, -0.0430821925, 0.0158911720, -0.0127092618, 0.0396430604, -0.0437900946, -0.0701190233, 0.0036346023, 0.0626583248, -0.0196432974, -0.0578874946, 0.0020861079, -0.0366153382, -0.0052874857, -0.0688363910, -0.0588715672, -0.0404105857, 0.0481205545, 0.0241931882, 0.0103414012, -0.0491189510, 0.0533915274, -0.0302397478, -0.0078711463, -0.0851862654, -0.0235747900, -0.0707730949, -0.0265926514, 0.0232536960, -0.0073664365, -0.0139179807, -0.0942158997, 0.0649578571, -0.0294910744, -0.0461004302, 0.0571504757, 0.0056277323, -0.0192090254, -0.0879675969, -0.0715310276, -0.0400885455, 0.0501995124, 0.0450040027, -0.0582287721, -0.0427286215, -0.0554124340, 0.0443842746, 0.0156099647, -0.0421923622, 0.0017794570, 0.0655216277, -0.0559337139, 0.0354450494, -0.0382167436, 0.0092618885, 0.1001201347, 0.0036153884, 0.0027050320, -0.0199419409, 0.1149632409, 0.1997145861, 0.0330620743, -0.0091875866, -0.0808400512, 0.0536497533, 0.0079162223, -0.0330621377, -0.0855322704, 0.0712886974, 0.1145285666, -0.0606112257, 0.1799429506, -0.1010712385, -0.0117733506, 0.1239393950, -0.0304656979, 0.0919993967, -0.0656198040, 0.0752600804, 0.0048310091, 0.1933343112, -0.1159549803, -0.0826431662, 0.0381273888, -0.0473946631, 0.1331802160, 0.1085999981, 0.1082453877, 0.0070374864, 0.0966528654, 0.0252124313, 0.2017502338, 0.0831064805, 0.0126893139, 0.0797729865, 0.0178605244, 0.1679334342, -0.0314160511, 0.0186275877, 0.0793777853, 0.0830151290, 0.1567158401, -0.0660771728, 0.0967183113, -0.1196715832, -0.0149589088, 0.0568103716, -0.0320475250, -0.0302297585, 0.0165898390, 0.0667296052, 0.1188982427, 0.1090387926, 0.0518178716, 0.1621667743, 0.1020335257, 0.0273546297, 0.3305849731, 0.2470931411, -0.0223191809, 0.0275599621, -0.0652346611, 0.0683566630, 0.0037070261, -0.0118734697, -0.0076890248, -0.0620277897, 0.0737566501, 0.0408398807, 0.0375873819, -0.0286794472, 0.0730171055, 0.0177150723, 0.0123553025, -0.0236651655, -0.0170033742, -0.1045149863, 0.0086416500, -0.0674336031, 0.0182044581, 0.0644550472, 0.0576646887, -0.0004532516, -0.0107045248, -0.0901854411, 0.0578744523, 0.0630508289, -0.0602268130, 0.0115034785, 0.1113163456, 0.0898605064, 0.0699413493, 0.0506580397, -0.0163917840, 0.0260969047, 0.1487923712, 0.0187617261, 0.0149256922, -0.0172464009, -0.0300118066, -0.0640938506, -0.0185364224, -0.0774592459, 0.0350355022, 0.0323357992, -0.0455751605, 0.0234980304, 0.0966775492, -0.0377971008, -0.0438923538, -0.0114918798, 0.0119986301, -0.0795753002, 0.0257165916, -0.0609064214, 0.0167591609, 0.0496325791, -0.0242777672, -0.0045748162, 0.0280140601, -0.0162964407, 0.0264133178, -0.0572671853, 0.0136734219, -0.0415503234, 0.1316383928, -0.1118398979, 0.2487180382, 0.1457010061, 0.1447405368, -0.0169124510, -0.0266174600, 0.1809685379, 0.0697310194, -0.0495521277, -0.0772135928, 0.0799349695, 0.0918541029, -0.0410996601, 0.1913044453, -0.0595066398, 0.0582982525, 0.1533688456, -0.0264800433, -0.0290874522, 0.0252226889, 0.0445866920, 0.0839513540, 0.0355710238, 0.1464216411, 0.0823366717, 0.1410530508, 0.0005003379, 0.1597479135, 0.0458046570, 0.0596838407, 0.0220764019, 0.0273273494, -0.0245710798, 0.1513827741, 0.0955595374, 0.0535007119, 0.0291112456, 0.1557413489, -0.0379188433, 0.0429624580, -0.0009967732, -0.0650951564, -0.0752535835, 0.1163654104, -0.0510204993, 0.0931833386, -0.0611023195, 0.0768546090, -0.0591067933, -0.0796497315, -0.1868738085, 0.0504311919, -0.0491418280, 0.0569430329, 0.1041422412, 0.1361555457, 0.0889024809, 0.0883269161, 0.0549803786, 0.2389260381, 0.1807727069, -0.0093473401, 0.0176352337, -0.1228598729, -0.0230068527, -0.0741193295, -0.0568039827, -0.1249123812, -0.0367502794, -0.0395915769, 0.0095913941, 0.0069229226, 0.0148595059, -0.0122109978, 0.0637436435, -0.0287852716, -0.0200868621, -0.0902737528, -0.0107498225, -0.0504453331, -0.0872857124, 0.0638158843, -0.1229868010, -0.0878296643, -0.0696179867, -0.0284552481, -0.0941418111, 0.0708337799, 0.0569656342, 0.0326818526, -0.1116399094, -0.0908532739, 0.0274351314, -0.1103482321, -0.0919115022, -0.0540684909, 0.0636743009, -0.1190218553, -0.0437091216, -0.0429984815, -0.0606497377, -0.0669995695, -0.0829477757, -0.0408991836, -0.0089704413, -0.0626793131, 0.0420771353, -0.0416702442, -0.0082429312, -0.1343588531, 0.1393932700, -0.0585318543, 0.0866422206, -0.0839187801, -0.0429854691, -0.0611921996, -0.0689874887, -0.1514871567, -0.0989114866, -0.1214139611, -0.0398585647, -0.0141981775, -0.0497382283, 0.0149075780, -0.0317310728, -0.1494475007, -0.0580062382, -0.1341532916, 0.0092068734, 0.0250291228, -0.1127718464, -0.0717816055, 0.0392680429, -0.0106574744, -0.0650769472, -0.0437979065, -0.0168233477, -0.0131831085, -0.1267136037, -0.0893343166, -0.0150150815, -0.1562450081, -0.0009559430, -0.0769849792, -0.1212251037, -0.0322167315, -0.0008047302, -0.0543557480, -0.0541065373, 0.0054134815, -0.0127228275, 0.0095308162, 0.0020537234, -0.0719105825, -0.0746067464, -0.1704643667, -0.0580805689, -0.0505884625, 0.0797986835, -0.0874989033, 0.0074389908, -0.1187811866, 0.0173507910, 0.0342971720, -0.0986883938, -0.0650952458, 0.0243007876, 0.0449024998, 0.0154162524, 0.0691704825, 0.0646339431, -0.0620357171, -0.0739805624, -0.0623359494, -0.0748352036, -0.1145417467, 0.0038793078, -0.0254093725, 0.1302944124, -0.0470200740, -0.0116782868, -0.0644358173, 0.0411550552, -0.1071161479, -0.1009429470, -0.1809090823, -0.1381332874, -0.0430988222, -0.0393588245, 0.0922672376, 0.0452184081, -0.0038764607, 0.0557781570, -0.0608615465, 0.0086100642, -0.0308349151, -0.0430783220, 0.0373948477, 0.0478351861, -0.0721706003, -0.1194392592, 0.0059041842, -0.0281396732, -0.0418497473, 0.0187112410, 0.0282876696, -0.0459759906, -0.0230232645, 0.0301801916, 0.0242447350, 0.1541661620, 0.0590437241, 0.0002095831, -0.0091566704, 0.0626583025, -0.0656668544, 0.0431193337, -0.0352082513, -0.1024305150, 0.0140662640, 0.0804060474, 0.0559216700, 0.0924013630, -0.0048322831, 0.0375758521, 0.0416328795, -0.0036697034, -0.0005507599, -0.0112774977, -0.0537113100, 0.0429875962, 0.0406000540, -0.0450889021, 0.0205759387, 0.0272265580, 0.0341966823, -0.0908653513, 0.0058025965, 0.0038383743, -0.0693799257, 0.0971453413, 0.0517469719, -0.0236486737, -0.0562235974, 0.0569408238, 0.0270486567, 0.1143241301, 0.0563680045, -0.0826455355, -0.0010141216, -0.0194738116, 0.0861017704, -0.0094414074, 0.1114484146, -0.0011996324, 0.0508928709, 0.0118206749, 0.1672891378, 0.0466442108, 0.0562459491, 0.0853409916, 0.0356730372, 0.0938260108, 0.0743923262, -0.1107592583, -0.0617717803, -0.0642039031, 0.0372044258, -0.0297864042, 0.0647449791, -0.0998468772, 0.0842254236, 0.1473560631, -0.0561604947, -0.0606163703, 0.0473650917, 0.0825364962, 0.0735322461, 0.1792217791, 0.0606676936, 0.0664118528, 0.0499322675, 0.0751712769, 0.1612122804, 0.0817623511, 0.0463367291, -0.0116117382, -0.0554860160, -0.0538537018, 0.0838831067, 0.0140133137, 0.0499769635, 0.0767692327, -0.0399844721, 0.0174110383, -0.0906157717, -0.1035576835, -0.0604869574, -0.0331416130, 0.0699277371, -0.0050126980, 0.0847510695, -0.1179761142, -0.0689019635, -0.0128833409, 0.0179523807, -0.0524727143, -0.0821294561, 0.0210196897, 0.0496461391, -0.0973121375, 0.0745312124, 0.0803283900, -0.0846347958, 0.0818976909, 0.1352030188, 0.0459900573, 0.0092326943, -0.0201283135, 0.0586612523, 0.0446194485, 0.0377350226, 0.0728450790, 0.0160450116, -0.0307572521, -0.0647354349, 0.0215396341, 0.0108015090, 0.1080938354, -0.0200105403, -0.0721581578, -0.0574246272, 0.0200049412, 0.0766993612, 0.1140314117, -0.0504277274, -0.1177300960, 0.0149862505, -0.2455220670, -0.0318348855, -0.0537782498, -0.0760014281, -0.0270572975, 0.0152514838, 0.0686968267, 0.0627155602, 0.0616522357, 0.0644641966, -0.0794643164, -0.0618881285, -0.0055093579, 0.0884664282, -0.0730043575, 0.0899682343, 0.0816430002, 0.0778316557, 0.0579592362, 0.0910402834, 0.1020059213, -0.0032127614, 0.0007507185, -0.0801202282, 0.0469045490, 0.0753410310, -0.0545137748, 0.1619017273, -0.0285405349, 0.0999005288, 0.0879406109, -0.0749377906, 0.0071763000, -0.0101942094, -0.0099941529, 0.0326835625, 0.0810059384, 0.0225340426, 0.0180367995, 0.0498181172, 0.0012207023, 0.1438889503, 0.0529440045, -0.1131352931, -0.0802379474, -0.0184202362, 0.0113195535, 0.1154008731, -0.0548758171, -0.0035564452, 0.0474316888, -0.0181029104, 0.0023605870, -0.0961789936, -0.1031886637, 0.0284491330, 0.0059632151, 0.0392799936, 0.0335578173, 0.0167199299, -0.0310121216, -0.1035892367, -0.1809475571, -0.0704200268, -0.0119022159, -0.0386561826, 0.0471483283, -0.0177697837, -0.0967299715, 0.0860638693, 0.0182242785, -0.0713687465, 0.0064513925, 0.0037288030, 0.1070795879, -0.1021857113, -0.0048323972, -0.0779556781, -0.0252817664, -0.0373454057, 0.0529916584, -0.0494405851, -0.0969150737, -0.0058052610, -0.1357691586, -0.0163523145, 0.0411634110, 0.0116179278, -0.0588421226, -0.1026808396, -0.0385837220, 0.0232279245, 0.0532365032, -0.0984375924, -0.1550993174, -0.0161740761, -0.0863092616, -0.0786790997, 0.0170042440, -0.0004338005, 0.0514455996, -0.0371088497, -0.1282923520, -0.0000165477, -0.0774561465, -0.0307037514, -0.0402980894, 0.0607424751, 0.0101741627, 0.0050821672, -0.0192251634, -0.1793912798, -0.0039660349, 0.0079535432, 0.0581805743, -0.0488283224, -0.1272818297, -0.0347793140, 0.1049438417, 0.0661224723, -0.0165862106, -0.0802320242, -0.0118078226, -0.1218533814, 0.0815561190, -0.0255234931, -0.0587542579, 0.0035940087, -0.0002057071, 0.0622730851, 0.0356312878, 0.0946463048, -0.0888719112, -0.1779257804, -0.1609640568, -0.0577004068, 0.0248638932, -0.1514381021, 0.0114669511, -0.0852041021, 0.0623695962, -0.0713961944, 0.0663278997, -0.0224153996, 0.0396609604, -0.0767883062, 0.0037260118, 0.0006754756, 0.0326151662, 0.0987951905, 0.0778729096, 0.0285565089, -0.0041475063, 0.0435780287, 0.0860181451, -0.0664557070, 0.1034625396, -0.0409816466, 0.0403095633, -0.0382384136, -0.0799968392, 0.0125288367, -0.0405610353, -0.0967342034, -0.1150691211, -0.0569123290, 0.1267476082, -0.0028670542, 0.0311385412, -0.0321085490, -0.0127873644, -0.1419682503, 0.0026892286, 0.0645576417, 0.1487251371, -0.0859927163, 0.0154845621, -0.0207651500, 0.0277366396, -0.0278294310, 0.0376207419, 0.0117849614, 0.0914106667, 0.0270282496, 0.1303805858, -0.0340826288, 0.0198859274, -0.1356414557, -0.0013047899, -0.0808591247, 0.0047489032, 0.1006963328, 0.0318446346, 0.0676525980, -0.0009954456, 0.0038751587, -0.1247042641, 0.0535247959, 0.0224925168, -0.1325743496, 0.0176155996, -0.0400495045, -0.1106504127, 0.0371675976, 0.0678360015, 0.0157333668, -0.0156087270, -0.1165485755, -0.0978800654, -0.0954914838, -0.0359240323, -0.0155132683, -0.0811526105, 0.0264639538, -0.0277913827, 0.1237666607, 0.0521801300, -0.0523934253, -0.0415225215, -0.1009584144, -0.0194479749, 0.0187839139, -0.1373683065, 0.0405097455, -0.0741618872, 0.0590009466, -0.0474297851, 0.0110953311, -0.1034587175, -0.0114440750, -0.0406320617, -0.0806479976, -0.0151309604, -0.0451272242, -0.0093076369, -0.0042965370, -0.0513263270, -0.0401681252, 0.0837144032, -0.1282342672, 0.0455869436, -0.0010503018, 0.0274527390, 0.0093539013, -0.0873156786, 0.0925762430, -0.0116092991, -0.0179007687, 0.0828612298, -0.0664297044, 0.0748253688, -0.1091734916, 0.0430475101, 0.0290673543, -0.1122727841, -0.0319430865, 0.0075569507, -0.0009117756, -0.0769165084, -0.0712408125, -0.0779395998, 0.0001942366, 0.0578750223, -0.0504239611, 0.0775228515, -0.1861200184, -0.0663081333, -0.0920767188, 0.0097863805, -0.0465746522, 0.1449377835, -0.1787654907, -0.0680860952, -0.0223349482, 0.0505308546, -0.0265666433, -0.0522508845, 0.0571320243, 0.0615679994, -0.0488404036, -0.0245585330, -0.0325076319, -0.0115311667, -0.0465321727, -0.0137456898, -0.0664216205, 0.0253991317, 0.0127208168, 0.0113264676, -0.0617944337, 0.0347617604, -0.0416581221, -0.1982010156, -0.0388182625, -0.0692124218, -0.0436244272, -0.0240656845, -0.1000653505, -0.0534330495, -0.0420117937, -0.0060333204, -0.0357032567, 0.0693813190, -0.1227483302, -0.1167933047, 0.0439668782, -0.0907889828, 0.0637220964, 0.0328782052, 0.0890828446, 0.0512611941, 0.0234741513, -0.0514360555, 0.0064466391, 0.0349530354, 0.0151542174, -0.1105405018, -0.0626331270, -0.0164030027, 0.0154817319, 0.0173949432, 0.1192241609, 0.0762763843, 0.0088875350, 0.0284408461, 0.0435643084, 0.0186617356, -0.0823275596, 0.0033983763, -0.1401205957, -0.1064282656, 0.0248111002, 0.0628324002, 0.0295248497, 0.0671712831, -0.0490929112, -0.0256824382, 0.0058175204, -0.0154071804, -0.0004031310, -0.0160498135, 0.0171689671, 0.0547573566, 0.0348629840, -0.0249465965, -0.0581416711, 0.0699197352, -0.0832894966, -0.0215100609, 0.0066942289, -0.1023786590, 0.0320301875, -0.0015409274, -0.0047567505, 0.0267925672, 0.0044367523, -0.0589781590, -0.1677699089, -0.0029179186, 0.0099400971, -0.0845841914, -0.0463671461, -0.0877848640, -0.0024744936, -0.0138125382, 0.0025314372, 0.0466342419, -0.0908706561, -0.0893186554, 0.0071671060, 0.0439936370, -0.0683687180, -0.0851784199, 0.0630356744, 0.0357378796, 0.1048800945, 0.0416888818, 0.0244763345, 0.0747881755, -0.0374753959, 0.1151951551, -0.0069483733, -0.1010260135, 0.0066500539, -0.1322460324, 0.0195556656, 0.0322933234, 0.0273431893, -0.1109906957, -0.0248246863, 0.0934151933, 0.0416520126, -0.0020268403, -0.0869733095, -0.0581181608, -0.0707991123, 0.0095840832, -0.0700273290, 0.0234686937, -0.1483720094, -0.1275624335, -0.0797943920, -0.0452387705, -0.1500995755, -0.0987180695, -0.0142838955, 0.0428342670, 0.0095002009, 0.0559575185, -0.0735870004, -0.0475039259, 0.0037232509, 0.0221189111, -0.0073758839, -0.0540879928, -0.0800088197, -0.0153283458, -0.1011206880, -0.0199668556, 0.0151198944, 0.0496325977, -0.1156720817, -0.1193216741, -0.1473276317, -0.0987792462, -0.0599225983, -0.0987988859, 0.0691108406, -0.0562840998, 0.0135751823, -0.0353366919, -0.0886817575, 0.0120894453, -0.0206160322, -0.0342824608, -0.0441791341, -0.0438245609, -0.0640685111, -0.1016833857, 0.0555452220, 0.0810383856, -0.0142309191, 0.0642313287, 0.0351874605, -0.0360215716, -0.0705213696, 0.0873739347, -0.0140830437, 0.1009401903, -0.0579311550, -0.0517580956, 0.0711968318, -0.0012070989, 0.0214699116, -0.0732539669, -0.0732687041, -0.1311384737, 0.0619408824, -0.0823795497, 0.0282676127, 0.1110837236, -0.0447206311, 0.0029453195, 0.0268937349, -0.0497162975, -0.0716513991, -0.0202830769, 0.0409465954, 0.1012102515, 0.0298733786, 0.0070752250, -0.0947982073, -0.0462762788, -0.0489272624, -0.0137364529, 0.1089496911, -0.0495060608, 0.0248864722, 0.1279341578, -0.0234084185, -0.0087435897, 0.0719813257, 0.0346249752, -0.0479716957, 0.0765222237, 0.0381043740, -0.1009810045, 0.0181119647, -0.0505824052, 0.0426050760, -0.0516353548, 0.0130524663, 0.0534070618, 0.0549209677, 0.0072201109, 0.1874511242, 0.0190226566, 0.0200479422, 0.0486510247, 0.1172548309, -0.0194091331, -0.0379041359, -0.0820199326, -0.0082800798, -0.0613280758, -0.0003198617, -0.0683829263, 0.1291097105, -0.1047445536, 0.1025282145, 0.0714519620, -0.0409337059, -0.1104813665, 0.0759524480, 0.0229555182, 0.1398888826, 0.1193528324, 0.0473044328, 0.0328733623, 0.0124691082, 0.1018313617, 0.0765440688, 0.0808894038, 0.0581535511, -0.0810343623, 0.0180135444, -0.0143355420, 0.1668813676, 0.0680875704, 0.0666026771, 0.0856317431, -0.0550931916, 0.0348873846, 0.0322511904, -0.0262808651, -0.0038430647, 0.0441910364, 0.0745251328, 0.0001774991, -0.0263157859, 0.0088926135, 0.0522588529, -0.0691326335, 0.0172542538, -0.0510784425, -0.0124030048, -0.0146498997, -0.0654600561, 0.0210090224, 0.0533964038, 0.0320434794, 0.0422589555, 0.0171095841, 0.0134258000, 0.1391765177, -0.1117779166, -0.0755229667, -0.0299329460, 0.0518402383, -0.1461943984, -0.0997741222, -0.0231142864, -0.0390521064, -0.0638333932, -0.0733830631, -0.0800694227, 0.0608639121, -0.0066207657, 0.0586732738, -0.0931796432, 0.0421546362, -0.0990835503, 0.0225315765, -0.0250252709, -0.1260547638, 0.0271445606, -0.1033600569, -0.0704559907, -0.0228021517, -0.0239658598, 0.0273692515, 0.0651706979, 0.0296677873, -0.0548823439, 0.0194625277, 0.0109296329, -0.0675142631, 0.0073478515, 0.0000365914, -0.0142611591, -0.0186860487, -0.0384362526, -0.0988009721, 0.0407815240, 0.0108384592, -0.1206993312, -0.0179895274, 0.0161920730, 0.0318336487, 0.0562763326, -0.0064613717, -0.0125834327, 0.0208064318, -0.0903534591, -0.0272705927, 0.0210933965, -0.0607479922, 0.0006552087, 0.1641375571, -0.0498981029, -0.0604873151, -0.0092790378, 0.0182738435, -0.0885387808, -0.0994804278, 0.0103065362, 0.0080214869, 0.0339872837, 0.0233490132, 0.0596016385, 0.0353511646, -0.0483369902, -0.0820588171, -0.1109181121, 0.0201155692, 0.0709851459, -0.1148068234, -0.0574580543, -0.0140523724, 0.0882905126, -0.0113815432, 0.0157830734, 0.0116452165, -0.0283052474, -0.0801494271, 0.0917002633, 0.0068166694, -0.0450284109, 0.1125437319, 0.0243213866, 0.0125693846, -0.0734157041, -0.0466929562, -0.0429072231, 0.1103153601, 0.0076037138, -0.0971072465, -0.0731945485, -0.1296127588, -0.1159010231, -0.0520190373, 0.1344155371, 0.0733099729, 0.0598222241, -0.0358629376, 0.0281885676, 0.1541583687, 0.1032629609, 0.0939745903, 0.0891593620, 0.1460953653, -0.0133485496, -0.0758489668, -0.1022983640, -0.0429976769, 0.1039060429, -0.1261187941, 0.1517458260, -0.1211898774, 0.0225838684, 0.1582442820, -0.0940436274, 0.0033336382, 0.0591543242, -0.0087039648, 0.0589261129, 0.2173918188, -0.0760267824, 0.0306717437, 0.0744065642, 0.0528066270, 0.0300157685, 0.0947754383, 0.0032781872, 0.0002334175, 0.0712613538, -0.1303414106, 0.2482217550, 0.1152961254, 0.0761051252, 0.0958631486, 0.0399140567, 0.0711190253, -0.0667618290, 0.0082250750, -0.0771650374, 0.0205394644, 0.0395534970, -0.1186190322, 0.1164000481, -0.0559291951, -0.0083813537, 0.0442095175, 0.0184952710, 0.0327609405, 0.0132214241, 0.0007559161, 0.1325321048, 0.1971236467, -0.0572705455, 0.0491952337, -0.0677874386, 0.0556670576, 0.0605969168, 0.0648936257, 0.1056147069, 0.0674539655, 0.0650703758, 0.0663616061, 0.0990504473, 0.0958484039, 0.0909925327, 0.1177259013, 0.0416787043, 0.0750007480, -0.0077330708, -0.0307891089, -0.0823200196, 0.0673644990, 0.1082050279, -0.0093929861, 0.1706802398, -0.0760020316, 0.0740670040, 0.1103074327, -0.1079905778, -0.1051929593, 0.1041479185, 0.0563844889, 0.0367812552, 0.1052783281, 0.1338918656, 0.0511151738, 0.0969636813, 0.0644983053, 0.2396145463, 0.1153582335, -0.0363473780, -0.0781273991, 0.0268463232, 0.0222772267, 0.1714501530, 0.1122454554, 0.0283209048, -0.0359649993, 0.0068516969, -0.0381890759, -0.0609356537, -0.0854615718, -0.0471013449, 0.0419846289, -0.0564064831, 0.0063796476, 0.0097609926, 0.0547558218, -0.0049651372, -0.0444276556, 0.0180132650, -0.0830904618, 0.0363042466, 0.0604087263, -0.0042945975, 0.0661887154, 0.0608117953, -0.0440685824, 0.0423852541, 0.0688496605, 0.1420606673, 0.1458609700, -0.0426194929, 0.0270398855, 0.0458032303, 0.0558926538, -0.0395811163, -0.0844896585, -0.0055865445, -0.0442220047, -0.0147868078, -0.0579025559, -0.0409091860, -0.0288643818, -0.0407486148, -0.0130002992, 0.0358363762, -0.0433415957, -0.0227497779, -0.0561323874, 0.0018533913, 0.0070363516, 0.0355962850, 0.0219275262, -0.0288996920, 0.0046094353, 0.0208799485, -0.0586109459, 0.0007711577, -0.0257018153, 0.0084891990, 0.0213140957, -0.0517935678, 0.0636516809, -0.0657865927, 0.0608570352, -0.0467709266, 0.0175114982, -0.0552777387, 0.0614786968, 0.0380023755, 0.0623656139, 0.0020570639, 0.1071790755, 0.0888764560, 0.0622457676, -0.0310716741, -0.0474577919, -0.0159181803, -0.0334504470, 0.0593387261, 0.0509399138, -0.0905691534, 0.0515712388, -0.0080097569, 0.0135631356, 0.0317617506, -0.0745295435, -0.0102323936, 0.0400623493, 0.0522715449, -0.0229469389, -0.0729036853, -0.0965945721, -0.1206414700, -0.0164214708, 0.0463296995, -0.0816557035, 0.0027650890, -0.0795670226, 0.1400855631, 0.0449538231, 0.0304385275, 0.0687289163, 0.1083091423, 0.0978164896, 0.0270742606, -0.0877601877, -0.0178708378, 0.0096177822, 0.1393749863, 0.0033490236, 0.1510990113, -0.0108830482, 0.1040049940, 0.0333663858, -0.0299443975, -0.0916265920, 0.0049941707, 0.0059080310, 0.1499799490, 0.0634018555, 0.0199786648, 0.0147291599, 0.0878454521, -0.0437944643, 0.1396609992, 0.1085877568, -0.0128113497, -0.0128362766, 0.0088790944, -0.0214136764, 0.0353898294, -0.0641853511, -0.1194709986, -0.0057517826, 0.0435272530, 0.0122456001, -0.0652957931, -0.0572748370, 0.0523186475, 0.0486559160, 0.0210957471, 0.0279804245, 0.0563475788, 0.0321595483, 0.0023453012, -0.0669119582, 0.0430482104, -0.0471675098, -0.1096809357, -0.0546752103, -0.0515758656, 0.0355978608, 0.0369130857, 0.0195861328, 0.0033924228, -0.0511054099, 0.1274801642, 0.0984029770, -0.0597228594, -0.0716368034, -0.0581953153, -0.0644403175, 0.0182338953, 0.0761177912, 0.0134827942, -0.0479473993, -0.1084249243, -0.0745958909, -0.0998965353, -0.0768783912, 0.0554667711, 0.0122570517, -0.0691820532, -0.0351727009, -0.0598000102, -0.0554980114, -0.0958448201, -0.0520387962, -0.0362411104, -0.0540334992, -0.0248641502, -0.0712848529, -0.0841410905, -0.1434365511, -0.0196254011, -0.0660185516, -0.0351498276, 0.0248170402, 0.0793970078, -0.0065522660, -0.0776619464, -0.0336261243, -0.0453819335, 0.0404552184, -0.0224599112, -0.0983164683, -0.0735936016, -0.0417334326, -0.0771020800, -0.0156604648, 0.0361935198, 0.0569364801, -0.0201552268, -0.0365791284, -0.0961577073, -0.0484422967, -0.0265840869, 0.0385921672, -0.0422527269, -0.1257489473, -0.1050958931, -0.0485448241, 0.0180750769, 0.0203921851, -0.0309234858, 0.0107166665, -0.0680381879, -0.0518863350, -0.0649904236, 0.0201734602, -0.0459581427, 0.0187227186, -0.0339185782, -0.0389918238, 0.0387433805, 0.0980142727, -0.1091959104, 0.0131993676, 0.0168152209, -0.0684517547, 0.0190771148, -0.1384434849, -0.0413595624, 0.0764296949, -0.0189028289, -0.0631078407, 0.0537836365, 0.0297551248, -0.0218170695, 0.1387977600, 0.0046363603, 0.0415079258, 0.0257514045, 0.0047479719, 0.0081363535, 0.0315436944, 0.0956014395, 0.0447320454, -0.0091682132, 0.0307281278, 0.0760613829, -0.0615791604, -0.0766419470, -0.1382973641, -0.0507004522, -0.0588836893, -0.0308335181, -0.0038418125, 0.0449863784, -0.0989910290, 0.0393627100, -0.0432262421, -0.0755935758, 0.0119746616, -0.0582870841, 0.0520798117, 0.0247170217, 0.0385104790, -0.0459248722, 0.0879438668, -0.0039449609, 0.0254089963, -0.0070487903, 0.0789822638, 0.0100205839, 0.0092529105, -0.0278381538, 0.0489437878, -0.0473809764, 0.0365380757, -0.0230934806, 0.0091674142, -0.0471927151, 0.0159627367, 0.0322698057, 0.0052171592, 0.0438807160, 0.0889426321, -0.1094648093, 0.0826475322, -0.0115694236, 0.0110341161, -0.0378714353, 0.0420317166, 0.0314999670, -0.1051169857, -0.0240710173, 0.0090167895, 0.0829176977, 0.1250200570, -0.0329153128, -0.0078930482, -0.0288787633, -0.0472507477, -0.0119566098, 0.1112133116, 0.1393673718, 0.1071425676, -0.0228532534, -0.0224614292, -0.0691364855, 0.0272583254, -0.0809965506, -0.0680998117, 0.0001389534, 0.0436616018, 0.0169289652, -0.0698497370, -0.1423744559, 0.0546878316, -0.0502659157, 0.1241743863, -0.0665794760, -0.0925942063, 0.0344951339, -0.0686374679, -0.1065644100, 0.0357980281, 0.0528087020, 0.1100153029, 0.0792838335, 0.0256672930, -0.0678504780, 0.0451603532, 0.0430242233, -0.1468265802, -0.0684909374, -0.0395367369, 0.1051261276, -0.0332347192, -0.0008163450, -0.0382806249, 0.0501338094, -0.0546311513, 0.0022483936, -0.0633665472, -0.0634934679, 0.0183421373, 0.0024626595, 0.0100744292, -0.0204383433, 0.0544412397, 0.0024424118, 0.0523299389, -0.1222787574, -0.0558881201, 0.0391263254, -0.0546307340, -0.0491220802, -0.0568601191, 0.0416771583, -0.0763329566, -0.0422134995, 0.0901841000, -0.0701427385, 0.1076038778, -0.0457710139, -0.0013850573, -0.0490731709, -0.0527159981, 0.0580596775, -0.0271000620, -0.0491406247, 0.0628471598, -0.0082594752, -0.0557546504, -0.0708263442, -0.0442327783, 0.0617952272, -0.0232853089, -0.0213254988, -0.0240556430, -0.0268684365, 0.1213310361, -0.0949979052, 0.0980331823, -0.0981821120, 0.0167502053, -0.0853171796, -0.0827619806, 0.0102497283, -0.0474772193, 0.0000039097, 0.0141639654, -0.0415475070, 0.1506765485, 0.0541776381, -0.0562497713, -0.0718852282, -0.0861774608, 0.0000472196, 0.0173820592, 0.0313620493, 0.0266280882, 0.0347204842, -0.0244547129, -0.0793801099, 0.0477397256, 0.0242930241, -0.0236521084, 0.0001306498, 0.0442494862, -0.0609076470, 0.0087501956, -0.0270209629, -0.0105187828, -0.0743245333, 0.1002563760, -0.0534754246, -0.1176007912, -0.0351965316, -0.0783822611, -0.0776979625, -0.0455340073, 0.0467040762, -0.1099279821, 0.1134022325, 0.0639415383, -0.1337895542, 0.0124901971, 0.0176650099, -0.0898526311, -0.0080482047, 0.0493717715, 0.0709083155, 0.1341896504, -0.0104118548, 0.0588587597, -0.0499920323, 0.0824716240, 0.0187181551, -0.0096311476, -0.1118894964, -0.1295125633, 0.0104673337, 0.0201105215, -0.0387107506, 0.0441328846, -0.0896921009, 0.0428205431, -0.1023944318, -0.0413192809, 0.0757802650, -0.1079769656, -0.0606439635, -0.0491300039, 0.0025277529, 0.0691345930, -0.0173249375, 0.0790327117, 0.0210310332, -0.0361436866, 0.0500096455, 0.0056499592, -0.0611780584, -0.0454681180, 0.0232546739, -0.0969171301, 0.0406282693, 0.0453805067, -0.0573345535, -0.1153216511, -0.0255811568, 0.0540673658, 0.0305628981, 0.0618748479, 0.0197850969, 0.0422101915, -0.0166002922, 0.1110245883, 0.0262926128, 0.1093775481, 0.0046672188, 0.0380887613, -0.0651840642, -0.1006865725, 0.0097762374, -0.0126773044, 0.1090558693, 0.1195486039, -0.0098592257, 0.0997795910, 0.0169765335, 0.0969007909, -0.0797996670, 0.0219240356, -0.0616938770, 0.0244235881, 0.0947778672, 0.0097378911, -0.0209455136, 0.0880118906, -0.0490251631, -0.0985992029, -0.0612746887, -0.0698604956, 0.0560588688, -0.0950340480, -0.0346307345, 0.0304248501, 0.0910856500, -0.0275864042, 0.1011054739, -0.0275507607, 0.1711224914, 0.0405272581, 0.0352365896, 0.0614854172, 0.1059486493, 0.0856392160, -0.0160519909, -0.0060969265, -0.0239278655, -0.0502545200, -0.0239079092, 0.0149685936, 0.0576132052, -0.0142031312, 0.0121533126, -0.0014880851, -0.0571918525, -0.0750532448, 0.0545640923, 0.0590212792, -0.0318299793, 0.1966580302, 0.0064968118, -0.1487093121, 0.1354325712, -0.0352447182, 0.1090615988, 0.1178658083, -0.1016133130, -0.0143067241, -0.0385308042, 0.0384918638, 0.1118317395, 0.1388473511, -0.0199672394, 0.0743198991, 0.1318012476, 0.0898640230, -0.0166685358, 0.0081761722, -0.0722440854, -0.0899278894, 0.0885176733, 0.0685960725, 0.0816152096, -0.0652660728, 0.0602011830, 0.0771583617, -0.0097556431, 0.0572229065, 0.0105304811, -0.0552693531, 0.0117065124, 0.0702938288, 0.0274963919, 0.0482771359, 0.0923628286, -0.0233127885, 0.1317283064, 0.0713564232, -0.0930902734, 0.0122823473, -0.1134661883, -0.0467635766, 0.0194593556, -0.0172968470, -0.0077568912, -0.0750562251, -0.0948480666, -0.0986086577, -0.1034362018, 0.0186261199, 0.0081346445, -0.0464164764, -0.1036802232, 0.0145827653, -0.0754612386, 0.0780132711, -0.0995507091, -0.0714666769, 0.0282945577, -0.0360932872, -0.0697537735, -0.0764633194, -0.0131330742, -0.1100442261, -0.0522041656, -0.0297825597, 0.0559598543, -0.0605231151, 0.0115418164, 0.1004598588, -0.1855499148, 0.0463054031, -0.0404327139, 0.0703035668, -0.1238530576, -0.1368083358, -0.0653477088, -0.1179816723, -0.0067172442, -0.0844529942, -0.0413352624, -0.0691182688, 0.0203920826, -0.0447207764, -0.1314823478, 0.0332358144, -0.0951747745, -0.0701232404, -0.0109500308, -0.0290276930, -0.0713709295, -0.0468400680, -0.0344842337, -0.0973505750, -0.1238112226, -0.0383710153, 0.0651972219, -0.0288654622, -0.0061491788, -0.0767118186, 0.0015531578, 0.0076127094, -0.0846354812, 0.0603699423, -0.0525462441, -0.1095761433, -0.0642562360, -0.1069182679, -0.0373558365, -0.1114552915, -0.0868958384, -0.0909264907, -0.0456142500, 0.0677738115, -0.0616594255, -0.0198143348, -0.0656329840, 0.0344677605, -0.0557358563, 0.0394453257, -0.0276821796, 0.0709666386, 0.0339420997, 0.0463238992, 0.0102884062, 0.0539094061, -0.0832007602, -0.0177586693, -0.0656034201, -0.0196735021, -0.0425106399, -0.1063551754, -0.1090028211, 0.0194220077, 0.0053931554, -0.0124530988, -0.0356287472, -0.0699069500, -0.1514532119, 0.0166466553, 0.0185327176, -0.0848173201, -0.1474864185, 0.0080524394, 0.0518358052, 0.0408673622, 0.0561410002, 0.0033959593, -0.0372648686, -0.0460059159, -0.0377315953, -0.0786327720, -0.0615240447, 0.0410910882, 0.0396304913, 0.0324474350, 0.0194514189, 0.0207798239, -0.0325754285, 0.0455887765, -0.1244566813, -0.0100276871, -0.1153485924, -0.1230227575, -0.0874609798, -0.1071194187, 0.0339092016, -0.0150462659, 0.0852560923, -0.0865814164, 0.0560864322, 0.0690312460, -0.0226619337, -0.0618093535, -0.0318464041, 0.0991864800, 0.0216720197, -0.0482740290, 0.0069188373, 0.0122653004, -0.0396169089, -0.0845805258, 0.0614274405, -0.0775366426, 0.0094008008, 0.0090145105, -0.0185668096, -0.0200925171, -0.0201586727, 0.0973708853, 0.0845151693, 0.0051204595, 0.0322076045, -0.0498041920, 0.0101270825, 0.0252570417, -0.0151552837, 0.1061225757, 0.0647275224, 0.0614608489, 0.0496398881, -0.1268250346, 0.2517852783, 0.0634879172, 0.1107457429, -0.0335512161, 0.0275989007, 0.1275377274, 0.0152878864, -0.0004538359, -0.0332384743, 0.0011010671, 0.1203038171, 0.0069185239, 0.0366874635, -0.0417686552, 0.1304089278, 0.1138755977, -0.0570088550, 0.0064432416, 0.0514861979, 0.1018702686, 0.0582289957, 0.2015227973, 0.1593878269, 0.0445762016, 0.0192245990, 0.0374842808, 0.1711157262, 0.0475212932, 0.0835317969, -0.0777382627, 0.0562794544, -0.0054521482, 0.2327575535, 0.0845052972, 0.1125657856, 0.0804212168, 0.0957487747, 0.0438034348, -0.0080872821, -0.0229585357, -0.0823190212, -0.0944752619, 0.0005343876, -0.1473913789, 0.0922105461, 0.0044159722, 0.1046482995, 0.0530053712, -0.0709491819, 0.0148690231, 0.0833745003, 0.0138929896, 0.1302965134, 0.1649042070, 0.0212688744, 0.0027778344, 0.1385800987, 0.0704274029, 0.1695550680, 0.0517423749, 0.0354350656, -0.0492506549, 0.0004115266, -0.0452912822, 0.1223390922, 0.0859544203, -0.0070078857, 0.0049589002, -0.0838987082, 0.1035649925, 0.0100443140, 0.0557249151, -0.0179747771, -0.0016120099, -0.0155321313, -0.0078531317, 0.1858221292, 0.0244894195, 0.0380828232, 0.0624910519, 0.0213602260, -0.0106126852, -0.0521300547, 0.0208899267, -0.0147155887, 0.1860982329, -0.2079269290, -0.0909513012, 0.0418179631, -0.0718047470, 0.0198620968, 0.0274461359, 0.0859172419, 0.0539125130, 0.0741812810, -0.0188510492, 0.1953647286, 0.1378024966, 0.0007524982, 0.0939980298, 0.0945719779, 0.0460229628, -0.0522565357, -0.0444470048, -0.0798835605, -0.0172755308, 0.0432609022, -0.0239057988, 0.0348547548, -0.1049381718, -0.0144316759, 0.0519946069, -0.0447493456, 0.0427045040, -0.0365347750, -0.0519588366, -0.0230253153, -0.0056090099, 0.0071091745, 0.1788393259, 0.0693333820, 0.0825703293, 0.2269930691, 0.1042092144, -0.0088918321, -0.0568579622, -0.0640824512, -0.0396016911, -0.0689707398, -0.0173330046, -0.0137267150, 0.0294931829, 0.0191456657, -0.0049571395, 0.0030649041, -0.0405015908, -0.0038243649, -0.1102739871, -0.0258562192, 0.0642175972, -0.0799131319, 0.0129593424, -0.0919739679, 0.0393306948, 0.0536826625, 0.0627587587, -0.1073783115, -0.0434085652, -0.0152191166, 0.0073608453, -0.0133600282, -0.0153699219, 0.0003541761, -0.0258434452, 0.0977712423, -0.0186393224, -0.0140352659, -0.0612981506, -0.0589101724, 0.0233256742, -0.0277626030, -0.0593225360, -0.0706018284, -0.0751770958, 0.0112016890, -0.0973031893, 0.0695715323, -0.0544279255, -0.0328769945, -0.0788959265, -0.0461275578, 0.0421268679, -0.0533065833, 0.0545415841, 0.0063450835, -0.0550802201, 0.0017570404, -0.0427124090, -0.0161881056, -0.0373490453, -0.0698139518, -0.0961767733, 0.0354188308, -0.0115860533, -0.0575851873, -0.0756910369, 0.0551225729, -0.0666639134, 0.0625836253, -0.0074555138, 0.0560376979, -0.0354033113, 0.1642263383, 0.0832963884, 0.0825862512, -0.0515189208, 0.1227310672, 0.1010048464, 0.0012599443, 0.0643287450, -0.0901351497, 0.0162964091, 0.1108078808, 0.0734171197, 0.0538218543, 0.0304748733, 0.1192481592, 0.0844166353, 0.0576597489, 0.0219347049, 0.0286224466, 0.1155239418, -0.0034787492, 0.1987927556, 0.0673140734, -0.0363865942, -0.0008301801, 0.0060034334, 0.0800180063, 0.0384041332, -0.0099132508, 0.0544452630, 0.0148618380, 0.0801955312, 0.1494306177, 0.0961492136, -0.0773869529, 0.0684248433, 0.0143498313, 0.0849662870, -0.0486471280, -0.0844756067, 0.0216418542, 0.0019509116, 0.0260324236, 0.0278919116, 0.0394207872, 0.0232646447, 0.0291531663, 0.0140654035, 0.0325143263, -0.0224990211, 0.0849109665, 0.0505450480, -0.0781798661, -0.1184883937, 0.1339489520, 0.0991435945, -0.0892328545, 0.0763088539, 0.0551295877, 0.1676402837, 0.0602392741, -0.0808757618, -0.0615466200, -0.0204857253, -0.0659754127, -0.0568763055, 0.0335036479, 0.0300509855, -0.0311868787, -0.0186783615, -0.0664606988, -0.0056705726, 0.0657966584, -0.0459940843, 0.0135267321, -0.0216859858, -0.0747354552, 0.0650176704, 0.0311235711, -0.0959867686, 0.0648702905, 0.0421337523, -0.0352723077, -0.0158198457, 0.0041963593, 0.1163000613, -0.0167369079, -0.1117114276, 0.0537176095, -0.0809393600, 0.0509789027, -0.0110238800, 0.0894242376, -0.0418145359, 0.1337666810, -0.0850783065, 0.1980976909, 0.1295905113, -0.0021548851, -0.0484081060, 0.0146545377, 0.0619540289, 0.0515229590, -0.0252361279, -0.0812006295, -0.0409094654, -0.0013172983, 0.0156325772, 0.0869148672, -0.0415161327, -0.0373977646, 0.1381229758, -0.0375215337, -0.0446494631, 0.0335328206, 0.0727178156, 0.1050866246, 0.0951068774, 0.0039454903, 0.0620546043, -0.0087176217, 0.0270646866, 0.1506391913, 0.0309503302, 0.1010073274, 0.0857940465, 0.0985945538, -0.0981860384, 0.1918125153, 0.1070391312, 0.0503282025, 0.1049918756, 0.1194259971, 0.0640584007, 0.0861278921, -0.0184243172, -0.1010126323, -0.1069695801, 0.0286728628, -0.0023531180, 0.1221402362, -0.1317734867, 0.1638724655, 0.0449817143, -0.0771103650, -0.0464700684, 0.1077728942, 0.0036042586, 0.1179702654, 0.1252841651, 0.0203604847, 0.0799782202, 0.0591119491, 0.0866067484, 0.0900281370, 0.1028666794, 0.1205753461, 0.0588760860, 0.0038148591, 0.0483151712, -0.0656898245, 0.0535941422, 0.0850745514, -0.0967838764, -0.1053061783, 0.0944080725, 0.0074591096, 0.0499117859, -0.0687417090, -0.0056401631, -0.0152442399, -0.0150270453, 0.1670144945, -0.0077593490, -0.0430861786, 0.1395767182, -0.0963459760, 0.0043818103, 0.0139503386, -0.0010162048, -0.0196925513, 0.0805841237, -0.0496837534, -0.1684230268, 0.0489229262, 0.0108437780, -0.0553381070, -0.0396086648, 0.0158366915, 0.0529433452, 0.0590144619, -0.0821925774, 0.1052028537, 0.1677310169, 0.0286404435, -0.0001418336, 0.1049384177, 0.0420052148, -0.0052800565, -0.1140138358, 0.0507096574, -0.0201584976, 0.0946707651, -0.0071101682, 0.0833339393, -0.1455356628, -0.0178224575, 0.0460512526, -0.0023410928, 0.0220817626, 0.0118311411, 0.0648918077, 0.0517890863, 0.0738885328, 0.1041823030, 0.1300456524, 0.0223895852, -0.0163057912, 0.0613623671, 0.0991232395, -0.0732774064, -0.0250398833, 0.0203538239, 0.0164922699, 0.0555247813, 0.0004939698, -0.0079906164, -0.0596102662, -0.0439971313, -0.0066745728, -0.0000606922, 0.0121752126, -0.0168081410, -0.0066728857, 0.0501631424, -0.0790381804, -0.0557567291, 0.0124555444, -0.0138316620, -0.0720392019, -0.0587188043, 0.0248249713, -0.0961499661, -0.0649148971, -0.0566517189, -0.0287814084, -0.0379864089, 0.0143007971, -0.0189041924, -0.0403450616, 0.1107885614, 0.1114102602, 0.0059268167, 0.0468946025, 0.0109361196, 0.0248004962, 0.1345677674, -0.0197202042, 0.0515813120, -0.0413488708, 0.0348524414, -0.0455770902, -0.0549940988, 0.0553777404, -0.0114947259, -0.0386947356, -0.0867391899, 0.0281500276, 0.0389096737, 0.0295443498, 0.0530127846, -0.0433538295, -0.0654061511, -0.0033036969, 0.0194027815, -0.0713579133, 0.0657802746, 0.0848883092, -0.0609286726, -0.0419588648, 0.0615849830, -0.0827514157, -0.0585930832, -0.0642556474, 0.0405589640, -0.0856328383, 0.0612630993, -0.0361289121, 0.2071424276, 0.1260634214, 0.0477401130, -0.0437337942, 0.0532226898, 0.0319190621, -0.0240421221, -0.0415100716, -0.0194986276, -0.0005043918, 0.1409154683, -0.1332804561, 0.1700797975, -0.0053938259, 0.1268950701, 0.0847361162, -0.0295740496, -0.0124585656, 0.0922576562, 0.0855882093, 0.0259756334, 0.0576936379, 0.0135846520, 0.0590423122, -0.0188004766, 0.0974017754, 0.1412541866, 0.0665548146, 0.0114281867, -0.0333427861, -0.0812612697, 0.0360482000, 0.1578836441, -0.0379336774, -0.0619016960, 0.0083604213, 0.0947470814, 0.0984314531, -0.0021479181, -0.0579851940, 0.0362446681, 0.0794808418, -0.0298244432, -0.0145757049, 0.0154805919, -0.0673922226, 0.0466680527, -0.0300956424, -0.0757305771, -0.1032491624, -0.0784836635, -0.0387519188, -0.0051278640, -0.0508301109, 0.0804717913, 0.0410434492, -0.0215450916, 0.0370067023, 0.0884089917, 0.1147890389, 0.0760889947, -0.1050458401, 0.0413656756, -0.0405171290, 0.1210346371, 0.0320579298, -0.0350615829, -0.0365716107, -0.0069993469, -0.0761833787, -0.0257025082, -0.0746721625, -0.0896318108, -0.0471126288, 0.0040770294, -0.0065047648, 0.0460479148, 0.0450001396, 0.0563590303, -0.0681821927, 0.0544122346, -0.1211639941, 0.0424443148, -0.0107965013, 0.0929045975, 0.0260953363, -0.0331949815, -0.0106139006, 0.0231628399, 0.0715292916, 0.0503187105, 0.0484145023, -0.0115582189, -0.0127316657, -0.0995244607, -0.0544864349, -0.0785761178, 0.0258821957, -0.0612003617, 0.0065101297, -0.0063324976, -0.1127221808, -0.0527734384, -0.0007159155, -0.0104939798, -0.0320059434, 0.0697177723, 0.0164345596, -0.0068216794, -0.0176706761, -0.0778002813, -0.0174001437, 0.0075097303, 0.0057684858, -0.0639283583, -0.0253498312, -0.0239514839, -0.0221482813, 0.0940428749, -0.0001038139, -0.0188691821, -0.0497585535, 0.1005685776, 0.0104722753, 0.0029565066, -0.0642466024, -0.1082464308, 0.0243773628, -0.0367168412, -0.0277206562, -0.0646763965, 0.0427415967, -0.1010361835, -0.0159340836, -0.0124116912, 0.0178594328, -0.0908784866, 0.0458189547, -0.0892453641, -0.0023026878, 0.0203700438, 0.0802364126, -0.0629451424, -0.0136821009, -0.0593987107, -0.0839849412, 0.0165002905, -0.0360326171, -0.0161986090, -0.1093949303, -0.0701761544, -0.0870522037, 0.0070550805, -0.1036014631, -0.0345902033, 0.0370366164, -0.0030763114, 0.0230987947, -0.0030372851, -0.0276981480, -0.0823793113, -0.0319781266, 0.0336231701, -0.0100823147, 0.0562026985, -0.0591353066, -0.0099797267, 0.0395928472, 0.0644284114, 0.0493605062, -0.1113211811, 0.0461142808, -0.0548290163, -0.0768223330, 0.0202417728, -0.0550031923, -0.0298960935, -0.0283291154, -0.0798214450, 0.0591431707, -0.0184084997, -0.0736747161, 0.0174738262, -0.0840123668, -0.0029841345, 0.0408865213, 0.0496266484, -0.0926866904, -0.0623258613, -0.0678603277, 0.0456676409, -0.0299187936, -0.0342984982, 0.0584241040, 0.0077026468, 0.0530703589, 0.0265302565, 0.0312811024, -0.0563781895, -0.0148335788, -0.0471200049, -0.0902292207, -0.0922179297, -0.0743656829, -0.0537163056, 0.0462417789, -0.0019435510, -0.0120113967, -0.0785809085, -0.0623133816, -0.0547442511, -0.0087815905, -0.0733460709, -0.0852068663, -0.0698341429, 0.0403813124, -0.0593564026, 0.0587040782, 0.0277546309, -0.0235380847, 0.0083125615, -0.0369002894, -0.0079470742, -0.0944113508, 0.0287186559, 0.0666456521, 0.0522747710, -0.0433580838, 0.0235988628, -0.0956267416, -0.0343115628, 0.0520515889, -0.0403722711, 0.0331860445, -0.0737500638, 0.0705201030, 0.0081638610, 0.0064239614, -0.0609846562, -0.0348822996, -0.0525785089, 0.0792424828, -0.0941892117, 0.0194246098, -0.0412199646, 0.0641357452, 0.0394188389, 0.0580947250, -0.0281812530, -0.0073473346, 0.0458604544, -0.0836744905, -0.0991058722, -0.0351237841, 0.0479522087, -0.0728045329, -0.0375247858, -0.0059601562, -0.0891672671, 0.0277931467, -0.0478752330, -0.0323369950, -0.0645080954, -0.0789230913, -0.0109005272, 0.0635034665, 0.0223421790, 0.0216870271, -0.0636976212, -0.0098139849, 0.0125283273, -0.0888920948, -0.0297000222, 0.0512892753, -0.0817589909, -0.0793375224, -0.0316350572, 0.0796532780, -0.0619507991, 0.0483521186, -0.0847192705, 0.0218951069, -0.0827574953, -0.0573945642, 0.0175651480, -0.0766370222, -0.0189946368, 0.0282562021, -0.0382496193, -0.0645453334, 0.0551145300, -0.0882019848, 0.0103768529, -0.0108601954, -0.0558342151, -0.0263594389, 0.0444251299, -0.0422456525, 0.0619554296, -0.0948484093, 0.0057244678, -0.0774584711, -0.0363955125, 0.0474413112, 0.0547890253, -0.0640661269, 0.0654935390, 0.0028557288, -0.0808704123, -0.0084716417, -0.0131611973, -0.0781462863, -0.0777740031, -0.0206782091, 0.0663177371, -0.0746867433, -0.0587263629, -0.0395920873, -0.0390002951, 0.0238234624, 0.0555514619, -0.0198837891, 0.0258946195, -0.0564306602, -0.0972296372, -0.0511257835, -0.0092541082, 0.0188328996, -0.0066666855, 0.0248499196, -0.0662375167, 0.0329221562, -0.0275088120, -0.0214546770, 0.0603213273, -0.0135111623, -0.0012055731, -0.0888402015, 0.0580969751, -0.0483142473, 0.0440991372, -0.0440358557, 0.0330036506, -0.0181622952, 0.0315436497, 0.0671406612, -0.0895799547, 0.0187168978, -0.0634360388, -0.0524124242, -0.0283723734, 0.0034765054, 0.0237046666, -0.0905253962, 0.0137324864, -0.0426176824, 0.0537195206, -0.0085750595, -0.0462963842, -0.0591684952, 0.0173427612, 0.0426020734, -0.0629161745, -0.0155650284, -0.0944519714, -0.0066077686, -0.0568042286, 0.0655711293, -0.0850492716, -0.0875540227, 0.0130215278, -0.0492449738, -0.0502080843, 0.0274733305, 0.0274865013, -0.0928582475, -0.0281782113, -0.0799170732, -0.0174240731, 0.0655406341, -0.0908995867, 0.0076345024, -0.0184236001, 0.0626977384, -0.0072803111, 0.0526408292, 0.0350267403, -0.0254163686, -0.0067755231, -0.0631984472, 0.0433120057, -0.0378102474, -0.0655944496, -0.0036206055, 0.0579060987, -0.0346800089, 0.0483792759, -0.0520997792, -0.0105749676, 0.0395759158, 0.0476848260, 0.0274986178, -0.0726629794, -0.0825601965, 0.0399182029, -0.0508610383, -0.0276778117, -0.0628304780, 0.0621708632, -0.0728880987, -0.0029949553, 0.0404404998, -0.0165814310, -0.0920995474, -0.0537771396, -0.0309733879, -0.0821502805, 0.0025214599, 0.0265313275, -0.0268569421, -0.0937339514, -0.0144599183, 0.0604013875, 0.0418090448, 0.0441440307, -0.0527665876, 0.0545950569, 0.0204917789, 0.0006421124, -0.0900785327, -0.0023952588, 0.0817387849, 0.0331997201, -0.0555732511, -0.0941619501, 0.0134483539, -0.0844587684, -0.0390695073, 0.0233710259, 0.0699084476, -0.0800323784, 0.0037599585, 0.0039187958, 0.0403015651, -0.0004504581, 0.0310486406, 0.0967467427, 0.0712910593, -0.0652425215, -0.0508255661, -0.0752221718, -0.0224796217, 0.0100587802, -0.1344434619, 0.0032960726, 0.0855376869, 0.1264463812, -0.0293111987, -0.0125036575, -0.0531114303, -0.0917761251, 0.0454417430, 0.0496267378, -0.0827767700, 0.0845104083, 0.0734457150, 0.1047500521, -0.0078966478, -0.0229375716, -0.0342698768, -0.1290049255, -0.0588174388, -0.0362887308, 0.0030994283, -0.0102592977, -0.1397064924, -0.0879341215, 0.0358583443, -0.0511576161, 0.0014934385, -0.0459726304, 0.0176701248, -0.0180759933, -0.0071421522, 0.0788082927, 0.0212850310, 0.0574032776, 0.1519609839, 0.0196216125, 0.0307990406, 0.0172147881, 0.1032360941, -0.0884578526, 0.0317782238, -0.0432791747, -0.0540785380, 0.0282731429, -0.0001165552, -0.0324246064, -0.0778388083, -0.1063458100, -0.1131911352, 0.0386704616, 0.0497623123, 0.0036401011, 0.0503527969, -0.1195485443, -0.0619145334, -0.1162915081, 0.0602761097, -0.0250881799, 0.1320383102, -0.0684019551, -0.0779251456, 0.0063068694, -0.0066858907, -0.0359031335, -0.0679520294, 0.0020724111, -0.0312909149, 0.0782993883, -0.0058487179, -0.0088175321, 0.1063911840, -0.1207822785, -0.0357780270, -0.0324942879, 0.0706500560, 0.0292219725, -0.0187927652, 0.0760736391, 0.0325601175, -0.0506635308, 0.0169466715, 0.0470632277, -0.0511464700, -0.1385635287, -0.0326998979, -0.0559616014, -0.0060417070, -0.0159728397, 0.0134317493, 0.0428793691, 0.1080033928, -0.1127710566, -0.1224067286, -0.1302362382, 0.0024599738, -0.0300103147, -0.0743183568, -0.0104978513, 0.0775934979, 0.0944457427, -0.0315482803, 0.0185099132, 0.0274632964, -0.0854855329, 0.0669045746, 0.0402719155, -0.0503184721, 0.0383029133, 0.0860102102, -0.0301724374, 0.0021302728, -0.0283057038, -0.0359938182, -0.1947149932, -0.0683455169, -0.0025639648, -0.0687444434, -0.1752350777, -0.1519030780, -0.0101583926, -0.0639555603, 0.0504676811, 0.0593143329, -0.1878797561, -0.0829585567, 0.0165300667, 0.0063571609, -0.0816029310, -0.1501307338, -0.0472696945, 0.0086776214, 0.0719131678, -0.0122499214, -0.0377613120, 0.0612314716, -0.1052871048, 0.0550738499, 0.0304789077, -0.0453048944, 0.0860775858, -0.0684009418, 0.0223260410, 0.0712451413, 0.0265600458, 0.0003782140, -0.0349681228, 0.0010776412, -0.0308817811, -0.0423648022, -0.0267489832, -0.1783471704, 0.0066095940, 0.0931920707, 0.0217623841, 0.1099618450, -0.1513542533, -0.0577761903, -0.0529607162, -0.0027833972, -0.0687267482, -0.0375242457, 0.0241486747, -0.0208767187, -0.0661048442, 0.0551705882, -0.0099688517, 0.0031536967, -0.0564415753, 0.0120522799, -0.0343951732, 0.0133081134, -0.0055525033, -0.0343682170, -0.0296639726, -0.1274983734, -0.1012820899, -0.0632796958, -0.0504589491, -0.0620862395, -0.0070429351, -0.0011941402, -0.0664369091, -0.0339937918, -0.0976130739, -0.0213417970, -0.0230340231, 0.1113345549, -0.0966055468, -0.1903324127, -0.0831577480, 0.0312456023, -0.0817282945, 0.0649110004, 0.0345722325, 0.0974413082, 0.0800195634, 0.0724481344, -0.0358983465, 0.0376038253, -0.0604504310, 0.0706752017, -0.0195281133, 0.1241337955, -0.0022504670, 0.0705264360, 0.0742198005, 0.0886619538, 0.0133469794, 0.0164994411, 0.0521399714, -0.0002730055, -0.0915862694, 0.0378070250, -0.0654260665, -0.0992812738, -0.1206832230, 0.0027470044, 0.0401198529, 0.0567209646, -0.1313935667, -0.0950024650, -0.0217166692, 0.0383135341, -0.1121584177, -0.0175860655, -0.0071240105, 0.0520616062, 0.1241334453, -0.0153086456, 0.0100266123, 0.0904818699, -0.1454787552, 0.0375612490, 0.0280638151, 0.0069004744, 0.0255332049, 0.1026870832, 0.0308170691, 0.0611019731, -0.0509653576, 0.0149638262, -0.0268098731, -0.1063922271, -0.1063009948, -0.1263137758, -0.1006834581, -0.0466201678, 0.0546187162, 0.0430422425, -0.0004464063, 0.1149544641, -0.0122429719, -0.0835384354, -0.0623334423, -0.0433765426, 0.0182152689, -0.1387860775, 0.0167035423, -0.0102901142, 0.0880826339, 0.1185052544, 0.0002342128, 0.0124079827, -0.0697922781, 0.0820023119, 0.0862265080, -0.0690501556, 0.0503074005, 0.0261975881, 0.0378193371, 0.0164848678, 0.0492933206, -0.0880192295, 0.0201193541, 0.0446186550, 0.0677681416, 0.0278383661, 0.0121561158, -0.0401781276, 0.1091056988, 0.0501535162, 0.0920985192, -0.0996133536, 0.1526466459, 0.1861009449, 0.0382465087, -0.0964124650, 0.0058505512, -0.0009720465, 0.0218097847, 0.0070968759, 0.0265728720, 0.0139839044, 0.0497197285, -0.0708279908, 0.0822357088, -0.0083996514, -0.0291971117, -0.0149302902, -0.0729377121, -0.0592213161, 0.0700824112, 0.0248737261, 0.0374559574, 0.1060752124, -0.0942204893, -0.0930413678, -0.0170957632, -0.0540542975, 0.0435585082, 0.0295365490, 0.1196470559, 0.0408302993, 0.1327145249, -0.0375045873, 0.0761950538, 0.1114935353, -0.0070854058, 0.0860953480, 0.1023121476, 0.1382420957, 0.0846171901, -0.0472756624, -0.0719410703, 0.0176592562, 0.0806543455, -0.0264103245, 0.1795605868, -0.1932536662, 0.0380605310, 0.1122652069, 0.0428525545, -0.0188601986, 0.0061674276, 0.0402423218, 0.0884978175, 0.1550474316, 0.0851126462, 0.0724870414, -0.0195029862, 0.1278122216, 0.1407296360, 0.2476236373, -0.1036830768, 0.0027322581, -0.0934895426, -0.0199702904, 0.0324084312, 0.0892227292, -0.0662127063, 0.0362601951, 0.0593990497, 0.0309565142, -0.0079543395, 0.0151750110, 0.0570727140, -0.0253728759, 0.0710958689, -0.0620873757, -0.0666182116, 0.0180551056, -0.0298112072, -0.0860346928, -0.0608341098, -0.1272523254, -0.0663866475, 0.0076229582, -0.0152407894, 0.0502209514, 0.0461758450, -0.0240655579, 0.0184727050, 0.0081267562, 0.0400653630, 0.0608152077, 0.0799783766, 0.0361202545, 0.0039729271, -0.0231554024, 0.0572928451, 0.0571865067, 0.0693232492, -0.0220404454, 0.0037653232, 0.0599273257, -0.0527623035, 0.0462283045, -0.1097605005, 0.0098030223, 0.0385180935, -0.0198525228, 0.1247799322, 0.0192022808, -0.0048806081, -0.0562087707, 0.0402011685, -0.1112610996, -0.0478579104, -0.0117054898, 0.0620847456, 0.1004552916, -0.0523245148, -0.0393322147, -0.0082181431, -0.0180840865, 0.0232785065, 0.1077508330, -0.1245740578, -0.0228472687, 0.0328448303, -0.0801052079, 0.0945412815, -0.0732311234, 0.0440166891, -0.0218681283, -0.0685660914, 0.0974082053, 0.0061456743, 0.0113109751, 0.0200909749, 0.0928154215, -0.0465135016, 0.0431976840, -0.1109083146, 0.0737072080, -0.0326492712, 0.0204210058, 0.0345150717, 0.1009352207, -0.0181823652, -0.0103518851, -0.0088797025, -0.0579994880, 0.0648244619, -0.0560838543, -0.0968912989, -0.0088127665, 0.0900548100, 0.0098892059, -0.0403502807, 0.0530200899, -0.0779141188, 0.0103961425, -0.2309833765, -0.0540337153, 0.0014350946, -0.0155813182, -0.0924552158, 0.0112223746, 0.0110200569, -0.0045707203, 0.0438824855, 0.0373785570, -0.0771554485, -0.0364073962, 0.0115236919, -0.0465833433, 0.0006980608, -0.0307455827, -0.0068769045, 0.1262417287, -0.0395752825, 0.0079565346, 0.0359340236, -0.0182936843, -0.0739439949, -0.0779831111, -0.0822268501, -0.0233005993, -0.0138628995, -0.0603159331, 0.0423407368, 0.0891052932, 0.0115645854, -0.0048077335, -0.1248086393, 0.0753255859, -0.0112294108, -0.0474157631, -0.0422028303, 0.0319939591, 0.0143434973, 0.0103164287, -0.0288860239, 0.0373471715, -0.1150724292, -0.0120892329, 0.0077039287, -0.0046743015, -0.0328888074, -0.0396551527, -0.0691938102, 0.0552578047, -0.0322873071, -0.0244427193, 0.0292847976, 0.0570247732, 0.0483309403, -0.0935963169, -0.0030056920, -0.0555320717, -0.0163082220, -0.0037857017, 0.0212603249, -0.0150744179, 0.0171425361, -0.0861455277, 0.1759193987, 0.0518050529, 0.0807931647, 0.0455817580, -0.0165350661, 0.1718618125, -0.0703700259, -0.0750046298, -0.0176682286, -0.0209450182, 0.0254051872, -0.0144985206, 0.1574320048, -0.1083327383, 0.0868666172, 0.0864987522, -0.0151203731, -0.0000688370, -0.0110470941, 0.1097495034, 0.0845241547, 0.1349251270, 0.0935387909, 0.1376325488, -0.0242509991, 0.0633418411, 0.1119171754, 0.1381687671, 0.0263121109, -0.0745322406, -0.0767348111, -0.0065445392, 0.3305417001, 0.1597090662, 0.1213684976, 0.0474923737, 0.0166575629, 0.0931090042, 0.0383273475, 0.0313707218, 0.0271068458, 0.0691010728, 0.1167033762, -0.0687403530, 0.2222673297, -0.0204041060, 0.0527604111, 0.1117976829, 0.0301123094, 0.0470205210, -0.0084796762, -0.0178184547, 0.0864662677, 0.1282243878, -0.0475940704, 0.0160594732, 0.0364030153, 0.0919778123, 0.0988880098, 0.0609609075, -0.0441685021, 0.0753679574, 0.0407573916, 0.0771312341, 0.0058394605, -0.0214095321, -0.0194948409, -0.0416062698, -0.0058942419, 0.0519842543, -0.0262426101, 0.0029628396, -0.0284249187, 0.0384892859, -0.0491756015, -0.0041965568, -0.0876856744, -0.0771030784, -0.0039540082, 0.0235515125, -0.0651113093, 0.1275459230, 0.0165784024, 0.0102554085, 0.0364559479, 0.0848438516, 0.0551843010, 0.0550474413, -0.0495753586, 0.0237567890, -0.1617362797, -0.1297543794, 0.0601857118, -0.0154174743, -0.0307300165, 0.1213891059, 0.0050221295, 0.0725477785, 0.0251020622, 0.0676854178, -0.0527870320, 0.0133133344, -0.0048394455, 0.0575925782, 0.0300123338, 0.0002120433, -0.0076311487, 0.0135724042, -0.0282045025, -0.0186793264, -0.0560519546, 0.1198448539, 0.0843735039, 0.1125311181, -0.0468245409, 0.0399343334, 0.0133524928, -0.0425611623, -0.1563522369, -0.0127667319, 0.0124731977, -0.0466064885, -0.0664890409, -0.0814219788, 0.0369349271, 0.0424808674, -0.1037953272, 0.1178314686, -0.0663942993, 0.0468379557, -0.0161388088, -0.0386204496, -0.0161399078, 0.0045014643, -0.0080471439, 0.0495100282, 0.0316251740, -0.0289952327, 0.0030195431, -0.0715916976, 0.0484150872, 0.0356757455, -0.0223136377, 0.0024101760, 0.1470845342, 0.1030878127, -0.0402107835, 0.0160170887, -0.0810215250, 0.0005037499, 0.0108346893, 0.0180038083, -0.0279885828, -0.0088796234, -0.0204674453, -0.0013988687, -0.0581017397, 0.0870655552, -0.0225950480, 0.0912794620, -0.0089207077, -0.0674045980, -0.0809188336, -0.0767413229, -0.0148323625, -0.1103148460, -0.0248651598, -0.0067889309, -0.0097073903, 0.0681441128, 0.0518992841, -0.0409259871, 0.0280321520, -0.1304589808, -0.0560561419, 0.0474741906, -0.0322027914, 0.0532714128, -0.0097670406, 0.0288040694, -0.0881268233, 0.0384771451, -0.0176357664, -0.0461816192, -0.0338954963, 0.0490859151, -0.0637231171, 0.0274382066, -0.0629487783, 0.0040245410, -0.0043137730, -0.0083605209, -0.0065895044, -0.0916746929, -0.0872848257, -0.0086552342, -0.0379331708, -0.0460735261, -0.0429656990, 0.1422928870, -0.0439679325, 0.0420864150, -0.0927756876, 0.1376002431, -0.0270569921, 0.0687138513, -0.0324198306, -0.0800697431, -0.0416322313, -0.0079000844, -0.0581405982, -0.0047418727, -0.0294481106, 0.0398234390, 0.0210970491, 0.0172798447, 0.0522105545, 0.0267040040, -0.0354050249, 0.0143259978, 0.0393093862, 0.0650035217, -0.1081877574, 0.0109525472, -0.1122639999, 0.0143008325, 0.0538111441, 0.0463237613, -0.0648083910, -0.0084776888, 0.0305589437, 0.0445256233, 0.1074213460, 0.0194054209, -0.0133390995, 0.0602061152, 0.0250030737, 0.0000760745, -0.0922254995, 0.0377682112, -0.0108619155, 0.0119209364, -0.0695946142, -0.0150820054, 0.0169022083, -0.0109563535, 0.0381312855, 0.0545077883, -0.0559924059, -0.0243366845, -0.0068877242, -0.0250144340, 0.0377603248, -0.0122311180, -0.0623646230, -0.0010637008, -0.0718756095, 0.0446424782, 0.0644802079, -0.0434682555, 0.0091524366, -0.0436262488, 0.0052285832, -0.0478211567, 0.0280879084, -0.0312790275, -0.0770032778, -0.0264611766, -0.0772457942, 0.0254760496, 0.0526178516, 0.0012449542, 0.0014692886, -0.0295896493, 0.0840795413, -0.0823989436, -0.0562791862, -0.0723824650, -0.0439441428, -0.0560350791, -0.0458413102, -0.0464445762, -0.0120442295, 0.0428867526, 0.0428580679, 0.0107682385, -0.0514898151, 0.0736695006, -0.0383626670, -0.0131988088, 0.0297334120, 0.0423899516, -0.0671628267, -0.0319172591, 0.1054112241, 0.0092975982, -0.0441930965, 0.0140686454, -0.0185817629, -0.0224098694, 0.0607629307, 0.0971406102, -0.0550256036, 0.0468531586, -0.0403718203, -0.0878330693, 0.0288055167, 0.0370142944, -0.0404134467, -0.1340222210, -0.0350155085, 0.0599958375, -0.0292393100, 0.0065634232, 0.0299076308, -0.0426906571, 0.0271144547, 0.0231089834, -0.0438777879, 0.0958645046, 0.0865959749, 0.0355489962, -0.0363137051, -0.0593678802, -0.0398846120, 0.0098213842, 0.0606291518, 0.0553689562, 0.0938988775, 0.0021889179, -0.0041271169, 0.0680242628, -0.1098192111, -0.0470240787, -0.0511948876, 0.0186086223, 0.0239234772, 0.1965696514, -0.0453796759, 0.0650769174, 0.0447101742, 0.0898634121, 0.0241660923, 0.0857358351, -0.1501938850, -0.0179678313, 0.0437685624, 0.1003340259, 0.0278175678, 0.0650250092, 0.0669784248, -0.0748355091, 0.3191352487, 0.1223358959, 0.0402153954, 0.1350722760, 0.1552800685, 0.1028352901, 0.0337913111, 0.0354672484, -0.0362931564, 0.0147869857, 0.1405461729, -0.0692051947, 0.2319345772, -0.1524650306, 0.0360417217, 0.1956868172, 0.0597506650, 0.0511902161, 0.0816682875, 0.0021132166, 0.0568051711, 0.0578315593, 0.1543705016, 0.0728070289, -0.0047427216, 0.0481453910, 0.2164714783, 0.0941751897, -0.0807018653, -0.0295045488, 0.0387657434, 0.0768330917, 0.0007056863, -0.0275787283, -0.0502272397, 0.0265459679, -0.1130116507, -0.0076549808, -0.0118469736, -0.0684834868, -0.0067997477, -0.0285074208, -0.0880452543, 0.0904845148, 0.0074697789, -0.0620235279, -0.1228724197, 0.0878449231, 0.0011751750, 0.1410641968, -0.0524907373, 0.0222670399, -0.1268869936, -0.1099257842, -0.0183920022, 0.0792640299, -0.0593780428, 0.0508749112, 0.0925551504, 0.1087100953, -0.0346324369, -0.0876393318, -0.0324800089, -0.0497391187, 0.0760407895, 0.0271879081, -0.0762034804, -0.0051132380, 0.0025863661, 0.0300226901, 0.0376892500, -0.1167025939, -0.0341040902, 0.0200870484, -0.0229590684, -0.0117475903, 0.0659214929, 0.0104222810, 0.0177389663, 0.0087147811, 0.0139536709, -0.0325758979, 0.0462200753, 0.0118240947, 0.0418733768, 0.0323571339, -0.0460273959, 0.0150847146, -0.0810370073, 0.0000347135, -0.0037857478, -0.0157442521, -0.0320806466, 0.1000223681, 0.1131466553, -0.0407862924, 0.0158634298, 0.1500651240, -0.0272996426, -0.0717329606, 0.0432979241, 0.0576237589, 0.0801061094, 0.0321187675, -0.0675205067, -0.0180908218, -0.0247505326, -0.1067182347, 0.0798626542, -0.0185449403, 0.0854668692, 0.1104406863, -0.0062933713, -0.0211623032, -0.0386115797, -0.0318753868, 0.1044199318, 0.0970687121, 0.1709579527, 0.0328901112, 0.0253966767, 0.0316729136, 0.1384279579, -0.0124196280, 0.0993997082, 0.0784432068, 0.0066700471, -0.0828983486, 0.1438071281, 0.0103024384, 0.0911372453, 0.1127780676, 0.1208505258, 0.0509726107, -0.0004569025, 0.0563692488, -0.0502713323, 0.0463895127, 0.0651326329, -0.0059171976, 0.1689966470, -0.0514003485, 0.1196596473, 0.0642393753, 0.0050029540, -0.1247338951, 0.0623873658, 0.1046862528, 0.0091070607, 0.0366922282, 0.0803171843, 0.1010067090, 0.0365728699, 0.0755741373, 0.1465044171, 0.2162070870, -0.0992257893, 0.0098851826, -0.0505360253, 0.0419750772, 0.1322957277, -0.0275799707, -0.0699421540, -0.0459191762, 0.0562916026, 0.0749901682, 0.0460793711, -0.0634643361, -0.0037633656, -0.0237692669, 0.0354436077, -0.0940407217, -0.0491561927, -0.0497310311, -0.0462754294, -0.0548271239, -0.0733591467, 0.0535875969, -0.0679262355, 0.0367231853, -0.0537852868, -0.0072571044, 0.0777375847, 0.0578579679, -0.0668248087, 0.0879673213, 0.1211890727, 0.1215145066, -0.1199255139, 0.0178910121, -0.1166189313, -0.0273049809, -0.1327786744, 0.0700975135, 0.0192392580, -0.0888508037, -0.0195672363, -0.0518424585, -0.0397477262, 0.0401696414, 0.0089471480, 0.0045861765, -0.0864791349, 0.0165628698, -0.0077367937, 0.2021346092, 0.0074614743, -0.0643464699, -0.0568123236, -0.1141342148, 0.0221037418, -0.0637217537, -0.1149053425, -0.0917220637, -0.0449812114, -0.0457625836, 0.0205536895, 0.0027403412, 0.0122946873, -0.0823194087, -0.0130747426, -0.0177757889, 0.0189618953, -0.0296725594, -0.1198765934, -0.0788096711, 0.0116758030, -0.0134870484, -0.0687758550, -0.0645597875, -0.0488887280, 0.0588664040, -0.0367421322, 0.0265930817, -0.0790783986, 0.0086952038, -0.1843181998, 0.0900640339, 0.0092090284, -0.0619298965, -0.0071618930, -0.0395221338, -0.1011696383, -0.0523157269, -0.0904208794, -0.0474541932, 0.0190599188, 0.0114808315, -0.0128393695, -0.1001413763, -0.0426424891, -0.0880554616, -0.1318207979, -0.0585158952, -0.1039744839, -0.0603233986, -0.1246965453, -0.0291637070, -0.0958502889, -0.1029319242, -0.0408063121, -0.0355678126, -0.0698302388, -0.0259599853, 0.0039326856, -0.0705973506, -0.0406204909, -0.0528043844, -0.0279652104, 0.0002716078, -0.0512975976, -0.0197555460, 0.0198904537, 0.0001088232, -0.0633685067, -0.0884047002, -0.1183997318, -0.1038702875, 0.0595180430, -0.0526878908, -0.0345736481, -0.0947220325, -0.0451663285, -0.0753043741, 0.0977203026, 0.0347096622, 0.1042916849, -0.0673891082, 0.2661098838, 0.1093821824, 0.1290517598, -0.0066069025, 0.0241455827, 0.0301466230, 0.0208402220, -0.0081035122, -0.0238047913, -0.0617106184, 0.1074588671, -0.1189989746, 0.0557079986, 0.0205590129, 0.1127789691, 0.0985671803, 0.0130876629, -0.1318302304, 0.0215805881, 0.0615338683, 0.0612336472, 0.1876058131, -0.0894818306, -0.1381777674, 0.1649576575, 0.0458706096, 0.0274443030, 0.0090633500, 0.0878275186, -0.0402957164, 0.0142315021, -0.1058133021, 0.0908002853, 0.0387274213, 0.0276884455, -0.0412763134, 0.0923700854, 0.0005157462, 0.0904279053, 0.0300649535, -0.0655140877, -0.0819632858, 0.1440876424, -0.0586087070, 0.1725441366, -0.0957882255, 0.0210077241, 0.0460500009, 0.0095777279, -0.1066117436, -0.0089301607, 0.0423778407, 0.0903699845, 0.1364649981, 0.1410914958, 0.0664172098, 0.0303129926, 0.0993280187, 0.2110463381, 0.1066196561, -0.0555430315, -0.0145819876, -0.0226224698, 0.0461963564, 0.1386906505, -0.0161511637, 0.0178525448, 0.0809679031, -0.0690892711, -0.0747384280, 0.0032933115, 0.0099383164, -0.0637775511, -0.0474055819, -0.0807408094, 0.0567374416, 0.0101060616, -0.0438990369, 0.0143323513, -0.1796087623, 0.0065170769, 0.0403443016, 0.0106495926, 0.0429454148, -0.1270264983, -0.0265436154, 0.0583045408, 0.0403010175, -0.0509128459, 0.0824868903, 0.1323070824, 0.1408962756, -0.1123622432, -0.1059378386, -0.0714244545, -0.0567929894, -0.1348757297, -0.0636745095, -0.1114009023, -0.0632167533, -0.1039455310, -0.0603697561, -0.0697498694, 0.0673854798, 0.0091712344, -0.0875911489, 0.0012006747, -0.0159868859, -0.0313512795, 0.0485060699, -0.0582416169, -0.0575394854, 0.0279538408, -0.0470896773, 0.0297295712, -0.0443698242, -0.0820465088, -0.1359186918, 0.0592323206, -0.0445365906, -0.0328794159, -0.1203349754, -0.1269665062, -0.0275125429, -0.1052110195, -0.0300948899, -0.0429678001, 0.0054232874, -0.0764421299, 0.0122277206, -0.1170776859, -0.0017305086, 0.0093077337, -0.0831253529, 0.0012641766, 0.0731722862, -0.0477198660, -0.0156076038, -0.1110497937, -0.0194479674, -0.1043962166, 0.0216422863, -0.1397629231, -0.0299158730, -0.0840940997, -0.0214579310, 0.0150102582, -0.1269691586, -0.0325274207, 0.0268318281, -0.0995139480, -0.1944770366, -0.1343580484, -0.1157027036, -0.1891079694, -0.0385347642, -0.1304765046, -0.0303235874, -0.0666219443, -0.0272551440, -0.1031556278, -0.0849310756, 0.0044947481, -0.0951967388, -0.1389406174, -0.0566639416, -0.0815442279, -0.1098890975, 0.0757705197, 0.0246304367, -0.0541576184, -0.0534519479, -0.0237746779, 0.0107611651, -0.0371199585, 0.0352192894, 0.0106522720, -0.0729750469, -0.0386897549, -0.0364620276, 0.0405616164, -0.0919078961, -0.0039144168, -0.0882106498, -0.1260216236, -0.1448401660, -0.0557526462, -0.1169774011, 0.1061307341, 0.0083892429, 0.0037747459, -0.0875839069, -0.0863306820, -0.0357786901, 0.0223623645, -0.0354806222, -0.0796397403, 0.0185125433, 0.0504106060, -0.0075367289, -0.0157494601, 0.0261402614, 0.0178087521, -0.0741127953, -0.0238164924, -0.0477941781, -0.0686037913, -0.0098389145, -0.0573977120, 0.0653173923, -0.0075468831, 0.0992697775, 0.0208602864, 0.0585528836, -0.0328582749, -0.0391387008, -0.0915225297, -0.0761361793, -0.1120879278, -0.0886163339, 0.0999871641, -0.0034039314, 0.0954219252, -0.1285560429, 0.0578232445, 0.1263144910, 0.1076844856, -0.0733980909, 0.0507770367, 0.0448280573, -0.0200564992, 0.0101825437, 0.0482774600, 0.0161844734, 0.1289168298, -0.0436331667, 0.1141326725, -0.0968834832, 0.1069157422, 0.0502563268, 0.0538780205, 0.0688215643, 0.0616285130, 0.0807340667, 0.0926494300, 0.1705046147, 0.0750895068, 0.0000403608, -0.0309749320, -0.0432492197, 0.0486293323, 0.0049797180, 0.1675612777, 0.0723324716, 0.0970627293, 0.0470918007, 0.2494809180, 0.0971965119, 0.0993087739, 0.0941143855, 0.1156460121, 0.1631175727, -0.0269796476, 0.0059506972, -0.0698197260, 0.0078644585, 0.1106954962, -0.1132766083, 0.0764979720, -0.0939013064, 0.1151122078, 0.1836218089, 0.0270007681, 0.0201468933, 0.0871223882, -0.0118784625, 0.0832567140, 0.0918406025, 0.1131479293, -0.0016532071, 0.1343029737, 0.0411596037, 0.0890792608, 0.0750466362, 0.0128537100, 0.0685102269, -0.0628560632, -0.0724764541, -0.1192493141, -0.0455067195, -0.0740098655, -0.0614149384, -0.0007901004, -0.0647639409, -0.0217102580, 0.0411182083, -0.0279975273, -0.0150274737, -0.1343435794, -0.0244578477, -0.0599571019, -0.0531250462, -0.1187553033, -0.0542715788, 0.0082457382, 0.0897849426, -0.0505478233, 0.0089777093, -0.0643799528, -0.0478454493, -0.0544363745, -0.1830493510, -0.1506418586, -0.0863594860, -0.0397311039, -0.0393367596, 0.0659550577, 0.0372785442, 0.0274281316, -0.0613748878, 0.0533414595, 0.0839592591, -0.0259444490, -0.0579739250, -0.1307396889, -0.0223169234, 0.0545569286, -0.0682809800, 0.0434679538, 0.0976004079, 0.0168807227, 0.0305234008, 0.0720892400, -0.0845831409, 0.0255487729, 0.0010443735, -0.0626157001, -0.0427781641, -0.0605539195, -0.0254472252, 0.0237635784, 0.1294538826, -0.0690557137, -0.0781370550, -0.0892063230, -0.1201899871, 0.0063033956, -0.0619530492, 0.0622768104, -0.0212236810, -0.0645285472, 0.0225624181, 0.0992240682, 0.0117849410, 0.0794228390, -0.0097228484, 0.0200627651, 0.0213072821, -0.0775377899, -0.0709036738, 0.0114008393, -0.0707316697, 0.0300518051, 0.0284095015, 0.0698977038, -0.1224007979, 0.0379248075, 0.1073953658, 0.0307848155, 0.0447609276, 0.0769174024, 0.0433709398, -0.0723849609, -0.0476243347, -0.0536820404, 0.0267706737, 0.0340101123, -0.0458341911, 0.0052019805, -0.0330938920, 0.0641147196, 0.0617090501, 0.0671974495, -0.0179915410, 0.1475730240, 0.0570829585, 0.0668312088, 0.0592309646, -0.0273956079, -0.0278005674, -0.0411860608, 0.0221420545, -0.0302171465, -0.0751574188, 0.0370414741, -0.0707923621, 0.0390918218, -0.1122539341, 0.0616001748, 0.0571591482, -0.1021027565, -0.0475982316, 0.0269176327, 0.0853075683, 0.0263060182, 0.1518882364, 0.0479796119, -0.0012694028, -0.0181974638, 0.0889561996, 0.0546991527, 0.0554094873, -0.0408656858, 0.0093597053, 0.0602704920, -0.0016223486, 0.1930484027, -0.0023496440, 0.0707722753, -0.0595144220, 0.0535891354, 0.0645575821, -0.0916022807, 0.0072851614, -0.0721221268, -0.0156083861, 0.1144647896, 0.0079551786, -0.0056723673, -0.0050280127, 0.0363992266, -0.0102940379, 0.0363396518, -0.0390936360, -0.0123875923, -0.0181686152, 0.0753414929, 0.0696512088, 0.1238710359, 0.0710997358, 0.0164495800, 0.0871376470, 0.1786833256, 0.1123449504, -0.0307643600, 0.0841859877, -0.0223805550, -0.0458114482, -0.0269802809, -0.0305286963, -0.0906205997, -0.0323666371, -0.0365295857, -0.0362780988, -0.0358600765, -0.1036499217, -0.0207962114, 0.0059952969, -0.0590836778, -0.0344604366, -0.1153930351, -0.0872955173, -0.0734164417, -0.0476932824, 0.0403159186, -0.0285528228, -0.0175343473, -0.0419975258, -0.0336708203, -0.0751306042, 0.0036639080, 0.0279750954, 0.0138519946, -0.0546936654, 0.0582583956, -0.0384918116, -0.0842548534, 0.0290069412, 0.0102186669, -0.0197361372, -0.0664803609, 0.0168256629, -0.0804766044, -0.0993625298, 0.0290323719, -0.0036385553, 0.0119137689, -0.0518743061, 0.0191421304, 0.0052125962, -0.0554744788, -0.0756642297, -0.0628762543, -0.0776150972, -0.0633403286, -0.0059902519, -0.0780475512, 0.1057283953, -0.0119096925, -0.0487820730, -0.0473328643, -0.0129588749, -0.0396755449, -0.0877647772, 0.0133019313, -0.0526316464, 0.0353166796, 0.0037217401, 0.1024658307, 0.0277473889, 0.0821326301, -0.0368714891, -0.0073102694, 0.1209582388, -0.0010215609, -0.0737860948, 0.0735865161, 0.0700774044, -0.0549192838, 0.0173639879, -0.0985058695, 0.0580355488, -0.0126160719, -0.1047965735, 0.0226125568, -0.0998656005, 0.0249183215, 0.0052005788, 0.0263869278, 0.0557406843, 0.0678798184, 0.0468246378, 0.0554562397, 0.1118174642, -0.0977083594, 0.0298882890, 0.0126074161, -0.0439574048, 0.0330374651, 0.0307360757, 0.1206955686, 0.0057079280, -0.0041658357, 0.0546248518, 0.1136637405, 0.0525238961, 0.0290376451, 0.0802339315, 0.1363971233, 0.1191645265, -0.0299317818, -0.0197509788, -0.0840364993, -0.0684958696, 0.0052852286, -0.0426157936, 0.1742619127, -0.1119332910, 0.0329981446, 0.0789751410, -0.0976049751, -0.0781610981, 0.0628669709, 0.0182893351, 0.0644314140, 0.2082262486, 0.0843167529, 0.0390596315, 0.1390670836, -0.0107847275, 0.0809138045, 0.1637160778, -0.1167174354, -0.0341901444, -0.1550478488, -0.0148915425, -0.0893811360, -0.1250806153, -0.1031918004, -0.0983144641, -0.0432700291, -0.0540365428, -0.0724728256, -0.0202939343, -0.0365378745, -0.1070350334, -0.1098186746, -0.0065851598, 0.0315540023, 0.0666753948, -0.0929287896, -0.0964118764, 0.0100124963, -0.0402544551, -0.0675563887, 0.0238587409, -0.1014348939, -0.0778900161, -0.0985299572, -0.2048397511, -0.0799417719, -0.0636262074, -0.0902870968, -0.0170351900, -0.0104921469, 0.0459109396, -0.0237049181, 0.0007550738, -0.2389609367, -0.1180878952, -0.1121994630, -0.0779892951, -0.0871197134, -0.0680937693, -0.0307664629, -0.0684027970, -0.0124265365, -0.0105251968, -0.0233510472, -0.0312132575, -0.0653605089, -0.0537147559, -0.1314823031, -0.0064489623, 0.0416459553, 0.0285647288, -0.0113525437, 0.0749681816, -0.0725454614, -0.0834889412, 0.0236551985, 0.0178130567, -0.2312278152, -0.1390419602, -0.0583935045, 0.0136899473, -0.0436248668, -0.0272342470, 0.0027443760, -0.0242581032, -0.0366454907, -0.1336027235, -0.0013799355, -0.1369587779, -0.1146950275, -0.1203336343, -0.0335880592, 0.0198781267, 0.0248557273, 0.0272744205, -0.1174064279, -0.0437311679, -0.0568416826, -0.1162914857, 0.0205206741, -0.0324057639, -0.0236516912, 0.1594459414, 0.0060548335, 0.0060398560, 0.0364035219, -0.0121955713, 0.0236379951, -0.0994874761, -0.1311880499, -0.0361474343, -0.0908907801, -0.1240410432, 0.1035317108, 0.0145768179, 0.0074568656, -0.0033668727, 0.0028947874, 0.1228849068, 0.0240572896, 0.0044662752, -0.0056598336, -0.0381748900, -0.0020169616, 0.0341759287, -0.0343036577, 0.0869582593, -0.0238763299, -0.0354111083, 0.0548026711, -0.0404887795, 0.0749185979, 0.0830646753, -0.0151002137, 0.0255462751, 0.0092761833, 0.1038792729, 0.0565493405, 0.1708437204, -0.0842333958, -0.0444899760, 0.0434958339, -0.0978608876, 0.0101613421, 0.0445275940, -0.0147762410, 0.0822905898, -0.0151170343, -0.1281654686, 0.2123593390, 0.0031867132, 0.0389689989, 0.0704500377, 0.1141355261, 0.0527401343, 0.0359487571, -0.0608761646, 0.0358215161, 0.0469227470, 0.0689105615, -0.0076731551, 0.0823135078, -0.0780047551, 0.0642024949, 0.0511740223, -0.0768144727, 0.0005758553, 0.0940074697, 0.0223065037, 0.0928248763, 0.0960460156, 0.1156311184, -0.0118817342, 0.0499707051, 0.0010704870, 0.0963970721, 0.1313646734, -0.0324498452, 0.0014931073, 0.0755619630, -0.0581754111, 0.0945875421, -0.0928202271, 0.0117878970, 0.0073334901, 0.0347400494, 0.0599772744, -0.0605292283, -0.0668058917, 0.0110598663, 0.0036943571, 0.0186011121, 0.0243782979, 0.0073023359, -0.1410663277, -0.0462271683, -0.0316380151, -0.0392464846, 0.0742907077, -0.0342677012, 0.0318164863, 0.0546974540, -0.0476304702, -0.0081481924, 0.0660949498, 0.0071690385, 0.0665437281, 0.1327647865, 0.0080358069, 0.0502430387, -0.0455960967, 0.0294899568, 0.0820057243, -0.1804661155, 0.0761822760, -0.0058951019, 0.0587641895, -0.1252028942, 0.0637456030, 0.0651423410, -0.0221735444, -0.0344159044, 0.0717115700, -0.1016612127, -0.1143830195, 0.0097360658, -0.1273213476, -0.0851056576, -0.0995853245, -0.0031858515, -0.0085943909, -0.0601660088, -0.0397403352, 0.0728967041, 0.1056692675, 0.0041572200, -0.0389497802, 0.0049127112, -0.1055905744, -0.0584951639, 0.0348839201, -0.0039934586, 0.0233573392, 0.1450172812, -0.1309864819, 0.1719542146, 0.1465151310, 0.0566923022, 0.0549509004, 0.0508737043, 0.0609001033, 0.0299144387, -0.0107882749, -0.0743933320, -0.0088436846, -0.0284865331, -0.1031080037, 0.0474244244, -0.0388272665, 0.0656418800, 0.0309324339, -0.1097369641, -0.0091317846, 0.0286691878, 0.0719212517, 0.0568828508, 0.1667264700, -0.0066053108, 0.1008997485, 0.0696132928, 0.0578176267, 0.1316470355, 0.0849324539, 0.1686653942, 0.0584452301, 0.0963438377, -0.0116789024, 0.1174289659, 0.0959629714, 0.1494359225, 0.0330331437, 0.1049828306, 0.0664524511, 0.0480831936, -0.0006634048, -0.0130412271, -0.1158639193, 0.0605442971, -0.1024120003, 0.1231101155, -0.0896477103, 0.1076125652, 0.1685406715, -0.0781509131, -0.1188207120, -0.0407180823, 0.0281084236, 0.0543128066, 0.2027995586, 0.1250488311, 0.0782638192, 0.1006468013, -0.0326957963, 0.1222528368, 0.1740629673, -0.0452735610, 0.0453552231, -0.0386126004, 0.0583142713, 0.0459264964, -0.0537760817, 0.0442809649, -0.0320907496, 0.0674356446, -0.0051163537, -0.0855622515, 0.0295368694, 0.0014554379, -0.0758007318, -0.0229224153, -0.0457445160, -0.0046254708, -0.0641326532, -0.0578595102, 0.0526411012, -0.0917048529, 0.0533750840, -0.0750359669, 0.0144418702, -0.0849095732, 0.0245453622, -0.0890851244, -0.0370313600, -0.0741071180, 0.0173891839, 0.0151993334, -0.0497249626, -0.0056950906, -0.0434966683, 0.0321038589, -0.0665042624, 0.0006974833, -0.0438843369, 0.0049961745, -0.0545050763, -0.0602430291, -0.0481300615, 0.0718687028, -0.0224409252, -0.0881592110, -0.0530404411, -0.0849882141, 0.0531534664, 0.0567211099, -0.0639197007, -0.0908495113, 0.0356704816, -0.0302863847, -0.0549415611, -0.0724918842, -0.0761427507, -0.0211805739, 0.0213130154, -0.0606430806, -0.0732935145, -0.0240759365, -0.0595325902, 0.0484710820, -0.0155971535, -0.0478339046, -0.0677834600, -0.0245936792, -0.0594391413, -0.0820672214, -0.0585090928, -0.0686784163, -0.0345939770, -0.0745719150, -0.0411591493, -0.0338523351, -0.0595757067, 0.0111261522, -0.0015654425, 0.0229905173, -0.0500774048, -0.0244190563, -0.0786508545, 0.0718390197, -0.0621848144, 0.0220461637, 0.0013477503, 0.0469060913, -0.0006905599, 0.0498898998, -0.0018422598, -0.0792300999, -0.0399075337, 0.0137830731, 0.0484912284, -0.0659528896, 0.0672025830, -0.0364554115, 0.0727892593, -0.0046707927, 0.0162755735, -0.0564834140, 0.0201133098, -0.0232105423, -0.0507600233, -0.0794559643, -0.0696975738, -0.0161356106, 0.0401277952, -0.0921840668, 0.0245639142, -0.0524869561, 0.0510294400, -0.0161856245, 0.0069939839, -0.0111394338, -0.0413005687, 0.0158252399, 0.0571912713, 0.0634437725, 0.0326713808, -0.0107823703, 0.0146364346, 0.0414675847, -0.0269197859, -0.0056068022, -0.0028978232, -0.0144634601, 0.0358881652, 0.0152298054, -0.0145463636, -0.0589622408, 0.0525618419, -0.0143304765, 0.0470892563, 0.0034976678, -0.0890920460, -0.0861951113, -0.0917795748, -0.0756314397, 0.0590655766, 0.0224046595, -0.0301648304, 0.0637887344, -0.0611066669, -0.0498581640, -0.0735040456, -0.0433652923, 0.0459558591, -0.0516167432, -0.0280275494, -0.0811422691, 0.0113352779, -0.0291903093, -0.0034556985, -0.0505272895, 0.0462012589, -0.0492494218, -0.0153824473, -0.0356750786, -0.0179936476, -0.0830747709, -0.0219913553, 0.0511925519, 0.0285777356, -0.0906450003, -0.0792639628, 0.0149666201, -0.0321168154, -0.0464415550, -0.0418527946, -0.0096105756, 0.0690776631, 0.0171732530, 0.0519271567, -0.0691244304, -0.0320607983, -0.0728291646, -0.0098884068, -0.0141046587, 0.0541552193, 0.0403909497, 0.0083589209, -0.0840133280, -0.0609288998, -0.0243805610, -0.0837222785, -0.0910774469, 0.0552453734, 0.0274251085, -0.0625665039, 0.0690937340, -0.0679516122, -0.0467623807, -0.0551292449, -0.0200774558, -0.0248259734, -0.0098234126, -0.0214554239, 0.0361860767, 0.0005818137, 0.0291257612, -0.0502745360, 0.0166346338, 0.0363695957, 0.0539183207, -0.0411576591, -0.0684407502, 0.0058434228, 0.0502557158, -0.0350441597, -0.0737486929, -0.0334328823, 0.0422010943, -0.0023729932, -0.0127626602, -0.0526453927, -0.0240313970, 0.0114300037, -0.0764669776, -0.0416447036, -0.0250609200, -0.0091861887, -0.0796231255, 0.0618337132, 0.0407028645, 0.0561725236, -0.0038016485, -0.0686615780, -0.0009485207, 0.0244551767, 0.0377475731, -0.0785371065, 0.0383712165, 0.0700628906, -0.0641063601, -0.0682472661, 0.0508086830, -0.0648351088, -0.0825905725, -0.0511943549, -0.0671043098, -0.0107436785, -0.0524133071, -0.0493141487, 0.0276457649, 0.0086419052, 0.0499035604, -0.0396423377, -0.0389883891, -0.0437367633, 0.0411489010, -0.0619237758, -0.0392056517, 0.0363071300, 0.0577934794, -0.0352001451, 0.0436725169, -0.0226633921, -0.0121608526, -0.0340940431, 0.0425803624, 0.0588546917, -0.0111896647, -0.0552017651, -0.0087203933, -0.0778987706, 0.0020937873, -0.0800653547, -0.0502434559, 0.0334479697, -0.0359897986, -0.0210223235, -0.0354238413, 0.0022180104, -0.0592544712, -0.0090278732, -0.0532433428, 0.0312655680, 0.0710217506, 0.0169273466, -0.0514913537, 0.0080971532, -0.0462653525, 0.0200099330, -0.0352937430, 0.0228786245, -0.0755544677, 0.0098222354, 0.0395123586, -0.0066048731, -0.0839940086, 0.0502796993, -0.1382623762, -0.0987904891, 0.0394179299, -0.0626457185, -0.0234175008, -0.1064380407, -0.0478638969, 0.0098716570, 0.1127049625, -0.0607717298, -0.0071072918, 0.1297417283, -0.0356798768, 0.1001022160, -0.0721181184, -0.0124578467, 0.0499187708, 0.0020852077, 0.0971496701, 0.0723956674, -0.0245504323, 0.0026370017, -0.0410490111, -0.1176208034, -0.0814138874, -0.0673448220, -0.1013659313, 0.0042667454, -0.0317415409, 0.0786391273, -0.0688189715, -0.0371551812, -0.0329608358, -0.0501710139, 0.0397740901, 0.0585056357, 0.0385619253, -0.0187366866, 0.0589806959, 0.0708307847, 0.1009355709, -0.0666390657, 0.0198263191, -0.0190902855, -0.1482595205, 0.0450578108, 0.0431556031, -0.0806732178, 0.0691561699, 0.0060340152, 0.0084949778, 0.0160178002, -0.0717562512, -0.1524614692, -0.0651562214, -0.0007138518, 0.0355560370, 0.0310823545, -0.0873897523, -0.1241407171, -0.0147125758, 0.0058936221, -0.0224326439, 0.0195208620, -0.1668896824, 0.0038403552, -0.0071159084, 0.0244050082, -0.0148229813, 0.0289205294, 0.0008568570, 0.0149685424, 0.0837707222, -0.0297474973, 0.0475476198, 0.0243507568, -0.0154753821, 0.0131434686, -0.0744914636, -0.0047179768, 0.0242371466, -0.0367278494, -0.0213937461, -0.0201835539, -0.0748495311, -0.1667528301, -0.0527988859, -0.0461490639, 0.0290897898, -0.0668635741, -0.0507473499, -0.1220060140, -0.0559803918, -0.0138956187, -0.0067226999, 0.0154457279, -0.1737994403, -0.1464599371, 0.0240752008, 0.0151763475, -0.0436173752, -0.0667121336, 0.0531426035, -0.0588362776, 0.0407666154, 0.0474951975, -0.0137468111, 0.1183541715, -0.1170053706, -0.0472227521, -0.0147397267, -0.0416011252, 0.0742800981, -0.0277646128, -0.0637014657, 0.0615143105, -0.0107980482, -0.1056029722, -0.0610379018, -0.0377712101, -0.0165341496, -0.0675693154, -0.1562115401, -0.1015267596, -0.0252093021, -0.0022805708, -0.0622087382, 0.0152621521, -0.0572654679, 0.0424494930, 0.0344779901, -0.0679586083, -0.0202563740, -0.0497115627, -0.0426890291, 0.0384636335, 0.0409290716, 0.0562673397, -0.0859862939, 0.0508635230, -0.0303645469, 0.0372196808, -0.0273701660, -0.0710553229, -0.0299681425, -0.0256951731, 0.0170868784, 0.0746529102, -0.0294671338, -0.0430578925, -0.1792301387, 0.0166990384, -0.0052535422, -0.0211210009, -0.0593730696, -0.0951394588, 0.0394894108, -0.0256191622, 0.0188640431, 0.1137188971, -0.0455041528, -0.0645105094, 0.0217301846, 0.0007910423, -0.0803709775, -0.0772561654, -0.0312388092, 0.0843241066, -0.0160237122, 0.0007896656, -0.0385566689, -0.0879354179, -0.0940339491, 0.0583414398, 0.0152572272, -0.0610525012, 0.0215522852, 0.0144788073, -0.0115862759, -0.0458848290, -0.0175784193, -0.0951605290, 0.0143329743, -0.0563388839, -0.0245223828, 0.0180534236, -0.0696282238, -0.0639705434, -0.0006712359, 0.0630870312, -0.0229525510, 0.0765668303, -0.0691448376, -0.0169561077, -0.0587207675, -0.0419845767, 0.0073474920, -0.0183677673, 0.1126283929, 0.0843409598, 0.0350630917, 0.1032856479, 0.0087186415, 0.1054032370, -0.0058086640, 0.1103719473, -0.0390956290, 0.1430395842, -0.0065633007, 0.0435445867, -0.0549857244, 0.0688061416, 0.0377660766, 0.0080850264, 0.0438471325, 0.0840529576, -0.0599253364, -0.0145317018, -0.1195814684, -0.0310124978, 0.0419343039, 0.0644268319, 0.0122487303, -0.0214807801, -0.0338702723, -0.1449573785, -0.0554343127, -0.0247421172, 0.0187081732, -0.0507931411, 0.0379418992, 0.0267065987, 0.0731595755, 0.0562463775, -0.0468305685, 0.0404426716, -0.0714258626, -0.0448074341, 0.0318888202, 0.0897723809, 0.0188591518, 0.1189764366, -0.0603180081, 0.0349602401, 0.0208173767, 0.0437787212, -0.0104203466, -0.0167225320, -0.0282365456, -0.0775636211, -0.1557312757, -0.0953077897, 0.0033309120, -0.0348097943, 0.0259127934, 0.1121179760, -0.1108889729, -0.0130593013, -0.0146772154, -0.0353354774, -0.0448680855, -0.1122331992, 0.0409987494, 0.1021223292, 0.0270676352, -0.0368672200, -0.0345673971, -0.0256066341, -0.0461811721, -0.0223611705, 0.0513761640, -0.0158565380, -0.0370269120, -0.0218244605, 0.0716388300, -0.0575181656, -0.0305354223, -0.0908542424, -0.0699364915, 0.0091406750, -0.0231241956, 0.0512097478, -0.0934181958, 0.0158187877, -0.2079031616, 0.0712088943, -0.0878721327, 0.0232821964, -0.0409039557, -0.0138744963, -0.1270418763, -0.0272059646, -0.1283690482, -0.0266508702, -0.0063049095, -0.0546516329, -0.0001809075, -0.0354570150, -0.0981948152, 0.0541146398, -0.0406522341, 0.0204277039, -0.0915935636, -0.1274709702, -0.0207347274, -0.0054264525, 0.0091894343, 0.0310818814, -0.0291744806, -0.0636660680, 0.0704219490, -0.0113995587, -0.0325974561, 0.0212735347, 0.1575450599, 0.0216177721, 0.0200825538, -0.0864528120, -0.0670367554, -0.0875388980, -0.1680825055, -0.0589098483, -0.1491359025, -0.2013352066, -0.2131112665, -0.0105187343, -0.0037091523, -0.1203777045, 0.0512054563, -0.0966094211, -0.1057610139, -0.0141866598, -0.1277885735, -0.1542655975, -0.1298628598, 0.0020573307, 0.0038125569, 0.0819548294, -0.0896047130, -0.0670465752, -0.0211213939, 0.0367403105, -0.1804219037, -0.2124983668, -0.2610464394, -0.2030548006, -0.1009253860, -0.1040867791, -0.1070885062, 0.0291384831, -0.0340566337, -0.0246148910, -0.0120581463, -0.0919627249, -0.0641563237, -0.1379132420, -0.0882385597, -0.0144159067, -0.0341246575, -0.0440690666, 0.0711307451, -0.0795951784, -0.0491232574, 0.0042556287, -0.1507120579, -0.0311271697, -0.1347633749, 0.0109913889, 0.0436747894, -0.0027127636, -0.0623395517, -0.0319702774, -0.1125644520, -0.0476651415, -0.0856172889, -0.1850289404, -0.1515143365, -0.1788095981, 0.0240108110, -0.0647759736, 0.0617752634, 0.1120498478, 0.1089843586, -0.0182726216, 0.1637600213, 0.2657263875, 0.2408461869, 0.0025411104, 0.0095846532, 0.1197089255, -0.0346230455, -0.0124672130, 0.0458953381, 0.0344036296, 0.1867726892, -0.0650695413, 0.2162716091, -0.1499174237, 0.0213717669, 0.1444267929, -0.0017948527, -0.0153550254, 0.0830393061, 0.0384966619, 0.1506315321, 0.1698067933, 0.0193065479, 0.0155453542, 0.0097126244, 0.0201052055, 0.1245203391, 0.1247511730, -0.0199414715, 0.0800368786, -0.0327425897, -0.1028715074, 0.1793711185, -0.0079687880, -0.0036332705, 0.0481762439, 0.1061679348, -0.0077568186, -0.0034791999, -0.0073701418, -0.0156633817, 0.0243381094, 0.0263528060, -0.0315827541, 0.1139837205, -0.0799495280, 0.0671791360, 0.0789680555, 0.0279173758, -0.0766820386, -0.0617097281, 0.0590589829, -0.0055892100, 0.0257798117, 0.1085064411, 0.0657185316, -0.1261672676, 0.0557021275, 0.2319835275, 0.2458734363, -0.0075707640, 0.0937978029, -0.0183941498, -0.0654719770, -0.0297711901, -0.1140103415, -0.0010778503, -0.1022299677, -0.0009409684, -0.0495223366, 0.0489319339, 0.0008399571, 0.0787878558, -0.0169688314, -0.0955505297, -0.0327386260, -0.1224123016, -0.0014009862, -0.0133185685, -0.0338281244, -0.0507231839, 0.0430978015, -0.0539647974, -0.0052080513, -0.0432028621, 0.0442503020, -0.2220896930, -0.0774656758, -0.0675015077, -0.0705536604, 0.0300246328, 0.0957704261, 0.0994151905, 0.0581758469, -0.0144497342, -0.0234402027, 0.1961168647, 0.0494398102, 0.0972008184, 0.0823687762, 0.0568405576, 0.1330600828, -0.0509314202, -0.0084644947, -0.0690654814, 0.0320737176, 0.0387728624, -0.0365955941, 0.1047183052, -0.0251146946, 0.0427625962, 0.0829972327, 0.0443793610, -0.0106832981, -0.0206043776, -0.0046821423, -0.0288676172, 0.0447254814, -0.0376506411, -0.0963962078, 0.0499101579, -0.1251799315, 0.0638343096, -0.0353723168, -0.0054205335, 0.0144256735, 0.0677363202, -0.1294913441, 0.1613999009, 0.1800479293, 0.1158987284, 0.0395604521, 0.0167876426, 0.0957294479, 0.0872229338, 0.0103645474, 0.0073592677, 0.0210465975, 0.1105850637, 0.0072814589, 0.1395558119, -0.0849859193, 0.0524869375, 0.0303949472, 0.0002562876, 0.0467279777, 0.0617221333, 