//Numpy array shape [64, 1]
//Min -0.329958915710
//Max 0.505246460438
//Number of zeros 0

#ifndef W12_H_
#define W12_H_

#ifndef __SYNTHESIS__
wavrec_out_weight_t w12[64];
#else
wavrec_out_weight_t w12[64] = {0.2804977298, 0.2598997951, 0.2439521104, 0.3029414415, -0.2009848505, -0.0657887012, -0.2369810492, -0.2182378024, -0.2680664659, 0.1748071313, -0.2357921302, -0.3076140285, -0.2603903711, 0.3722608387, 0.2366298735, 0.1430432796, 0.3972311914, 0.3862857819, 0.5052464604, 0.2307615727, -0.1846307665, -0.2534688413, 0.4671585262, 0.2441206127, -0.1404402405, -0.0601845458, -0.2073189020, 0.4526689351, -0.1447347701, -0.1016096771, -0.2285136729, -0.1498671621, -0.2342911363, -0.3125308156, 0.2763855159, -0.2858495414, 0.3382777572, -0.3299589157, -0.1341425776, 0.1939033270, 0.4191415012, 0.2439791709, -0.2709934115, -0.1843730658, 0.2411131114, 0.2017496824, 0.3446240425, 0.3806998730, -0.2514399290, 0.3074306846, -0.1987031996, 0.3418141901, 0.4427550137, -0.2028625309, 0.2449383587, 0.3649371266, -0.3144972622, -0.1043245867, 0.4217120409, -0.2834514081, 0.4127246737, 0.2287580520, 0.2903096378, 0.2487137020};
#endif

#endif
